tree
version=v4
num_class=1
num_tree_per_iteration=1
label_index=0
max_feature_idx=70
objective=tweedie
feature_names=acci_city acci_region_type age age_bucket age_bucket_x_duty_code annual_prem_log claim_type day_count day_count_filled day_of_week duty_code est_loss_ratio fee_item_type group_code_te hosp_grade hosp_grade_x_fee_item_type insured_gender is_expensive is_public is_yearend is_yearend_x_hosp_grade large_case_amt large_case_filled main_insured_rela member_avg_claim_size member_avg_paid member_case_count member_claim_count member_claim_rate member_disease_count member_hosp_count member_std_paid member_total_paid month month_cos month_sin monthly_avg monthly_avg_lag1 monthly_avg_lag2 monthly_avg_lag3 monthly_avg_mom monthly_count monthly_count_lag1 monthly_count_lag2 monthly_count_lag3 monthly_duty_total monthly_duty_total_lag1 monthly_duty_total_lag2 monthly_duty_total_lag3 monthly_median monthly_median_lag1 monthly_median_lag2 monthly_median_lag3 monthly_prem monthly_total monthly_total_lag1 monthly_total_lag2 monthly_total_lag3 monthly_total_mom native_place_name_te pass_months pass_prem_log policy_age_days policy_grp_name quarter rgt_source rnew_flag rnew_flag_x_duty_code sale_chnl work_addr year_actual_claim_paid_log
feature_infos=[0:256] [0:2] [0:80.421629021218337] [0:4] -1:1:2:0:8:84:6:79:7:76:92:3:16:38:78:100:85:94:99:4:89:96:91:27:25:32:106:28:129:11:12:9:13:22:20:130:21:98:15:5:119:108:48:33:90:105:35:87:34:29:97:36:53:123:18:121:10:160:39:30:122:19:120:88:117:62:14:37:55:103:166:45:133:17:51:64:46:24:66:125:135:124:23:49:86:159:95:50:151:44:26:31:68:131:41:104:111:127:81:93:71:150:40:126:162:142:52:146:43:54:56:57:61:65:101:107:157:165:75 [0:19.527323814462907] -1:0:1 [1:730] [0:730] [1:7] -1:0:3:18:19:24:1:2:4:27:9:7:6:22:23:32:10:11:21:26:5:43:8:25:12:20:42:33:16:45:14:15:13:41:28 [0:8.0748999999999995] -1:2:3:0:1:4:5:7:6:9:8:11:10:12:15:14:13:23:18:16:17:25 [417.35306841041148:193117.308435235] -1:2:0:1:3:6:7:4:9:5:8:10 -1:5:2:8:18:3:7:1:0:6:24:16:9:14:4:17:11:19:15:22:32:10:40:28:20:26:45:25:44:33:59:12:49:37:41:57:36:23:63:64:42:48:61:67:76:66:31:13:86:62:21:34:70:35:39:38:73:71:30:72:114:43:80:65:46:52:87:27:81:79:29:77:102:84:96:111:94:75:95:69:78:162:47:74:92:83:91:85:55:99:100:51:98:112:97:68:146:82:122:121:120:105:56:50:134:58:115:54:89:104:119:88:106:128:60:103:133:137:90:117:140:118:124:135:165:167:93:113:130:141:148:150:163:101:110:131:138:153 -1:0:1 -1:0:1 -1:1:0 [0:1] -1:3:0:5:1:4:2:6:15:10:11:7:16:12:17:18:8:9:14:20:13:19:21 [0:1200000] [0:1200000] -1:1:0:2:3 [0:218126.46862068967] [0:218126.46862068967] [0:118] [0:643] [0:4102] [0:44] [0:9] [0:498999.4448139242] [0:128864792.59] [1:12] [-1:1] [-1:1] [3.7999999999999998:188968.4110041841] [24.399999999999995:188968.4110041841] [17.25:188968.4110041841] [24.399999999999995:188968.4110041841] [-0.99068124682154424:90.396927485210114] [1:22851] [1:22851] [1:22851] [1:22851] [15.199999999999999:4512038.3700000001] [24.399999999999999:4512038.3700000001] [17.25:4512038.3700000001] [24.399999999999999:4512038.3700000001] [3.7999999999999998:207895.48000000001] [3.7999999999999998:207895.48000000001] [3.7999999999999998:207895.48000000001] [3.7999999999999998:207895.48000000001] [0:60483786.703999996] [30.399999999999999:189288866.92000002] [73.199999999999989:189288866.92000002] [17.25:189288866.92000002] [73.199999999999989:189288866.92000002] [-0.99964584973292203:984.1604526748971] [1207.0458650977148:44446.057004832954] [5:36] [0:18.826183797973908] [-691:487] -1:2:657:509:530:519:676:940:326:474:64:825:91:423:219:528:622:652:505:549:93:434:216:310:539:230:955:506:701:839:453:888:665:720:986:914:909:908:849:708:670:958:956:671:534:749:513:347:345:575:891:189:309:913:416:410:97:653:578:819:1026:72:298:136:827:672:373:226:743:231:360:737:217:152:485:527:953:647:780:1019:630:590:808:693:625:468:812:546:94:552:26:488:1:521:624:60:1012:346:548:694:398:467:896:1020:176:903:484:654:1023:512:702:917:894:635:489:678:948:531:66:469:547:99:660:511:611:291:751:574:805:494:579:890:699:504:555:576:401:159:673:776:188:149:836:598:964:6:137:177:629:815:455:179:156:470:483:399:119:454:745:718:282:522:752:643:942:502:601:822:711:63:5:28:46:435:703:471:668:837:734:59:429:636:225:431:1011:681:11:45:480:357:593:863:566:67:75:906:0:154:365:810:931:951:1009:595:677:570:706:803:851:573:529:572:290:966:4:352:406:997:185:761:283:820:834:82:328:700:34:680:327:811:912:692:202:603:868:334:441:571:1015:404:443:830:920:862:755:3:804:933:201:211:247:284:628:911:645:164:181:856:992:168:627:288:462:661:817:910:916:312:679:208:526:753:591:691:832:274:292:402:450:637:648:814:272:722:8:88:491:160:178:187:642:556:567:520:1018:1035:599:600:705:864:29:161:775:55:1022:39:979:998:77:228:433:437:498:500:617:902:930:936:967:351:486:725:9:766:634:844:900:61:194:767:540:663:325:392:545:857:323:740:835:23:102:535:71:251:457:503:364:666:710:807:859:976:158:895:941:949:954:36:210:380:605:826:872:1024:184:927:244:456:709:713:727:750:996:150:285:436:662:684:821:13:610:897:27:259:541:669:133:213:302:445:1006:41:48:190:238:430:640:779:866:49:427:391:594:633:277:407:460:514:589:893:116:151:212:501:615:193:261:338:362:408:516:667:904:960:43:180:237:371:608:744:845:926:945:1008:236:340:559:729:841:167:276:415:538:697:523:614:742:359:771:42:147:191:249:275:393:604:641:783:833:855:994:58:577:581:596:726:907:922:924:40:153:438:472:597:823:877:935:218:303:314:757:847:883:990:993:12:30:464:587:650:674:763:898:166:186:337:356:382:461:785:165:207:242:537:688:707:723:758:813:987:134:296:301:358:403:446:525:558:588:777:852:938:1014:24:35:44:87:111:224:355:428:481:517:592:623:721:802:929:287:313:339:353:618:682:764:828:989:1005:1027:240:307:372:409:482:561:580:748:772:818:871:944:971:53:114:204:414:476:704:873:918:1017:37:108:117:192:241:266:316:331:333:336:341:458:477:554:798:806:925:1000:222:239:348:508:569:675:714:928:937:1007:7:69:205:254:269:361:396:444:447:479:493:551:557:698:973:1030:258:344:524:533:607:656:875:1010:47:57:278:363:478:689:770:829:915:923:1013:21:22:79:85:95:122:126:169:197:299:397:515:553:631:686:760:765:846:919:980:76:96:101:145:182:198:227:255:324:439:448:496:532:542:543:550:848:850:861:1028:1029:1031:56:92:206:349:368:376:440:463:639:683:717:746:809:946:969:975:1032:25:106:110:115:135:317:384:413:451:583:620:695:739:778:789:870:957:991:1002:1034:83:271:374:459:497:728:754:756:884 [1:4] [0:10] -1:0:1 -1:0:3:37:34:36:15:50:42:1:2:4:45:9:7:16:6:41:49:35:57:40:11:10:44:17:5:39:58:21:51:77:18:60:47:20:23:24:27:8:12:38:43:76:52:29:22:30:25:68:79:14:19:59:13:32:74:56:54 -1:0:1:3:2 [0:111] [0:17.275027520051449]
tree_sizes=18621 18568 19478 19172 19761 20022 19853 19081 19684 20329 20321 21241 20614 21092 20331 20582 20607 20723 21141 22049 21485 21468 21200 21379 21681 20935 21259 21534 22204

Tree=0
num_leaves=127
num_cat=61
split_feature=4 24 24 21 31 4 24 7 24 6 24 7 31 15 24 31 21 36 63 21 24 63 6 63 24 24 4 63 63 24 31 65 27 63 15 24 63 36 6 24 31 63 63 4 63 63 15 63 20 15 63 36 24 63 21 63 31 54 31 63 63 63 63 36 63 63 31 31 63 24 13 15 24 31 12 63 63 63 63 31 24 6 63 35 63 63 24 28 63 32 63 65 61 26 63 31 13 31 63 13 63 63 63 15 28 63 12 65 24 13 31 63 63 21 27 24 24 63 13 4 63 39 20 49 24 4
split_gain=1.81766e+08 3.18915e+07 1.13581e+07 6.41401e+06 3.76759e+06 1.77152e+06 1.60172e+06 1.48019e+06 1.42873e+06 1.38561e+06 1.00967e+06 849381 679371 620781 616428 501508 497050 393863 370671 301604 301591 273066 267932 259522 209278 180410 166955 166718 159721 151473 143845 142702 159029 139798 133554 130491 121445 117225 109789 106070 99826.5 104879 99193.2 98928.2 91300.3 85713.7 82587.5 81446.2 77142.8 76447.8 72714.3 69791 67576.2 66298.8 64808.7 63430.7 60243.4 58743.5 62436.2 64054.1 57450.3 55152.6 55131 54867.3 63113.6 54359.1 53942.8 53087.2 64967.8 52743.2 49792.1 48967.5 48878.7 48252.9 46461 46289.1 44376.7 43687.1 42677.9 41608.1 41383.1 41333.5 41116.3 40846.6 40409.3 40181.2 38767.8 43893.5 37904.6 37743.7 37586.9 37156.1 36807.4 37306.6 36793.8 36699.4 35569.9 45246.5 35511.7 35037.6 34798.7 34670.8 32129.7 31831.5 31310.3 36383.9 31256.6 30632.4 30036.2 29734.7 28671.2 28466.9 28417.4 28267.2 28094 27868.3 27343.1 27305.5 26799.6 25317.3 25079.5 24181.1 23857.7 23472.9 23383 23311.4
threshold=0 7366.7582769900082 1744.5892000000001 1.0000000180025095e-35 2574.7914836391301 1 8329.2653631317571 46.500000000000007 809.25259259259269 2 3000.0272093023259 1.0000000180025095e-35 9412.5712918424451 3 2168.2000024299605 5140.2258325357307 59835.465000000004 2777.3054322662788 4 86162.450000000012 3641.5774991610738 5 6 7 14174.1369088465 19158.058236379056 8 9 10 405.04597147950096 11350.061137243778 7.5000000000000009 330.50000000000006 11 12 850.03802419354849 13 3834.3404792217966 14 3046.7531089619606 5140.2258325357307 15 16 17 18 19 20 21 22 23 24 1881.3885423365491 4315.2718570155912 25 144674.03500000003 26 890.13933591853061 19842011.630000006 20252.96885857977 27 28 29 30 7271.3145282407413 31 32 1334.0743535095401 2789.7591666367612 33 2377.938311995968 10377.716512650853 34 23453.756891891895 16366.255800857793 35 36 37 38 39 3912.1149089637274 8329.2653631317571 40 41 -0.8660254037844386 42 43 3799.2092648301509 86.003440366972498 44 470298.25500000006 45 7.5000000000000009 11.308124872096869 10.500000000000002 46 4959.8452653818558 3819.3590423372953 1061.6433105174558 47 3294.9608411988183 48 49 50 51 122.0028886554622 52 53 7.5000000000000009 2377.938311995968 1816.2686770394578 7410.8714688434547 54 55 59835.465000000004 544.50000000000011 4537.1890081863994 1304.8084094726237 56 2989.9252212611568 57 58 5239.7560717495517 59 2232.9700000000007 228.9511161616162 60
decision_type=9 2 2 2 2 9 2 8 2 1 2 10 2 9 2 2 2 8 9 2 2 9 1 9 2 2 9 9 9 2 2 2 2 9 9 2 9 10 1 2 2 9 9 9 9 9 9 9 9 9 9 10 2 9 2 9 2 8 2 9 9 9 9 10 9 9 2 2 9 2 2 9 2 2 9 9 9 9 9 2 2 1 9 2 9 9 2 2 9 2 9 2 10 2 9 2 2 2 9 2 9 9 9 9 2 9 9 2 2 2 2 9 9 2 2 2 2 9 2 9 9 10 9 10 2 9
left_child=1 4 8 7 14 6 20 12 29 16 34 38 24 18 35 51 26 27 37 113 96 44 43 -17 47 119 85 -14 80 124 48 32 53 107 69 -1 86 -12 117 88 52 70 -34 -10 -19 -23 82 -3 77 56 -33 62 98 -15 -21 121 -24 58 76 -60 -53 111 -13 64 -46 -49 94 -52 114 -11 -42 -9 -26 122 -51 -54 -47 -25 -22 125 -20 -31 -35 -82 -73 123 -30 89 -16 -88 -61 -72 93 -87 -37 -67 -4 -98 -38 -68 -62 -39 -55 -45 -84 -106 -36 -28 -108 -89 -50 -41 -43 -5 -69 -109 -76 -6 -78 -8 -71 -40 -59 -7 -2 -80
right_child=2 3 5 19 11 9 25 71 22 10 13 15 17 31 39 23 -18 21 28 54 78 45 49 30 72 -27 33 -29 36 81 -32 50 42 46 106 66 40 101 55 61 41 112 -44 103 63 57 -48 65 110 74 67 60 75 102 -56 -57 -58 73 59 90 100 -63 -64 -65 -66 95 99 68 -70 120 91 84 -74 -75 116 -77 118 -79 79 -81 83 -83 104 -85 -86 92 87 109 -90 -91 -92 -93 -94 -95 -96 -97 97 -99 -100 -101 -102 -103 -104 -105 105 -107 108 115 -110 -111 -112 -113 -114 -115 -116 -117 -118 -119 -120 -121 -122 -123 -124 -125 -126 -127
leaf_value=8.280550864025324 8.2479429013046115 8.5953458295696876 8.3432402618228387 8.6871850106018371 8.4116081585557474 8.3689990320999712 8.4591532992559308 8.31179097608217 8.3116413232806625 8.351335077261627 8.4105660815361851 8.3612731449195312 8.5778630881307976 8.4434767503786308 8.4166774062232594 8.3808876369350518 8.5936509618733421 8.4711442250690201 8.4408975217803111 8.7195696055619152 8.4844306748329235 8.6651055633388001 8.3184968527600986 8.4606427885636091 8.6036877387117379 8.6264981790451305 8.341205843332677 8.3643552053905008 8.3986004293933902 8.2689957616230085 8.6782535997206747 8.4139691694710237 8.6206155865259237 8.3415603847778215 8.250532480302784 8.2733602306892013 8.3402027283647673 8.6181132883851959 8.4213659889244425 8.3016163286314502 8.3970648424606171 8.3196593697523866 8.4323524334725839 8.2914122565336328 8.4842471168201605 8.6477405645392373 8.2778718580518191 8.4677041693437278 8.5799671325874698 8.2505273662880398 8.3726726674171879 8.5530329611849378 8.4580342640643753 8.3277997742795673 8.7378722082939682 8.3482568089929696 8.3481595544953926 8.5865529364592934 8.6296743874197919 8.5802003488935075 8.517094641364789 8.4452832435910583 8.4717846166244009 8.6184499423337275 8.5915096151701356 8.5391445759608064 8.3356393565397084 8.3671362071021829 8.3333820134937966 8.4163295155253035 8.533060113955063 8.452164812964913 8.6445244499834715 8.6631024003435133 8.3010788642503339 8.4108131414495446 8.5741518550288767 8.5538971848544154 8.4590378386328062 8.3365646570328042 8.5738952734286897 8.2892640814901899 8.3236375832631282 8.4690552306391265 8.3511898120308743 8.3484284210238666 8.4527859493449178 8.3832609051245974 8.3707133199550334 8.5755190538482609 8.4637269796953341 8.4235332907672529 8.3325886196966685 8.4631361637629485 8.3373042233936747 8.5701730730829677 8.3617343101860016 8.4036789499493736 8.4005687670332438 8.4002198564955766 8.4850783495079423 8.5307560868436827 8.3812201217860185 8.2764193069664298 8.3193436140157253 8.285733703641343 8.3309617553340995 8.3538143752446636 8.3479136998373988 8.4465846885569178 8.626901925252918 8.4033460879559794 8.3666879516934074 8.7021943837539677 8.4560602517568721 8.4505384735034443 8.3157436491350758 8.3104360299784759 8.6251045292751716 8.5351056719580836 8.3702188951819423 8.5060533677555821 8.6390815970322059 8.46745044507073 8.2579189969400613 8.4203874975151187
leaf_weight=606874.02052307129 6034970.1123352051 990532.72631835938 447939.49870300293 2793070.5250701904 43287.9365234375 74228.079650878906 74563.203811645508 123164.53828430176 2122614.6921844482 3729057.5014801025 107550.61730957031 85117.378479003906 104815.77961730957 211294.22996520996 346267.58810424805 89747.422302246094 86602.78923034668 100859.9250793457 517249.73791503906 6390555.8953857422 317517.79116821289 2373780.1112213135 3600494.9255218506 81135.249130249023 1706801.2026672363 505234.02058410645 293129.92277526855 99026.943206787109 291407.94065856934 9940098.9772338867 209382.26892089844 271063.07444763184 65133.168487548828 437658.62216186523 58982.195434570312 135270.50866699219 146499.85383605957 82820.841125488281 88364.927810668945 44124.391891479492 517242.3434753418 204621.83648681641 97000.886032104492 3512432.4685211182 115624.80776977539 1600722.807723999 2076210.3163299561 95250.85546875 476728.9559173584 195453.63079833984 1141705.2183532715 264003.92825317383 521596.64338684082 195432.22309875488 4656979.2685852051 95339.992050170898 1296693.8233032227 133426.37232971191 168004.91020202637 80542.296142578125 679596.58950805664 1000262.2039794922 240249.26593017578 432199.80015563965 225274.28173828125 841810.41329956055 185948.7045135498 678625.12927246094 2361997.8360900879 176712.73068237305 74401.587219238281 117158.50090026855 536370.42565917969 1853243.1443634033 3338831.7222900391 648302.02066040039 158404.03668212891 508657.87483215332 457924.81031799316 56915.690841674805 72573.633453369141 1630839.6515350342 744340.61628723145 180291.69520568848 104307.6100769043 97536.056396484375 76687.729766845703 120920.12741088867 896947.7843170166 64009.49528503418 74084.602630615234 102600.05325317383 683595.72749328613 66324.207794189453 1704934.9932861328 1436472.7778015137 766959.83602905273 671718.80439758301 1838147.0396575928 315361.60868835449 1553753.844909668 268528.08522033691 792694.96147155762 4503994.0004730225 634827.99282836914 1530998.0461273193 4202267.1824645996 78986.967010498047 2226436.2070465088 706601.76179504395 292372.95297241211 289870.52824401855 1425183.8470916748 4665730.6586914062 53359.264984130859 87339.497940063477 3768605.2763061523 262258.68531799316 1552191.9898681641 339489.09187316895 2329802.9367828369 100158.01301574707 1266935.9331970215 61789.176574707031 7144447.8529663086 413473.33981323242
leaf_count=3611 38357 2015 2316 2491 187 360 278 685 11809 18905 466 421 236 829 1474 422 178 361 2046 3125 1084 2769 19724 301 3295 832 1523 486 1306 60574 210 1163 112 2272 373 817 763 145 371 251 2328 1118 394 20425 395 2213 12423 345 1061 1236 5485 676 1952 1048 1217 487 6625 286 270 179 2044 3902 858 755 469 2301 979 3307 12502 753 209 447 763 2208 19014 2807 364 1297 1708 299 167 9527 4030 650 529 498 292 565 4331 146 272 428 3625 244 8941 3372 3789 2968 8193 1407 5292 762 3724 27031 3471 9011 22369 398 11382 2745 480 1282 6953 3290 201 335 20774 1463 2583 945 11264 315 1888 224 44522 1741
internal_value=8.42229 8.6128 8.32013 8.66737 8.43356 8.36853 8.44222 8.61338 8.28153 8.35962 8.37189 8.50702 8.61861 8.39396 8.36616 8.52453 8.31272 8.63654 8.41541 8.71491 8.40203 8.63981 8.30316 8.57604 8.58554 8.57918 8.30918 8.47415 8.40911 8.262 8.58721 8.36483 8.39831 8.30166 8.3479 8.32931 8.4033 8.51836 8.37385 8.40831 8.3957 8.37714 8.508 8.28899 8.57675 8.64576 8.29636 8.56692 8.57318 8.31494 8.35472 8.49428 8.40937 8.38348 8.72728 8.42669 8.32635 8.63909 8.62878 8.57923 8.50098 8.43142 8.44287 8.59053 8.55514 8.55506 8.34195 8.35093 8.3429 8.36023 8.41555 8.37143 8.61345 8.65061 8.30729 8.43187 8.63361 8.54107 8.44709 8.43431 8.46002 8.27185 8.30783 8.49914 8.40461 8.35419 8.43633 8.44769 8.38352 8.50862 8.5244 8.46957 8.34463 8.39486 8.3326 8.55871 8.37228 8.38132 8.39611 8.37627 8.49482 8.55136 8.37065 8.28299 8.30276 8.29558 8.33605 8.36416 8.33683 8.43733 8.59781 8.3899 8.36078 8.69657 8.37362 8.40461 8.30885 8.32477 8.62039 8.52143 8.37347 8.46636 8.63408 8.41372 8.25335 8.4407
internal_weight=1.30047e+08 4.53934e+07 8.46536e+07 3.47973e+07 1.0596e+07 3.75641e+07 4.05174e+06 1.6291e+07 4.70895e+07 3.35124e+07 2.65588e+07 5.07016e+06 1.59464e+07 1.38355e+07 5.52586e+06 4.48075e+06 6.95357e+06 1.03391e+07 7.96724e+06 1.85063e+07 3.13245e+06 1.01353e+07 2.23391e+07 1.65802e+06 5.60724e+06 919286 6.86697e+06 203843 7.50834e+06 2.47504e+07 1.56828e+06 5.86831e+06 1.36156e+06 5.88349e+06 1.27233e+07 2.94839e+06 6.73822e+06 458900 589410 2.57747e+06 5.4786e+06 2.32405e+06 162134 1.0139e+07 873959 9.26134e+06 5.42404e+06 3.36407e+06 1.3589e+06 1.22001e+07 4.50675e+06 2.82272e+06 3.15455e+06 1.19942e+06 1.10475e+07 283863 4.89719e+06 6.88756e+06 3.63395e+06 322632 2.49735e+06 1.33426e+06 325367 773099 340899 2.37353e+06 2.34152e+06 4.23569e+06 3.09398e+06 6.23557e+06 694244 344631 2.24317e+06 3.25361e+06 7.30289e+06 1.1699e+06 3.31132e+06 589793 1.24583e+06 928314 770115 1.15709e+07 3.34783e+06 252865 221466 983473 1.25963e+06 968219 1.24322e+06 140697 154627 177002 847456 163860 1.84021e+06 2.27828e+06 1.88662e+06 1.43868e+06 1.98465e+06 501310 2.23335e+06 351349 988127 8.01643e+06 2.91017e+06 2.16583e+06 6.48769e+06 459456 6.4287e+06 827522 769102 333995 1.62981e+06 7.4588e+06 731984 166326 7.10744e+06 305547 1.7106e+06 414052 2.50652e+06 188523 1.40036e+06 136017 1.31794e+07 871398
internal_count=544511 82489 462022 39609 42880 182404 15960 29486 279618 166444 127852 15885 27825 62806 26995 13062 38592 15734 34041 10123 13905 15012 126638 3771 12091 2055 38414 722 32668 152980 3349 28765 6107 33463 65046 15755 29805 1373 2823 11240 24751 11036 506 59265 1980 13032 31207 8033 3139 67373 22658 9291 13715 5601 4342 1173 26349 10263 5881 721 8012 5435 1279 1619 864 6018 12144 21495 16010 30922 2965 1661 4058 4382 41024 4759 5160 1598 4832 3748 2863 70101 18784 817 976 4951 5054 3748 5805 438 451 637 4367 742 9758 5673 9073 6757 8956 2386 7336 907 4772 47456 16512 12482 34124 2256 33751 3310 1541 1533 8071 5781 3508 733 39788 1650 2947 1223 12017 686 2174 584 82879 3449
cat_boundaries=0 6 12 13 17 49 79 80 109 114 147 180 212 216 249 250 282 306 311 338 371 377 410 411 414 447 478 504 533 565 597 627 655 681 712 713 714 746 779 809 838 839 872 901 930 960 967 998 1030 1060 1088 1121 1125 1156 1157 1187 1219 1248 1254 1286 1287 1292
cat_threshold=1644169544 1612718162 4 8 8388612 64 16786432 4194305 268435456 243274263 32 1 1 3279965476 1048700 268435456 32784 2048 2147483648 0 262144 0 1 1073741824 1048577 0 0 0 1048576 1343488 0 2147483648 2147549184 2048 0 0 536870912 8 2 2 8192 0 8388608 16793600 1048577 2097152 2 1073741824 4 0 0 0 0 256 2097152 0 0 0 8 67108864 256 67108864 0 1048576 33570832 0 1073741824 1 1 33562624 0 1078001664 65536 0 33685504 4 16777216 262144 134217728 1 0 0 256 0 0 0 16777216 0 0 0 0 0 0 128 4 0 0 0 0 0 0 0 0 0 0 134217728 0 16777216 8192 268751408 9244680 201326592 805307520 136 0 0 8192 0 0 0 0 0 0 0 0 0 0 0 32 570425344 524288 2147483648 0 0 20480 536870912 0 128 0 0 0 67108864 0 0 0 0 4 0 32 1073741824 8 0 67108864 1024 1073741824 0 0 16777280 0 0 2147516416 16576 335544321 16 536870912 16384 4194304 33554432 33554500 512 4194306 1073741824 16 33554440 0 0 0 0 0 2048 0 0 1073741824 0 0 167837696 20480 0 0 16777216 0 0 147456 786432 4194308 16 1610645504 272 2048 134283776 128 536871184 1073741824 524288 0 0 0 0 2097152 0 0 1064960 3347596580 1048702 272629776 16 8192 0 0 2097216 512 131072 0 4 268435456 8 33554432 0 4194304 33554432 0 536870912 294914 67108896 1 167772160 1342177282 16 0 0 0 512 8388736 0 128 0 524288 0 32 1 603979776 0 2049 0 0 33554432 16777216 0 0 0 32 0 67108864 262144 67108864 0 541590016 1073741824 0 2097152 1048576 536870913 8388608 33587200 0 4096 0 0 270336 34603008 536870912 1048576 0 0 0 0 0 0 0 0 0 0 64 0 0 0 67108864 0 0 0 0 0 0 0 0 8192 189952 851977 339869696 109059094 32 0 0 0 0 256 0 0 0 0 0 67108864 0 0 0 0 0 0 0 0 1 0 0 4194304 65536 0 131072 4 0 276824064 1073741828 0 2097152 0 0 4 0 2097152 192 0 1048576 262144 2097152 0 589824 2151677954 4210688 4 2147483648 536871168 262144 512 4096 134221824 0 0 0 1107296256 16 0 4 2339397999 2282760254 8193 524360 0 4 67108864 0 256 2 268435712 536870912 16809984 192 0 2097152 0 256 1048576 262145 32 0 37748736 256 8192 131072 1073741952 16 0 532480 0 33554432 16908288 0 262144 0 0 0 32 44 3347670308 1065084 4325376 536872960 2147483648 1073743872 0 270532608 0 1024 0 0 0 0 2048 8421376 2129920 2147483776 2147549188 524288 67108864 0 0 1107296256 134217792 1 66 0 0 25165824 0 4 0 1048576 0 2048 67110912 288 0 2 0 0 1073741824 0 0 0 134217728 0 13631744 0 0 2751463425 262144 1073741828 393216 536870912 33554432 1 2 4194304 0 8192 16777216 0 8192 33562624 1073741824 4 0 536870912 0 0 65536 1024 0 0 0 0 0 0 0 67108864 0 65536 0 0 0 0 0 0 0 0 33554432 0 0 134217728 0 0 0 0 0 0 0 0 0 0 0 576 520 0 4 0 0 0 0 0 0 0 268435456 0 0 2097152 0 0 1073741824 8 0 0 50335744 0 0 4 8 2097152 2148548608 0 67108864 67108864 0 67108864 33841152 512 2148548736 1744830464 0 32768 0 8388640 0 256 2 0 0 1048576 0 0 134217728 8 512 0 134217728 64 0 4194304 33554432 0 536870912 0 32 0 134217856 2147483648 0 0 128 2148007936 512 0 16 4096 0 0 8192 1073742080 0 2147614720 0 0 0 0 0 0 0 0 0 0 0 0 0 0 0 33554432 4194304 0 0 0 0 268435456 0 0 0 134217728 0 0 8192 4096 0 0 0 0 0 2097152 0 0 0 0 0 0 67108864 0 0 33570816 0 0 1 0 0 0 0 0 0 0 0 16777216 0 0 0 0 0 0 0 0 0 0 0 0 16384 0 0 16777216 0 134217760 0 0 4096 1 0 0 0 8388608 67108880 0 1 0 0 570425344 16777280 1 268435456 0 134217728 256 68157440 33816576 1048640 537919488 270336 32 536887296 4194440 0 0 0 0 0 0 16384 0 9216 0 536870912 17105121 2048 268435456 0 1 2 256 134283264 0 66 0 4194304 134217728 0 256 262273 0 50331904 65536 2048 8192 2228224 4096 134217728 4 0 0 33587200 0 1073741824 4096 0 67108864 2147483648 268435456 0 2049 0 0 0 167772160 64 524288 1024 134217728 0 16384 134217728 67108864 2151677960 0 32 0 81920 4096 0 18 128 0 1073741856 16 1073741824 128 1048578 128 0 1 0 0 0 0 0 0 0 64 0 0 0 0 0 0 0 33554432 0 2147483648 0 0 0 0 0 0 0 0 0 0 0 33554432 0 0 134217728 0 0 0 0 0 0 0 0 0 67125248 0 0 0 0 0 16384 0 147456 0 0 0 256 0 0 0 262144 1 32 0 536870912 0 0 0 134217728 4 67108864 6291460 134217728 0 0 135274624 268435456 0 0 1073741824 4194304 537395200 8 0 65536 32768 0 1081344 8 67108864 0 402653184 67108864 0 4 6 0 0 0 0 0 0 0 0 0 0 0 67108864 270464 0 0 0 0 0 2097152 0 536870912 0 0 0 0 0 0 1 0 0 4 2 0 0 33554432 4 0 0 0 0 67108864 0 1048576 0 0 2080 0 4194304 2147483648 512 0 0 0 33554432 0 0 262144 4 0 0 2 0 0 16777216 128 0 0 0 128 0 1074004096 1048864 16 138412035 256 32 134217728 139264 0 16 16 0 167772160 1 0 135168 1073750016 0 0 0 0 0 0 150994944 0 0 2147483648 0 268435456 131072 0 0 0 0 33554432 2097152 512 0 0 0 557056 2147483648 0 131072 8192 512 65536 0 0 33554432 32768 16777216 1 0 64 67108864 0 2097152 8388608 4194304 671088640 134217728 0 0 0 67108864 256 16384 0 268435456 544 0 4096 281051136 131076 67108864 128 0 16512 0 0 134217728 0 67108864 1048576 65536 1048576 4192 0 536871169 0 2147484192 536870912 0 1052674 0 0 128 0 67108864 266240 32 33554432 262144 0 12582912 2228224 33558528 1024 65536 0 0 134217728 4096 0 262144 134217728 0 0 0 0 0 0 0 0 0 0 0 0 32768 0 0 2147483648 0 0 0 0 8 0 2 0 0 0 0 1048576 4 0 536872960 0 0 134217728 150994944 0 0 0 0 0 67108864 262145 67633184 32 0 288 0 2147483656 545280000 0 0 2 0 1048608 1 67108864 2232320 0 67108864 0 4 2192599087 2282752062 1346396673 33652736 4 0 0 0 0 0 83886080 128 1048576 0 64 0 0 2147483648 68157952 256 0 2147483680 134217732 0 8192 71303168 16 131072 0 37748864 1073742336 1 266241 1074790400 8192 2048 0 0 0 0 512 0 0 0 0 0 0 0 536870912 0 0 0 128 0 0 0 0 0 0 0 16 0 0 0 0 256 8 4 0 0 67108864 0 134217728 134217728 0 0 0 0 0 0 2621444 262664 128 4194304 34078724 655360 2147483648 0 82048 65536 4096 134219136 32768 0 163840 0 0 64 0 0 0 0 0 0 0 0 536870912 0 0 0 0 0 0 0 0 0 0 16384 0 0 0 0 0 33554432 0 0 131072 0 1 0 4 0 1 0 16384 0 72 524288 32 0 33554432 65536 12 0 0 4210688 134217728 0 256 2147483652 268435472 32768 2129920 0 0 16 32768 0 128 16 256 9216 1 0 67108864 68 0 0 0 109056007 32
is_linear=0
shrinkage=1


Tree=1
num_leaves=127
num_cat=59
split_feature=4 24 24 21 31 24 4 24 7 6 24 7 31 15 31 24 21 63 36 63 6 63 15 15 21 24 4 63 63 24 36 63 63 24 13 63 24 15 15 4 24 6 63 20 4 63 24 63 36 65 63 63 15 27 63 31 31 31 63 21 63 31 63 24 36 63 15 63 63 31 24 24 24 24 12 24 15 15 36 32 24 63 63 63 26 65 31 63 15 63 63 9 31 6 63 63 24 4 31 65 4 26 27 65 53 13 63 24 65 24 63 63 63 5 31 63 41 50 31 63 4 31 20 24 31 13
split_gain=1.4789e+08 2.67937e+07 1.05355e+07 6.8532e+06 3.01411e+06 1.57389e+06 1.48267e+06 1.36009e+06 1.12146e+06 983736 742588 713617 636773 522957 508856 449806 396113 350039 330824 280522 271005 242884 203753 193129 191338 190086 174157 156290 139409 136588 119951 120506 119740 117391 116253 128281 109854 109218 103994 96904.8 94102.5 93863.3 92391.4 88369.7 86026 85312.3 84282.1 84151 83380.8 77848.9 77641.1 68951.6 66992.3 64810 64051.6 63318.6 62750.4 61531.4 60732.4 58196.6 58009.7 59614.9 71509.2 56640.1 54028 61351.9 50566.7 50004.7 47996 47912.8 47402.5 46838 45781 45741.5 45408.5 45384.8 43139.3 42491.2 42458.6 48178.9 40939.2 40405.3 39901.5 39271.5 39213.4 38999.8 37737.5 45362 37160 36179.5 36007.6 35789.9 35563.6 34704.6 32746.7 31970.3 31932.6 31838.5 30213.3 34666.2 29267 28931.9 28833.6 28657.1 28491.6 28438 28017.7 27864 27753.2 27634.4 27143.2 27107.9 26637.2 26417.7 25280.9 25237.4 25002.8 24743.8 24628.7 24322.9 24222.2 30509.6 24126 26666.3 23907.1 23875.5
threshold=0 7366.7582769900082 1660.5093790322583 1.0000000180025095e-35 2190.2940838152485 2917.0853928571432 1 742.87679738562099 46.500000000000007 2 12836.564182741118 1.0000000180025095e-35 9412.5712918424451 3 4347.6488089164322 2147.8177285796442 96081.49000000002 4 2777.3054322662788 5 6 7 8 9 54494.530000000006 14174.1369088465 10 11 12 350.4465357142858 2382.6885773187259 13 14 850.03802419354849 1971.9946964623575 15 4075.0772413793106 16 17 18 5562.8646787878797 19 20 21 22 23 11661.50177631579 24 3834.3404792217966 7.5000000000000009 25 26 27 586.50000000000011 28 7410.8714688434547 23234.935363675544 2789.7591666367612 29 62728.670000000006 30 5140.2258325357307 31 15304.217377706498 5091.7780889249652 32 33 34 35 890.13933591853061 8329.2653631317571 4417.0045278433563 2234.3890297227122 4315.2718570155912 36 23453.756891891895 37 38 4589.2876738916266 4616945.7350000003 19158.058236379056 39 40 41 31.500000000000004 6.5000000000000009 4347.6488089164322 42 43 44 45 1.5000000000000002 899.144334121312 46 47 48 2006.5210150375945 49 4959.8452653818558 7.5000000000000009 50 9.5000000000000018 129.50000000000003 7.5000000000000009 949008.13240384625 6443.3411738454806 51 5972.7816293393071 7.5000000000000009 1170.7773366192043 52 53 54 16.976332041072048 1110.8039130373882 55 834.00000000000011 1238.5675000000003 4959.8452653818558 56 57 3431.865017567271 58 5156.6573333333354 2141.2509144902574 7349.4611385411054
decision_type=9 2 2 2 2 2 9 2 8 1 2 10 2 9 2 2 2 9 8 9 1 9 9 9 2 2 9 9 9 2 8 9 9 2 2 9 2 9 9 9 2 1 9 9 9 9 2 9 10 2 9 9 9 2 9 2 2 2 9 2 9 2 9 2 10 9 9 9 9 2 2 2 2 2 9 2 9 9 8 2 2 9 9 9 2 2 2 9 9 9 9 2 2 1 9 9 2 9 2 2 9 2 2 2 2 2 9 2 2 2 9 9 9 2 2 9 10 10 2 9 9 2 9 2 2 2
left_child=1 4 7 8 15 23 10 29 12 17 36 38 25 19 47 33 59 32 28 48 39 45 -19 41 27 51 107 49 -14 -2 58 71 -8 -1 76 46 -7 96 -6 109 90 44 63 81 -4 -20 116 -13 -11 -16 117 -3 69 67 -18 -45 78 82 -21 -5 122 73 103 125 65 -47 83 -37 -53 -22 120 -32 -43 119 -54 -27 89 111 79 -44 -12 -29 -49 -28 118 -39 -69 113 -41 -15 -17 -83 106 -31 -64 -46 -25 -94 -70 102 108 -91 -100 -63 -59 -58 -35 -24 -34 -9 -74 -10 -50 -88 -97 -60 -36 -40 -73 -62 121 -38 123 -33 -98 -23
right_child=2 3 5 16 11 6 9 20 77 13 80 14 18 34 24 40 54 22 21 30 52 42 26 37 -26 75 66 43 -30 93 31 60 100 92 35 53 70 85 50 88 -42 72 56 55 95 64 -48 57 112 -51 -52 68 74 -55 -56 -57 105 104 115 -61 61 62 94 -65 -66 -67 -68 86 98 -71 -72 84 110 -75 -76 -77 -78 -79 -80 -81 -82 91 -84 -85 -86 -87 87 -89 -90 101 -92 -93 97 -95 -96 114 124 -99 99 -101 -102 -103 -104 -105 -106 -107 -108 -109 -110 -111 -112 -113 -114 -115 -116 -117 -118 -119 -120 -121 -122 -123 -124 -125 -126 -127
leaf_value=-0.13601493663950284 -0.16769790709585686 0.15482665958452071 -0.056786112178643142 0.24860101768391255 -0.10804799446700974 -0.025578700068351879 0.10432289210698781 -0.12049341668691628 0.018026032661874577 -0.0034775115776496607 0.11133007483634613 -0.021488253550504311 0.1459226066364617 -0.0098306844850283709 -0.050080940387880267 -0.062975076025662782 0.31033667785729008 0.17934236752589069 0.045923331568306726 0.003309481443951985 -0.099664767511072602 0.15076096214247459 -0.027576992362144011 -0.091592128834995748 0.26491407378485915 0.16196669904263172 -0.067041178641661203 0.13357941362548145 -0.050266227308221709 -0.15097730233234619 -0.0024504712548365946 -0.0045317046140189833 -0.048833625172179762 -0.15709308013592269 0.023937559361972918 -0.013626707832697297 0.02125856826333682 -0.13562883474591006 -0.011288055671507089 -0.12713855517956851 0.048636807709752393 -0.065694425385497898 0.18857880419044298 0.12992434165478783 -0.063150339600865371 0.028556486849409313 0.10731712235395349 -0.06701386512863064 0.158087713828309 0.087687743867175205 -0.06631041760079763 0.03595684876856816 -0.16909763080557264 0.06753400822277017 0.28940810315432802 0.18920279637722831 0.089662849813340939 0.07048276905824552 -0.02915178914360228 0.26905823770352066 -0.060566962052482284 0.048925645944521826 -0.026810229028768139 0.22530328572232533 0.17331108461706382 0.14760168814482338 -0.13914572675944167 -0.03875506138491925 0.10236961951103436 -0.074772428624412121 0.080468910093378129 0.06379622058585456 -0.0049480387206646999 0.014607061638428155 -0.11005700517617788 0.20180900010485242 -0.088872488342785369 -0.1077629530741613 0.20240108680269808 0.11867594052187332 0.18851500399791007 0.010864255603381659 0.034219111997482343 -0.11601828638048819 0.11849106305049108 -0.099535519946417225 -0.04625993365842495 -0.08212703031626653 -0.14330263106915286 -0.030931321549277517 -0.018716056455445728 0.094056421468495716 -0.092795787822612094 -0.12995568504932414 -0.065935135495559696 -0.090392892770473077 -0.071995758201211735 -0.047144570001183668 0.13226591986689729 0.13619712398813902 -0.079141131188531916 -0.073669165507852435 0.030347862864660451 -0.012963110233984047 -0.0085359559382093188 0.16631111664882353 -0.08504181564403554 -0.10073133854206524 0.027765089137129304 -0.093672848244606186 -0.048937194741068828 -0.067360316087426347 0.089083187917141746 0.047614263477859228 -0.12715687373091386 -0.069278152758631403 -0.053308030368139851 0.071010571160940963 0.0035079676356576067 -0.012177487793437889 0.051403055532435564 -0.067205510425882464 -0.0055530417176889472 0.052594089188944655 -0.095671206208959705 0.20151125999740624
leaf_weight=564516.03511047363 10017268.847839355 895596.36763000488 907992.77052307129 2990206.3112335205 240720.85890197754 499922.26124572754 114314.09390258789 1046904.6952819824 128747.88870239258 110512.61863708496 119349.52877807617 208018.77980041504 97721.658126831055 190885.47554016113 102527.2264251709 303128.2487487793 3445647.4829101562 34136.685791015625 102335.42541503906 300430.57357788086 4456332.0268859863 187950.42018127441 359283.37268066406 2943875.0002441406 131449.53869628906 1665256.7264862061 278624.73725891113 318897.52922058105 104197.25733947754 9601985.339050293 255130.1734161377 169828.02215576172 131339.27777099609 81083.650756835938 123352.88246154785 498175.79139709473 521441.23466491699 738913.39181518555 83825.458892822266 4030933.3246154785 270770.88252258301 3518760.829788208 571799.25314331055 686567.97792053223 220825.82052612305 82289.487609863281 125296.63354492188 60193.743225097656 124194.52514648438 128925.17144775391 181783.44129943848 98717.887283325195 188698.38293457031 69365.558258056641 5002109.9901123047 395396.47032165527 95250.57763671875 1745964.6194152832 314506.15199279785 5493808.2958221436 158484.74620056152 133514.94055175781 526220.68908691406 3023760.526763916 869215.67205810547 225546.6918182373 1244026.2339935303 1156175.652923584 863314.09439086914 1419678.1541595459 303689.49670410156 257000.44296264648 210000.70104980469 1043036.1600799561 4722057.5938873291 523163.75952148438 1060191.2705841064 105340.57551574707 3914301.8350067139 180666.07911682129 482559.94985961914 86402.351776123047 544978.64984130859 1256289.7681732178 119792.84390258789 956354.65219116211 393845.09826660156 949546.74038696289 3898216.3973693848 278695.19862365723 1644481.7621154785 432108.57020568848 296327.6049041748 1234043.1220092773 686559.880859375 434678.31826782227 3744390.0252075195 754320.91802978516 71732.465209960938 1342187.5805358887 128328.16850280762 1057216.0515441895 83809.241455078125 474105.34812927246 65935.453399658203 230513.84968566895 1030727.3647460938 90825.259353637695 132109.82737731934 1093760.7223968506 2795486.4399414062 86576.052536010742 209292.78500366211 46689.691879272461 649750.19398498535 713451.30654907227 110710.47662353516 129380.66006469727 149079.85585021973 1654430.5120849609 347973.29867553711 60590.830551147461 376976.18214416504 344748.5094909668 705822.69314575195 412059.30630493164
leaf_count=3642 70225 1821 4646 2768 1418 2308 324 6434 510 470 315 920 210 846 499 1563 936 69 359 1255 25954 382 1681 16740 100 3224 1476 743 519 64473 1075 720 657 549 483 2229 2011 4740 364 25423 957 18483 927 1618 1167 302 355 303 250 377 958 358 1324 232 2444 637 272 5529 1458 3867 808 473 2438 3600 1568 473 8062 5610 2332 7683 909 860 908 4159 28310 762 5868 623 5682 441 781 333 2009 7643 312 5534 1958 5209 25616 1323 7376 1221 1673 7827 3584 2479 20157 3765 166 3040 699 5640 290 2093 272 431 5723 520 505 6303 13918 457 609 168 4052 3701 555 417 603 7294 1205 314 1599 1202 4028 604
internal_value=-0.000168373 0.175197 -0.0954763 0.227562 0.0109707 -0.05063 -0.0281514 -0.136455 0.17209 -0.0396582 0.0602892 0.0707196 0.176568 -0.025417 0.0859582 -0.0559997 0.279858 -0.0932394 0.194209 -0.00584274 -0.115149 0.19726 -0.107401 -0.0762096 0.12671 0.144436 -0.110432 0.118263 0.044687 -0.157765 -0.0111168 -0.00437008 -0.00192834 -0.0880973 -0.0516486 -0.0375435 0.0210835 -0.0882517 -0.0469146 -0.12907 -0.0165432 -0.0636825 0.204384 0.129309 -0.084681 0.149279 0.0292108 0.0505285 0.0853501 0.0266587 -0.00965477 0.12679 -0.102153 -0.0452475 0.297945 0.151586 0.193971 0.0567263 -0.0433621 0.261848 -0.0104587 -0.0157177 -0.0324055 0.218731 0.158265 0.115785 -0.121462 -0.0478174 0.11658 -0.0936505 0.0399921 0.0390363 -0.0565591 -0.00508089 -0.112326 0.171491 -0.0705856 -0.0463549 0.197466 0.171795 0.17321 0.100524 0.0241494 -0.107128 0.0591645 -0.115267 -0.0545065 -0.0676079 -0.135085 -0.0578864 -0.025605 0.0801921 -0.0755883 -0.148583 -0.0489594 -0.104085 -0.0820577 -0.0600215 0.119951 0.130086 -0.0329326 -0.0647528 0.0773503 0.000635958 0.0676073 0.1439 -0.0902987 -0.0423375 -0.0104219 -0.106789 -0.0458637 -0.0163071 0.114789 -0.0363099 -0.11242 -0.0570018 -0.0125991 0.0386517 0.0416633 -0.0164081 0.0267745 0.012049 0.0171258 0.0337399 -0.0757508 0.185614
internal_weight=1.23205e+08 4.33823e+07 7.9823e+07 3.28938e+07 1.04884e+07 3.81131e+07 2.02862e+07 4.17099e+07 1.59621e+07 1.79507e+07 2.33553e+06 5.54308e+06 1.56414e+07 1.41814e+07 4.90737e+06 4.94536e+06 1.69318e+07 3.76928e+06 1.00976e+07 8.1213e+06 2.08566e+07 9.89569e+06 3.26319e+06 1.78269e+07 2.28227e+06 5.54378e+06 3.22905e+06 2.15083e+06 201919 2.08533e+07 7.6773e+06 6.34891e+06 506091 2.72698e+06 6.06015e+06 3.47316e+06 1.73362e+06 9.08936e+06 635710 1.00698e+07 2.21838e+06 8.7375e+06 8.6163e+06 1.91937e+06 2.21325e+06 1.27939e+06 359360 2.62509e+06 444000 231452 394990 3.35536e+06 1.07868e+07 3.1138e+06 8.44776e+06 1.08196e+06 4.99253e+06 2.41707e+06 1.32839e+06 8.48401e+06 5.5679e+06 4.67635e+06 1.8204e+06 3.62377e+06 1.17705e+06 307836 2.77894e+06 3.04443e+06 2.45976e+06 5.87601e+06 1.23369e+06 781003 6.52425e+06 2.85595e+06 4.91076e+06 2.18842e+06 2.58699e+06 320665 4.66677e+06 752465 601909 837408 605172 1.53491e+06 525873 1.69527e+06 2.54626e+06 1.39008e+06 7.92915e+06 1.5268e+06 1.94761e+06 518511 2.16246e+06 1.0836e+07 1.21278e+06 1.30525e+06 7.39409e+06 1.05065e+06 2.36104e+06 1.49773e+06 391777 1.33591e+06 155542 607620 1.8119e+06 325764 1.11181e+06 450109 263449 2.14067e+06 3.00549e+06 215324 333487 440535 1.08443e+06 1.02796e+06 234063 213206 406080 1.81292e+06 930005 582032 891553 514577 4.45021e+06 600010
internal_count=543676 82334 461342 39368 42966 191770 94918 269572 29353 87075 7843 17718 27763 65439 14561 25248 10015 21636 15770 34963 127047 15041 19451 96852 5528 11993 19382 5428 729 142525 33634 27220 2185 15352 30476 16799 6747 51199 3157 63776 9896 45653 12339 4552 12344 2702 1393 9033 1329 876 1739 8007 63271 15406 3380 2255 7753 8113 6414 6635 24370 20849 8588 4586 2343 775 17181 15174 6186 33637 4439 2850 33309 12261 29634 3986 13677 1590 7050 1368 1096 2297 2312 9119 1775 10274 12945 7335 51039 7809 8939 1554 11710 72300 6022 7698 40925 5438 5828 3496 1861 6963 456 2566 5801 703 6272 2201 1162 12737 14826 967 859 2126 6531 5159 1038 781 1463 8102 3530 2325 3521 1922 24185 986
cat_boundaries=0 6 12 13 17 50 82 83 113 119 124 129 159 192 221 243 273 277 280 285 286 319 320 325 352 384 402 435 439 467 496 529 561 590 596 629 655 656 659 660 692 719 749 778 782 815 848 849 878 911 916 920 951 983 1012 1040 1070 1102 1108 1109
cat_threshold=1644169544 1075847250 4 8 8388612 64 16786432 541065216 268435456 243275271 32 1 1 58737956 1048830 0 32784 0 0 1073741824 67108864 0 167772160 0 0 0 0 0 0 147456 786432 132 16 536903680 16 2048 128 1179648 536871696 0 524288 0 0 0 67108864 2097152 8388608 0 135266304 4 2048 0 0 0 0 67108865 1024 1048577 0 0 16777216 1048576 1081344 0 2147483648 2147483649 2048 0 0 536870912 8 2 514 8192 1073741824 8388624 16793600 1048577 0 2 1073741824 4 1 0 0 0 0 16777472 2097152 16777216 0 0 8 67108896 2097408 67108864 0 1048576 33832960 0 1073741860 1 1 33562624 0 1078001664 65536 0 33685504 4 16777216 262144 134217728 8388608 36 0 0 0 128 3414181156 2148532350 272778769 557080 262144 8442416 327721 167772160 268435472 8 1 0 256 0 0 536870912 0 0 0 0 0 0 0 128 4 0 536870912 268435456 0 2097152 0 0 0 0 0 134217984 0 16777216 8192 1048576 0 0 0 0 0 0 0 0 0 0 0 0 0 0 32 570425344 524288 2147483648 0 0 20480 536870912 0 128 0 0 0 67108864 0 0 0 0 4 0 2147483648 8192 8 0 0 1073741824 1073741824 335544320 0 16448 0 4456448 2147483648 64 67174400 18 0 4734976 140509184 0 33554436 16 4194306 0 512 136 0 4 0 0 0 0 0 33554432 0 0 0 0 0 0 16384 0 0 0 0 16 0 0 0 512 536872960 2147483648 0 0 0 1 1073742848 1048576 0 0 131136 0 13664256 2147483648 2151678080 2147483652 67108864 0 131072 536870912 33554440 0 3 8194 0 0 16777216 1048576 4 2 70597195 134313984 1073741824 65537 17662625 0 64 189984 983041 469893120 109057046 32 1 4 276824064 1073741828 0 2097152 0 0 4 0 6291456 192 0 1048576 262144 2097152 0 65536 2151677954 16384 16388 2147483648 536871168 262144 512 4096 134221824 0 0 0 33554432 16 0 4 108 134542992 593929 268435456 545264149 128 0 0 0 0 256 0 0 0 0 0 67108864 0 0 0 0 0 0 0 0 1 0 0 4194304 65536 0 131072 4 0 0 0 0 0 0 134217728 0 0 0 0 0 536903680 0 8388736 0 138412032 256 0 0 1073741824 268435456 1 0 16 134742016 0 0 8208 0 0 2147516416 4 0 0 0 0 0 1024 128 536870912 0 0 0 0 0 67108864 0 65536 32 67108864 0 134217984 2 268435712 536870912 16809984 64 0 2097152 134217728 0 1048576 262145 32 0 37814274 256 24576 131072 1073741824 16 0 8192 0 33554432 16777216 0 262144 0 0 0 32 3348194604 1065086 4341776 16 0 0 134217729 0 0 536870913 0 0 0 0 0 0 0 262144 0 33554944 65536 0 0 0 34603008 536870912 0 0 0 256 16777216 2147483648 257 33554432 134217988 66 0 0 1048576 2 0 0 167772160 1 0 0 160 16777216 32898 536870912 0 67174400 8320 336 4 0 0 0 24 0 5120 536870914 32 1073741824 2097152 512 131072 64 0 0 4 0 256 0 33554432 16512 301989888 40960 32 0 0 1375731712 16 0 33554432 131072 0 41943040 0 536870912 0 524288 4194304 2080 67108864 0 2049 0 256 33554432 16777216 2 0 0 32 0 67108864 262145 8388608 536870912 537002496 1140852736 0 0 1048704 536870913 8388608 0 0 0 0 0 2383872 34603008 536870912 1048576 0 0 0 0 0 0 0 0 0 0 0 0 67108864 0 0 33570816 0 0 1 0 0 0 0 0 0 0 0 16777216 262144 2204131631 135276570 8193 524288 0 4 67108880 0 1073741824 0 512 0 0 0 268435456 33554440 134234112 0 0 33587200 64 536873216 786432 0 671367168 0 1073741824 134217744 0 4194304 0 0 16 0 8192 33554432 2048 2147483648 2080 256 0 0 0 0 0 0 0 0 0 0 0 16384 0 0 16777216 0 134217760 0 0 4096 1 0 0 0 8388608 2048 2148540426 0 268435472 17167 0 0 536870912 0 16777472 0 33554432 0 0 0 0 0 0 0 67108864 67109376 134479872 0 2097152 512 0 0 16 0 0 33792 0 0 0 268439552 0 2148532224 0 0 0 0 0 0 0 0 0 0 0 0 0 0 0 33554432 262272 32 0 0 0 0 0 0 0 0 131072 0 0 536870912 2 0 65536 218103808 128 67108864 4194308 134217728 2097152 0 135266432 268435968 67108864 0 3221227808 0 0 128 0 4 32768 0 32768 8 0 0 402653184 0 0 8193 0 0 570425344 0 0 0 0 0 2097152 67108864 8192 75497472 101711872 537100288 48 0 136314888 0 536870915 0 33554432 0 0 16512 0 1 3420471599 2282817598 4219393 33587200 2064 288 0 64 268435456 33554434 65536 0 0 0 134217728 0 131072 134217728 0 268435457 524288 32 1 8 1048704 1 0 4194304 0 32768 128 1 0 33554440 1048592 0 2048 2 0 0 0 512 536870912 0 0 536870912 1024 134217792 0 0 0 67108992 0 128 12 1048576 4210696 1107300352 2147483648 0 1073750144 0 1024 544 134217728 0 33554688 0 32 4 1 0 0 134217984 0 0 0 0 64 0 4194320 0 0 16384 134225920 68157440 2097152 5046272 20 262148 65536 4096 134217728 262212 0 0 37916672 0 0 1 0 0 0 0 0 65536 0 4 0 18874372 134217728 0 0 270336 540672 0 2 0 138412036 273220096 41943040 536870977 65536 0 0 1048576 1073741824 0 0 269484032 67108864 16384 4 8 2 0 0 4 2097285 1 0 16 0 0 2147483648 0 268435456 0 0 0 0 0 0 2097152 0 0 0 0 557056 0 0 131072 0 512 0 0 0 33554432 32768 16777216 0 0 64 0 268451840 0 0 524288 32 0 33554432 65536 0 0 0 4243456 0 2097152 16641 2147483648 268435472 294912 2129920 8192 0 20 32768 0 128 48 0 8192 805306369 0 67108864 6 0 536870912 0 0 0 0 0 0 0 0 0 512 270464 0 0 0 0 0 2097152 0 536870912 0 0 0 33554432 0 0 1 0 0 0 0 0 0 0 1048576 0 0 0 0 32768 0 2147483648 2147483649 0 0 0 0 8 0 2 0 0 0 0 1048577 36 0 1073741824 0 2147483648 0 0 0 0 16384 0 8192 131072 1 0 603982112 524289 256 0 8 0 1 16 33718272 0 1074266144 0 0 1056896 268582920 67108864 640 0 0 4194304 134283264 134217728 0 0 0 1048576 0 131072 0 1572864 544 4194304 1077936128 8396800 516 2147483648 0 0 0 0 32 134217728 16777216 2106368 4096 0 1048576 8192 536870912 268435456 517 0 1 26
is_linear=0
shrinkage=0.118


Tree=2
num_leaves=127
num_cat=70
split_feature=4 24 24 21 31 24 24 4 6 7 7 24 21 24 21 31 15 31 63 63 6 63 15 24 63 13 21 36 63 24 63 20 6 36 4 63 7 63 4 24 26 36 15 24 24 15 21 63 15 15 63 63 28 63 31 63 63 13 63 63 24 18 12 65 31 63 63 63 63 31 6 28 31 24 63 4 15 63 63 63 24 63 31 6 15 4 6 63 63 32 63 63 26 65 24 63 24 63 63 13 63 16 28 63 65 63 63 31 31 63 63 24 63 24 63 63 24 63 37 24 63 36 4 6 12 65
split_gain=1.20458e+08 2.2373e+07 9.85204e+06 6.40797e+06 2.85832e+06 1.44851e+06 1.33889e+06 1.21042e+06 843618 829369 676350 616152 521582 507012 466380 442528 407032 358277 281576 268253 267657 249877 217654 159574 147402 145028 139329 137271 137698 125427 114760 122172 109206 108100 98041.5 96344.5 94801.4 94169 92144.6 89638.1 85858.3 80385.4 79697 79446.8 78409.3 75344.1 70791.3 66918.7 66889.6 64765.9 62589.3 56002.3 52956.9 52480.7 51715 51702.6 58545.5 51997 94412.5 60828.8 51408.2 50392.3 50340.8 49771.6 49629.3 48882.1 46397.3 46351.2 45574.7 45100.4 43425.7 41877.3 41484.2 40134.4 39884.2 39456.1 38836.1 38815.9 38649.7 38379.1 37273.1 43143.8 44233.5 37029.5 36217.2 36122.4 66112.3 35655.4 35506.1 35299.2 34703.1 34480.2 33801.6 33700.9 33485.4 33342.4 34225.8 33098.5 32897.2 32886.7 32245.8 31305.1 29821 29712.6 29446.2 29090.1 28783.5 28206 27877.2 27554.7 26500 26068.2 25938.5 25705.7 25602 25573.1 25548.2 25011.2 24954.7 23996.1 23552.3 23507.4 23054.4 35215.2 22851.3 22614.4
threshold=0 8329.2653631317571 1660.5093790322583 1.0000000180025095e-35 2789.7591666367612 742.87679738562099 3000.0272093023259 1 2 46.500000000000007 1.0000000180025095e-35 12836.564182741118 96081.49000000002 2168.2000024299605 99999.99500000001 10320.395948598305 3 5925.104004703132 4 5 6 7 8 368.23500000000007 9 1348.3863508354536 54494.530000000006 4171.165308538034 10 850.03802419354849 11 12 13 1975.9372505476151 14 15 7.5000000000000009 16 17 2377.938311995968 104.50000000000001 3757.0583909759494 18 3305.0864456563345 4898.0837360369123 19 64453.860000000008 20 21 22 23 24 24.001071428571432 25 1334.0743535095401 26 27 10377.716512650853 28 29 14174.1369088465 30 31 7.5000000000000009 23234.935363675544 32 33 34 35 890.13933591853061 36 53.23246653006732 4195.6301873393631 13447.933905210646 37 38 39 40 41 42 4195.9093703605522 43 7231.1534363777364 44 45 46 47 48 49 5697739.0250000013 50 51 9.5000000000000018 7.5000000000000009 19158.058236379056 52 7693.3463795245925 53 54 1909.7365793508245 55 56 435.53319919517111 57 6.5000000000000009 58 59 4058.3956098471049 7231.1534363777364 60 61 204.96317698561603 62 1170.7773366192043 63 64 1155.3257991901426 65 5239.7560717495517 8329.2653631317571 66 1881.3885423365491 67 68 69 7.5000000000000009
decision_type=9 2 2 2 2 2 2 9 1 8 10 2 2 2 2 2 9 2 9 9 1 9 9 2 9 2 2 8 9 2 9 9 1 8 9 9 10 9 9 2 2 10 9 2 2 9 2 9 9 9 9 9 2 9 2 9 9 2 9 9 2 1 9 2 2 9 9 9 9 2 1 2 2 2 9 9 9 9 9 9 2 9 2 1 9 9 1 9 9 2 9 9 2 2 2 9 2 9 9 2 9 1 2 9 2 9 9 2 2 9 9 2 9 2 9 9 2 9 10 2 9 10 9 1 9 2
left_child=1 4 5 9 13 23 22 11 14 15 42 44 46 29 21 24 18 47 41 32 34 48 39 111 -3 78 30 28 -21 -1 31 -19 103 66 116 73 50 -14 -23 70 53 -10 68 97 92 85 110 121 118 69 -30 -18 -40 -35 100 -55 -57 59 89 -58 79 63 -51 -32 90 -54 -27 -41 -6 -22 75 120 -49 -29 -45 -4 99 102 -20 -26 -61 -82 95 -25 -36 -24 -87 125 -66 105 -37 93 -8 -67 -13 96 -83 -15 -65 -73 -31 -34 -11 -17 -47 -59 -84 -43 -81 -76 -5 -2 -90 -64 -77 -69 -7 -101 -9 -46 -53 -12 -117 -124 -106 -56
right_child=2 3 6 12 10 20 7 8 16 77 17 94 37 43 -16 19 51 26 25 27 49 38 45 83 60 33 -28 35 36 54 61 -33 101 40 84 64 -38 -39 52 67 -42 107 -44 74 119 104 -48 72 -50 62 -52 71 65 55 87 56 57 58 -60 80 -62 -63 113 98 88 91 -68 115 -70 -71 -72 76 -74 -75 109 114 -78 -79 -80 108 81 82 106 -85 -86 86 -88 -89 112 -91 -92 -93 -94 -95 -96 -97 -98 -99 -100 117 -102 -103 -104 -105 124 -107 -108 -109 -110 -111 -112 -113 -114 -115 -116 122 -118 -119 -120 -121 -122 -123 123 -125 -126 -127
leaf_value=-0.12978671577748657 -0.17185639803699657 0.16460744707783601 -0.057786267005586707 0.19544858948890184 0.02988217458580484 -0.11367062325693623 -0.020612833319667706 -0.0069508440475157659 -0.0081442791810290727 -0.039326060356030222 -0.027126743549455906 0.10218794815218155 0.30179083059894946 0.011386728535617584 0.24217084658776686 0.040448710763621977 0.0083657352261433237 0.1457877402871296 -0.011327422065891966 0.1768962903517502 -0.090642400869768075 -0.050393284506241712 -0.050158902320956766 -0.14571821937362925 0.05652528880727406 -0.0032853575995889618 0.24309368331411829 0.16427149748173764 0.10562275131876804 -0.13521569694028979 0.027677052455792904 -0.076139376185119331 0.16573044534493672 -0.076034088112958559 -0.11959957507569902 0.15771911667134822 0.15959367272396702 0.27542677593434034 0.021268805785050734 -0.099766321421317569 0.13943173263287872 0.044554421048038487 -0.09174514465002763 0.041332199566826995 0.029953993354172575 -0.1288196561528748 0.25238567574107351 0.060877564000137989 -0.059512094363619247 -0.16616548700229844 -0.0058769209299812204 0.037958085170292748 -0.070992420144103591 -0.045970662276218738 -0.13569812961509145 -0.031470847609237948 -0.030217275156421392 -0.020645899450001802 -0.0098823104898407045 -0.01130660049047642 0.14009428096237184 0.15249042349371039 -0.11074033029561704 0.14466828481985969 0.17225810141069026 -0.1113245545968327 -0.069580365343846914 0.0033557662570727698 -0.063015632543726913 -0.06203605867288435 -0.061833516182580511 -0.072379676885351532 0.092243833303554304 0.20856596353108081 -0.087841741023745548 -0.058182130482522555 -0.086640533148145127 -0.093676475012766644 -0.065802165223408274 0.10377230526217353 0.043518890491772821 0.026165902388587469 0.010907906304542905 -0.12278837017065379 -0.13627492660137025 -0.10937751393424437 -0.075445054731706193 -0.016688613437781934 0.14323113480154978 0.12419881852491307 0.18472400452416701 -0.13280225270466647 0.032610859210244141 -0.034827560030965175 0.16954910613116045 0.0060011756179311117 0.10320186741388028 -0.033069138697538081 0.10253983550156334 -0.017923059085154954 -0.070847006737750712 0.081033628036115427 0.059149766254765555 -0.077493909935250793 -0.16770370284214287 0.074943798409217346 -0.032629917169514099 0.11812913955220368 0.12955975221220412 0.0041795620716663096 0.23320185804197535 -0.15936980059340006 0.056509568337920257 -0.094813814306162383 -0.10604422698420865 -0.022809088741332018 -0.087111263958957824 -0.053613386961008681 0.07226151886418819 0.070548206351476295 -0.036746175939034009 0.040606269362287707 -0.079266871103498726 -0.043008437193689804 -0.087524994960350905 -0.017417382578080145
leaf_weight=520910.89959716797 4044744.9730911255 1543874.2063293457 529661.39755249023 284563.93214416504 201721.93528747559 950656.92959594727 635142.69723510742 104238.60774230957 124495.67909240723 124891.97676086426 80485.028793334961 130026.08096313477 3162835.5087890625 286022.59060668945 58364.537017822266 62762.948181152344 180238.54518127441 59632.904052734375 228683.1953125 649564.64633178711 3076555.5722045898 352653.56272888184 530335.89590454102 8304898.9032440186 165072.82963562012 200945.70272827148 135952.3641204834 321166.13922119141 139637.74928283691 116446.89590454102 89144.41943359375 82051.442565917969 118801.97183227539 145501.90083312988 3251855.7317581177 820273.4412689209 178880.61065673828 4689157.1074066162 39179.509490966797 203117.16192626953 57062.690002441406 95425.767013549805 263787.51922607422 486999.61859130859 656640.26533508301 646466.13710021973 4873834.7040863037 1384986.3276062012 195288.95126342773 169020.72652435303 140761.53427124023 79149.944107055664 284348.2730255127 395348.58554077148 65949.238296508789 831281.36605834961 890446.92730712891 63135.199295043945 364505.45785522461 1544145.1133422852 1346714.7867431641 698745.50994873047 2274087.5853118896 431038.78019714355 180532.08100891113 561376.55895996094 547552.1828918457 166122.03434753418 115698.28996276855 1022425.5737457275 5570370.9625854492 991252.0326385498 1019140.0350646973 2517560.5045013428 48011.136001586914 190373.82104492188 747477.32041931152 109850.05583190918 876504.41786193848 1295286.8022613525 484355.29566955566 346564.82461547852 342808.70375061035 1111943.2060241699 4106366.2296295166 1013757.7974395752 3782717.1084747314 405414.23944091797 94958.149475097656 132035.52745056152 3470978.9482879639 1517091.9530181885 225005.87031555176 93553.190979003906 489931.37738037109 1116388.3052215576 104521.6841583252 1262467.0456390381 644212.12457275391 368506.57247924805 1565187.0768585205 124382.2512512207 65156.260513305664 56511.888244628906 53692.266448974609 148805.70335388184 551692.59838867188 302677.81489562988 1062534.1334838867 802149.75698852539 2961741.2698822021 5485120.9237060547 97248.814300537109 3718356.8338775635 854621.69134521484 601281.2698059082 1074077.0500640869 1059703.8098144531 118138.71815490723 293331.96151733398 228066.37754821777 628284.45520019531 433157.97367858887 2684257.1576080322 636187.19442749023 34168.238616943359
leaf_count=3623 31975 2607 2826 359 750 6225 2874 462 541 622 368 332 926 1166 63 218 753 122 1025 1004 18693 1821 2831 60828 514 867 113 534 331 812 299 421 199 813 21897 1440 322 2454 175 1223 135 316 1590 1724 2441 4461 3585 4339 1043 1316 556 318 1638 2005 425 4013 4237 282 1597 6866 2629 1292 14705 842 290 3660 2970 711 632 5596 30398 5554 2695 2983 280 1044 4304 661 4647 3189 1718 1322 1403 7553 29139 6451 21680 1888 183 334 4979 10501 834 489 791 4611 293 6057 1595 1716 8821 349 220 299 402 472 2641 725 2247 3282 2732 42017 281 22971 5421 2877 6483 5565 381 866 1140 2139 2537 13619 3805 162
internal_value=3.51378e-05 0.160105 -0.088856 0.212631 0.019192 -0.130627 -0.0455241 -0.0239692 -0.0351826 0.156376 0.0769717 0.0538923 0.264362 -0.0410786 -0.0884504 0.160424 -0.0221137 0.0903341 -0.00968453 0.176497 -0.108174 -0.0943589 -0.0687742 -0.153905 0.133779 -0.014385 0.127493 0.180683 0.14193 -0.0777504 0.119653 0.0172703 0.0770473 -0.00901805 -0.122578 0.18641 0.0924708 0.286047 -0.106858 -0.0587514 -0.00476064 0.0746118 -0.0438146 -0.00666348 0.0191195 -0.0856707 0.243394 0.0647799 -0.00912264 -0.0950023 0.0496531 -0.0557676 -0.114837 -0.00586336 -0.065357 -0.00446769 -0.00209674 0.00191324 0.0319635 -0.00204333 0.121478 0.127438 -0.102649 0.112406 0.175975 -0.117008 -0.0517834 -0.0448156 -0.0039796 -0.0835068 -0.0667246 -0.0590948 0.0741738 0.203554 0.0144063 -0.0840268 -0.06313 -0.0378423 -0.0545311 0.111542 0.00354353 0.0113264 0.00499278 -0.143011 -0.128906 -0.0793853 -0.0826167 -0.0322636 0.134674 0.0763047 0.179563 -0.123031 -0.00669007 -0.100396 0.155421 0.0169411 0.044015 -0.0248578 0.11943 -0.055866 -0.0753055 0.12241 -0.00556423 -0.0154351 -0.110724 0.0464711 -0.0159447 0.100493 0.115393 -0.00101814 0.229894 -0.164669 0.0993589 -0.100858 -0.0973255 -0.0419422 -0.099581 -0.0444051 0.0351294 0.0424887 -0.0174996 0.0329143 -0.0439657 -0.0480463 -0.0937689 -0.0953217
internal_weight=1.17878e+08 4.20881e+07 7.57898e+07 3.06595e+07 1.14286e+07 3.85901e+07 3.71997e+07 1.93036e+07 1.68735e+07 1.46874e+07 5.83488e+06 2.43008e+06 1.59721e+07 5.59373e+06 3.32423e+06 1.43875e+07 1.35493e+07 5.25367e+06 9.89488e+06 8.97402e+06 1.96434e+07 3.26587e+06 1.78961e+07 1.89467e+07 5.41348e+06 9.37229e+06 2.14078e+06 8.61156e+06 1.10884e+06 2.70808e+06 2.00483e+06 141684 362459 8.2671e+06 9.38296e+06 7.50272e+06 459280 7.85199e+06 2.8482e+06 1.1233e+07 7.5186e+06 522599 581208 2.88565e+06 1.81012e+06 6.66316e+06 8.12014e+06 3.1129e+06 417666 1.02604e+07 280399 3.65439e+06 2.49555e+06 7.46154e+06 2.18717e+06 7.31604e+06 6.92069e+06 6.08941e+06 708482 5.38092e+06 3.86961e+06 1.86314e+06 6.16147e+06 1.1644e+06 4.66399e+06 2.45637e+06 748498 4.08794e+06 317420 4.09898e+06 7.14503e+06 3.47416e+06 2.40413e+06 2.83873e+06 1.33716e+06 1.57466e+06 3.16694e+06 299898 1.10519e+06 2.52289e+06 4.49048e+06 2.94633e+06 2.46198e+06 9.41684e+06 7.35822e+06 5.32681e+06 4.79647e+06 505532 372739 343976 4.29125e+06 2.17202e+06 860149 654930 619957 1.56747e+06 451087 1.54849e+06 1.07525e+06 2.41946e+06 1.68163e+06 243184 190048 119275 1.33635e+06 211941 894501 398104 2.35782e+06 850161 3.24631e+06 9.52987e+06 192207 5.99244e+06 1.045e+06 3.88482e+06 2.02473e+06 1.42821e+06 222377 949972 307216 708769 3.7187e+06 3.11742e+06 689879 100117
internal_count=543388 82150 461238 36713 45437 269398 191840 91554 83416 26657 17197 8138 10056 28240 20233 25154 63183 14225 43833 13968 127025 20170 100286 142373 11186 42251 4684 12903 2213 15731 4571 543 1065 36579 63744 10690 1209 3380 18284 60656 32742 1582 2972 12509 7015 39630 6676 9541 1886 63281 887 19350 16463 32607 12108 31794 29789 25776 2685 23091 8579 4028 38992 2736 7173 16288 3837 20967 1382 24289 39689 18597 7034 3517 5286 9291 17139 1503 5672 5950 18854 11988 10270 68381 51036 30962 28131 2475 754 1088 6419 14650 3708 4149 1123 6226 1615 7223 2437 12835 9633 548 842 517 8668 754 4044 1041 5436 3562 3091 73992 464 37676 6465 19744 12708 7281 843 3307 1458 2507 19033 16156 4207 587
cat_boundaries=0 6 12 13 17 49 76 77 110 115 148 174 203 204 205 210 243 271 276 280 284 316 318 322 345 378 410 440 473 505 537 538 539 571 601 633 659 660 691 696 698 727 760 789 818 819 823 827 828 861 887 919 950 983 1014 1042 1073 1074 1100 1127 1159 1189 1215 1230 1263 1295 1325 1358 1362 1363 1364
cat_threshold=1644169544 1075847250 4 8 8388612 64 16786432 536870912 268435456 243275287 32 1 1 3347074348 1048638 272629760 32784 2048 2147483648 0 262144 128 1 1073742848 1048577 0 0 0 1048592 1343488 0 2147483648 2147483652 2048 0 0 536870912 8 0 2 8192 0 8388608 16793600 1048577 4 2 1074790400 4 0 0 0 0 256 0 0 0 0 0 67108864 0 0 0 0 100679696 3 1073741824 0 1 33562624 0 4194304 0 0 131072 4 1 0 0 1610612740 67108864 0 167772160 4096 0 0 0 0 0 147456 135004160 160 16 32768 2320 2048 128 1048576 536871440 0 524288 0 0 0 67108864 2097152 1 0 134217728 4 2206221612 2282750206 1347552769 557072 262144 0 0 0 0 256 0 151289856 128 2097152 4194304 32 2097152 1048576 262145 0 33554944 17408 1073741824 0 536870912 0 144 1073823764 0 0 8192 0 16777216 294912 134217728 0 0 32 4 0 0 0 0 0 0 0 0 4194304 33554432 0 0 0 67109024 2147484160 4194304 2147483648 4 0 4096 536870928 0 0 0 33554432 0 0 257 0 0 0 0 0 0 0 0 0 0 128 4 33554432 0 134217728 0 0 0 0 0 0 0 134217728 0 16777216 8192 19 1 2147673600 983081 474087424 109057046 32 4 268435456 1073741828 0 2097152 0 0 4 0 2097152 134217920 0 1048576 0 2097184 0 589952 2151677954 16384 16388 2147483648 536870912 262144 512 4096 134221824 0 0 0 4096 16 0 4 0 0 134217729 0 0 536870913 0 0 0 0 0 0 0 262144 0 33554944 65536 0 0 0 34603008 536870912 0 0 0 256 16777216 2147483648 8442384 852009 167772160 0 8 270 0 0 32768 1278556755 96256 16400 74 0 0 134217732 1048576 0 268435456 512 0 0 0 0 0 0 128 0 0 671088640 0 0 1245184 1073741824 268435456 2 0 4096 134217984 32 0 8208 1343246368 64 268435456 16785444 52 3349766436 1065086 4325392 513 0 0 0 0 0 0 16777216 0 0 0 0 0 0 0 0 0 786432 0 0 134234112 0 0 128 536872976 2147483648 0 0 2097152 33554433 1024 0 0 0 0 2048 1048576 2147516416 128 0 2048 67109376 0 0 33554440 0 4194304 2 0 8192 25182208 1572864 0 2 1048576 1073741828 2048 0 0 0 0 0 0 32768 134217728 0 0 67108992 32 0 134742016 1028 262664 0 2151677952 8388608 4 8192 128 66560 16 0 1048708 134251008 67108864 132096 0 0 64 1 268435968 0 8388608 2415919104 0 134217728 0 262144 1040 0 8192 131072 2097152 0 16416 4194304 268435712 4 512 0 4196352 64 538968064 0 138412288 0 0 2101248 4096 4 32768 536870912 0 2097152 671612928 4096 0 0 0 2097152 0 0 0 524288 17825792 8192 16 536870914 131072 2147483648 0 262144 640 4096 36896 1 16777216 262144 0 0 1073741840 4 0 0 0 0 0 0 16777216 0 0 4194304 0 0 4194304 262144 67108864 0 589824 32 0 4194304 570425344 536870912 16 0 0 0 136 0 128 0 0 2147483648 0 0 0 0 0 0 50331648 128 68157440 0 269484032 2097152 16384 8320 76546048 0 0 0 73728 16392 34603136 1610612736 8208 0 0 1073741824 128 0 2147483648 402653188 0 1048576 2 2048 0 0 0 2 0 65536 83886080 128 68157440 4210688 134217728 1 0 1179776 335544836 9 536870912 2147483680 0 536870912 0 1024 0 32770 0 0 8 0 0 268443648 0 1048576 268435456 0 134217732 2 2147483648 0 0 0 0 67108864 33554432 8192 131072 0 4194432 553648128 32771 536871168 0 0 8320 320 4 0 4096 0 8 1073741824 4097 17408 0 134217728 0 0 0 0 0 128 0 536871936 100663296 0 0 524289 8388608 512 138412544 256 0 0 0 1140850688 2 16 0 134222088 135168 0 0 1073745920 0 2416443392 4 0 536870912 0 0 0 1024 0 536870912 0 0 0 0 262144 67108864 0 65536 0 0 0 0 0 0 0 0 33554432 1 0 0 536870912 0 4194304 0 0 128 65536 0 0 256 67108864 1 0 570425600 4259840 32 16777216 4210688 4096 33 524288 512 4096 524288 33554560 134217732 67121152 0 64 18134576 4105 402653184 645922833 128 3416643 64 6 0 536870913 0 0 0 0 0 0 0 0 0 67109376 8320 67108864 0 0 0 0 2097152 0 536870928 0 0 0 33554432 1 0 1 16 0 2049 524288 0 0 134217728 128 0 4194304 0 0 16384 1 64 1 532736 0 0 16384 2 1 65536 0 0 561152 128 16777216 2367488 33570816 0 1 2048 256 0 0 0 0 0 0 0 0 0 0 0 0 0 524288 620756992 0 0 0 8 4096 0 0 536870912 0 8388608 0 0 4194304 67108864 0 1073741824 8 512 0 0 2 268435456 0 150994944 0 8388608 2181038080 128 67174401 32786 1073741824 4210688 67108864 0 33554438 512 4194306 1073741824 528 0 0 8192 1 3399508263 135333950 1347445249 98304 303616 589825 469762048 815796885 1 0 0 1 0 0 0 2 64 536870912 0 0 0 0 0 2097184 536870912 65536 0 0 0 8224 16 0 131072 0 0 0 1073741824 0 134221824 0 0 4 0 0 134217728 0 0 0 0 0 0 0 0 0 0 0 512 520 0 4 0 0 0 0 0 0 0 268435488 0 0 0 0 16777216 0 4 64 0 16 16384 256 0 0 0 262656 0 32 0 0 0 16 1073741824 0 0 33556480 0 16777216 2097152 268435456 0 1048576 4 0 0 0 0 0 134217728 0 0 4 64 2097216 67108864 2147483648 1048576 67109120 16384 1077936130 33554432 0 16384 4194304 16 33554432 4096 34766848 32 0 266240 1207959552 67108864 268435712 0 0 0 256 65536 0 0 0 0 64 0 0 1 0 33554432 262144 32 0 136314880 0 16 0 0 0 0 0 0 0 0 0 0 32 0 0 0 2 0 0 16777216 128 0 8 0 524672 0 262272 288 256 134250497 134217984 36 0 131072 536870928 0 524288 0 167772416 0 16777216 131072 1207967744 16 536870912 0 0 2 256 0 0 192 0 0 0 2097152 256 262144 67108896 0 134217856 0 2097152 0 0 16 16 0 0 33588224 0 134217728 0 0 2147483648 0 268435456 131072 0 0 0 0 33554432 2097152 0 0 67108864 0 557056 0 0 131072 2147491840 512 65664 0 0 134217728 32768 16785408 1 0 64 1 0 0 0 0 0 0 0 0 0 0 67108864 0 0 0 0 33554432 0 0 0 0 0 0 0 0 0 131072 0 0 0 0 0 0 16777216 0 0 0 0 0 0 262144 67108864 0 0 0 0 0 0 536870912 0 0 0 0 8 0 32 0 64 256 67108866 64 0 0 0 33554528 0 0 262144 64 536870912 537264640 0 0 6356992 0 1 0 0 0 0 0 0 0 34603008 0 2147483648 0 0 0 0 512 0 0 0 0 0 0 0 536870912 0 0 0 128 0 0 0 0 2147483648 0 0 16 0 0 0 0 256 0 0 0 0 0 0 16777216 64 0 8 0 0 0 0 67108864 536870912 0 0 0 0 0 0 0 0 0 33554432 0 0 0 0 0 2097152 0 0 0 0 0 0 0 0 67108928 0 0 0 0 0 0 16777216 4 0 18874368 0 0 0 262144 67649536 256 1073741824 0 134742020 273220096 8404992 536870912 65536 0 0 1048576 1073742336 0 17039360 135266304 0 16384 4 570425344 2113536 0 64 524288 512 0 33554432 0 12 0 0 4227072 33587200 6291456 16640 2148007936 0 32768 0 8 0 16 32768 0 0 16 256 8388608 536870912 0 67125248 0 0 1207959552 2 0 0 16777216 0 0 4194304 33554432 0 67387392 0 96 2785020160 327680 2147483648 16384 4194304 1073741824 134217746 0 8192 0 0 0 0 8192 301989888 67108864 0 0 0 0 0 0 0 0 0 134217792 0 131072 8192 32 0 262144 0 0 8 0 16 0 0 0 0 128 0 262144 0 0 0 4 173712 8388613 268435456 33559568 1 2048
is_linear=0
shrinkage=0.118


Tree=3
num_leaves=127
num_cat=61
split_feature=4 31 24 21 24 24 7 24 4 6 21 24 24 15 63 31 63 6 6 27 31 31 63 4 21 24 7 24 15 13 24 36 36 7 17 4 26 63 63 63 4 24 36 63 63 31 15 63 15 65 63 31 28 12 31 12 31 63 12 36 24 63 65 14 63 63 21 63 15 31 63 31 63 24 63 63 63 15 63 63 63 63 29 31 63 49 24 36 28 21 4 47 24 15 24 63 14 63 28 63 63 63 31 24 63 13 4 63 32 63 63 63 24 31 31 24 27 23 28 63 24 6 28 13 24 49
split_gain=9.69941e+07 1.85582e+07 8.78703e+06 5.62483e+06 2.94118e+06 1.41002e+06 1.07634e+06 1.05364e+06 760065 840477 620901 560266 470124 348158 323237 289709 266725 210422 199931 190955 183594 172862 170434 168002 167156 137918 133524 124714 120098 119442 115865 111796 110182 106091 98005.6 97236.4 91241.6 90387.5 87846.2 81883.9 79464.6 77789.6 76279.3 76126.5 71925 71348.1 67200 65628.8 64771.6 63259.7 60936.8 56705 55855.5 53861.9 52098.7 51646.8 49685 49516.7 48189.7 47816.8 47578.8 47281 45827.4 73450.9 45347.3 43507.9 42754.3 42754.1 42400.9 42302 41988 41508.3 83597.8 81348.6 44497.9 41284.1 41180.9 40948.4 40497.4 40287.2 39672.9 39400.5 38750.6 37451.9 36621.6 36062.1 35121.7 34948.7 61537.6 34526.6 34501 34099.3 31451.7 30453 30438.9 30282.4 30234.3 30064.7 28890.2 28702.7 28633.9 28299 27619.9 28297.4 26706.5 26683.3 28589.1 26913.4 26079.7 25947.9 25852.9 25832.1 25490.3 25291.8 25241.4 25180.7 28571.2 36156 25169.8 24306.6 24040.7 23961.1 23927.5 24191.4 23459.5 23405.3
threshold=0 7231.1534363777364 1442.9630952380955 1.0000000180025095e-35 3046.7531089619606 2731.6138214285716 46.500000000000007 620.07325000000003 1 2 86162.450000000012 7693.3463795245925 12836.564182741118 3 4 1351.6022544642251 5 6 7 5.5000000000000009 3148.0445519094897 10320.395948598305 8 9 144674.03500000003 23453.756891891895 1.0000000180025095e-35 850.03802419354849 10 1348.3863508354536 286.92406250000005 3249.2691685520367 3186.160586080247 8.5000000000000018 11 12 98.500000000000014 13 14 15 16 3724.2903530864201 2382.6885773187259 17 18 23234.935363675544 19 20 21 7.5000000000000009 22 4959.8452653818558 360.03457446808517 23 931.50694728740348 24 586.61963005054474 25 26 3834.3404792217966 12124.526558069383 27 7.5000000000000009 28 29 30 59684.635000000009 31 32 16366.255800857793 33 4959.8452653818558 34 4315.2718570155912 35 36 37 38 39 40 41 42 6.5000000000000009 3260.4847303417459 43 2683.8500000000004 1985.8709321660183 5058.6560715287278 419.74241742463806 199739.25500000003 44 705098.38000000012 9950.7101269841278 45 1802.2173661311915 46 47 48 352.03543814432993 49 50 51 4755.5021881706934 5741.3131611893596 52 1909.7365793508245 53 54 25274.075000000004 55 56 57 1558.9244656488552 2190.2940838152485 552.18824182367109 11661.50177631579 124.50000000000001 58 461.41066719409292 59 7366.7582769900082 60 380.01445086705206 10101.09969755788 5156.6573333333354 5389.1900000000014
decision_type=9 2 2 2 2 2 8 2 9 1 2 2 2 9 9 2 9 1 1 2 2 2 9 9 2 2 10 2 9 2 2 10 8 8 1 9 2 9 9 9 9 2 8 9 9 2 9 9 9 2 9 2 2 9 2 9 2 9 9 10 2 9 2 9 9 9 2 9 9 2 9 2 9 2 9 9 9 9 9 9 9 9 2 2 9 10 2 8 2 2 9 10 2 9 2 9 9 9 2 9 9 9 2 2 9 2 9 9 2 9 9 9 2 2 2 2 2 9 2 9 2 1 2 2 2 8
left_child=1 4 7 6 15 18 14 30 12 16 66 20 41 22 31 27 49 40 23 -18 84 61 59 94 -12 60 52 108 54 70 -2 -3 47 43 42 -21 37 124 69 -33 114 -7 67 83 98 87 75 -23 81 85 -44 -46 96 -19 -20 -30 -55 -47 -15 -11 104 -16 63 -63 -60 -29 -5 -31 101 -34 -24 73 115 95 82 -37 120 -51 -49 -35 -56 -25 91 -17 -6 -10 -57 88 -40 -26 -14 -74 -61 -42 -4 -52 -22 -45 -28 -58 -83 -8 103 -43 -13 106 -66 -107 -1 -100 -89 -77 -67 -99 -9 -73 -117 -118 -102 -69 -75 -32 -41 -124 -36 -64
right_child=2 3 5 10 11 8 68 17 9 13 24 25 90 58 21 33 19 53 28 35 26 32 29 48 89 -27 44 65 55 34 121 39 38 79 36 46 -38 -39 45 122 93 102 50 97 51 57 -48 78 -50 77 71 -53 -54 56 80 86 99 -59 64 92 -62 62 125 -65 105 112 -68 119 -70 -71 -72 72 74 76 -76 111 -78 -79 -80 -81 -82 100 -84 -85 -86 -87 -88 110 -90 -91 -92 -93 -94 -95 -96 -97 -98 113 109 -101 118 -103 -104 -105 -106 107 -108 -109 -110 -111 -112 -113 -114 -115 -116 116 117 -119 -120 -121 -122 -123 123 -125 -126 -127
leaf_value=-0.17120770672477981 -0.16571586496597485 -0.021352527201591066 -0.079430755453089988 0.20621626920390052 0.042097865588376353 -0.025262348678890344 0.026892571978846428 -0.11106343806212211 -0.057115306025921388 -0.00575458567084817 0.25355524299013271 0.099279768926351819 0.077641466508458337 -0.1670199504122887 0.15782850276438531 0.030254165964239431 0.14232072108535238 -0.1646383549610439 -0.062823048132155862 -0.044044031314187548 -0.022488516420604052 0.13819870866052994 -0.0090402358362880603 -0.042707780642170921 0.27727547152853715 0.16512383191291238 0.041797418772937446 -0.10698016503916113 -0.16468888144757329 -0.00048160901791042529 -0.14627424558024615 -0.007071792001069728 0.16110623926887457 -0.036791955378590896 0.013007338003208579 -0.050556371316161045 0.17105299585395417 -0.011012082124777382 0.15079317395517078 0.12684907634428322 -0.11871504029009591 0.014716146435778506 0.032175724706974274 -0.10197645517052799 0.060101498583895754 0.13557736916555768 -0.13038950847647876 0.092334656506294077 -0.12259348644117703 0.14092417553324554 -0.059606562376114995 0.09609652607473583 -0.083636184594154256 -0.10269199394617703 -0.00015852140513130349 -0.079883544294628003 -0.044410058719731145 0.048332339366291568 0.01008893366581119 0.048403998184597515 0.11150782635064901 -0.027903464620140376 0.11704542659555829 0.12595095754292263 -0.017686361991278099 -0.074461213690236089 0.22603004031779264 -0.024779659359081632 -0.090627062307305425 0.18934998555273122 -0.059490479744513367 -0.015408796790761787 -0.018867263014773369 0.03370183098339774 -0.055254030404370019 -0.081160009761092486 0.003645742585264553 0.0079014148415051891 -0.037579556780698485 -0.1162718604163456 -0.0458524735637987 -0.14634679182084159 -0.029688823448065737 0.11997134567711185 0.0054364784637410931 0.032349541175605193 -0.06332676200859938 0.14607225011620339 0.05350192957222967 0.30128697364188245 0.15208210925082516 0.10203476089228276 0.12064285448068608 -0.13414301952706814 -0.045456404926302277 -0.012935619200218402 0.075004114738114025 -0.020191003260697189 0.018286736512530696 -0.085908232006432342 -0.087955924978698086 -0.047192178871286246 -0.05615445424223911 0.050806324008967611 0.069110604960966118 -0.012710668813803202 -0.070121945389284707 -0.049775786701833726 -0.11093040889287473 -0.09380905375358034 0.16757819331353233 -0.11583770965875342 -0.046700328673308485 0.025257109576935659 -0.083747636515739632 0.096084586862941454 0.092128542324419235 -0.0083618994234672395 -0.14160188456299411 -0.062443181604140946 0.098436059982445687 -0.12272787536404588 0.061595137347688102 0.11771270443592922 0.067934509554045994 0.14388835684085374
leaf_weight=133863.94840240479 6102255.2700653076 117127.92036437988 574904.43653869629 2418506.2346496582 506041.29089355469 623081.50988769531 130958.76960754395 1261279.1512145996 195044.18112945557 115687.89717102051 5178590.1818847656 695597.78982543945 110564.51329040527 49724.759315490723 592765.16271972656 230421.85116577148 45336.827003479004 149981.1364364624 3215294.4083480835 360030.79564666748 93223.258178710938 193333.62956237793 298766.42112731934 215203.22695159912 2042641.9599609375 444144.29766845703 291475.17665100098 270730.89324951172 85318.400131225586 304664.21701049805 8074604.1087646484 90638.200088500977 1146820.3548126221 254589.06078338623 153517.53103637695 265234.78564453125 53020.622985839844 826821.6735534668 436253.84059143066 536250.07696533203 3178164.5531921387 772084.49678039551 459303.59353637695 48670.565551757812 1467960.9683074951 281991.68148803711 1183842.964881897 70451.361251831055 1491135.4893798828 61340.658386230469 211171.86068725586 1041940.4078063965 108474.32757568359 3652841.96118927 286183.6716003418 3913496.7476959229 250878.89378356934 133499.50122070312 166806.83090209961 179557.00369262695 1313489.7918395996 73067.567321777344 1474795.2690887451 105706.94578552246 161572.85073852539 715272.44602203369 4065417.0761871338 350250.68418884277 152242.87969970703 2073268.854095459 993870.91882324219 277957.09887695312 64304.791702270508 346198.78610229492 970295.01289367676 501786.0548248291 764398.92292785645 67880.036285400391 63530.865844726562 136382.83819580078 3504657.5866241455 145163.87215423584 531000.21812438965 90127.626022338867 1515786.1287994385 92481.149353027344 3278474.6871948242 1037055.3383636475 114224.48434448242 1409065.5092773438 402797.75009155273 65636.531311035156 157559.26699829102 4060748.3246307373 1016299.0013198853 2322896.5758056641 84368.671401977539 565861.93154907227 70951.552261352539 3109089.4696350098 1672788.7129669189 158882.34287261963 55543.672027587891 497381.1203918457 990920.9107208252 316397.09944152832 1395192.9616470337 1979543.924118042 394442.47563934326 48333.915176391602 3137966.6180267334 741541.2264251709 1293211.9772796631 244017.88223266602 751794.60311126709 76099.421234130859 64629.460388183594 217939.17726135254 131340.31204986572 748664.44285583496 103840.77029418945 650223.71047973633 215620.28033447266 212253.37222290039 367346.61839294434 652362.49229431152
leaf_count=1115 53023 529 3595 2432 1703 3002 492 8910 1065 499 3099 1602 271 366 937 884 120 1277 18495 1886 464 358 1358 1208 841 648 963 1820 720 1324 65581 345 1688 1278 635 1488 91 3732 722 1013 23385 2994 1682 285 4383 508 8880 170 10912 137 1140 2476 655 24693 1326 24334 1437 396 719 565 2758 295 2992 203 800 4268 3353 1696 971 2466 5416 1239 296 1260 5164 3209 3160 291 287 889 18793 1102 2552 206 6131 341 18992 1712 313 344 654 178 339 31422 5518 10644 258 2688 257 19945 10927 855 277 1599 2717 1485 8159 10687 2869 260 4442 5276 6946 906 4925 220 188 949 973 4115 288 4832 611 443 1158 1136
internal_value=-0.000518772 0.143423 -0.0833976 0.197081 0.0270024 -0.0471973 0.140806 -0.130442 -0.0260262 -0.034177 0.246232 0.0668015 0.0355958 -0.0220766 0.147078 -0.0518458 -0.0861479 -0.109847 -0.0700382 -0.098071 0.0424597 0.153051 -0.0111893 -0.0897367 0.266963 0.103755 0.0600171 -0.0745468 -0.0628021 -0.0142255 -0.153243 0.0880168 0.161376 -0.0112532 -0.00954452 -0.101642 0.0192164 0.0132429 0.164005 0.100163 -0.121602 0.00912313 -0.0146574 0.0064096 0.0675528 0.15443 -0.109343 0.0942149 -0.103668 0.00248095 -0.00925211 0.0750439 -0.0169202 -0.094663 -0.0517742 -0.073419 -0.0931661 0.10755 -0.051575 0.0597021 0.0946691 0.128098 0.120455 0.0630741 -0.0501464 -0.062573 0.218639 -0.0395957 -0.0402065 0.179291 -0.0478305 -0.0124148 -0.0250158 -0.00479124 -0.0391689 -0.0928263 0.0203189 0.0710585 0.0307345 -0.0645209 -0.042403 -0.0906289 -0.0155546 0.0554779 0.0146127 -0.0283394 -0.072336 0.158552 0.130605 0.287078 0.136054 0.0422033 0.0821666 -0.12737 -0.057731 -0.0168251 0.0238303 -0.0119111 0.0217773 -0.0828101 -0.0959192 -0.0137187 0.0252928 0.0288564 0.0815548 -0.0527544 -0.0646804 -0.0446682 -0.126204 -0.0271403 0.162237 -0.101843 -0.0565864 -0.00649734 -0.100862 0.0112493 0.0319088 0.0146254 -0.0918608 -0.0504393 0.0486374 -0.144519 0.110243 0.0894332 0.0517445 0.125278
internal_weight=1.13208e+08 4.13656e+07 7.18427e+07 2.83153e+07 1.30503e+07 4.06009e+07 1.32011e+07 3.12419e+07 2.10706e+07 1.86092e+07 1.51142e+07 8.67271e+06 2.46145e+06 1.50946e+07 1.2759e+07 4.37759e+06 3.51452e+06 1.64148e+07 1.95303e+07 3.09777e+06 5.22856e+06 1.15871e+07 1.10254e+07 5.24684e+06 8.6303e+06 3.44415e+06 3.20673e+06 2.80752e+06 1.42834e+07 1.05726e+07 1.48271e+07 1.17189e+06 8.6884e+06 1.57007e+06 9.27996e+06 3.05244e+06 1.40071e+06 1.34769e+06 8.36108e+06 1.05476e+06 9.25199e+06 1.94809e+06 7.87925e+06 1.1791e+06 2.92066e+06 5.14099e+06 2.69241e+06 327316 3.65563e+06 416746 6.47567e+06 2.5099e+06 286066 7.16279e+06 7.00614e+06 7.27729e+06 7.01281e+06 415491 4.06924e+06 452804 3.00001e+06 2.8987e+06 2.30593e+06 178775 4.01951e+06 2.27922e+06 6.48392e+06 1.40358e+06 442084 3.22009e+06 1.29264e+06 6.01637e+06 2.26786e+06 3.74851e+06 1.63124e+06 1.50856e+06 1.21444e+06 129221 133982 390972 3.79084e+06 2.1645e+06 660942 320549 2.02183e+06 287525 7.19197e+06 4.7255e+06 550478 3.45171e+06 513362 129941 337116 7.23891e+06 1.5912e+06 2.53407e+06 177592 858550 410761 3.35997e+06 1.94929e+06 289841 1.32501e+06 1.26947e+06 1.68652e+06 3.85271e+06 1.55677e+06 2.29594e+06 528306 119285 4.17502e+06 1.24333e+06 2.00848e+06 809880 2.01307e+06 636625 358668 282569 1.80413e+06 1.09892e+06 450040 8.72483e+06 964124 427874 520864 2.12716e+06
internal_count=543301 83382 459919 33953 49429 220489 23884 239430 103594 94797 10069 25275 8797 72104 21566 24154 22693 115994 116895 20859 17550 18625 49888 34235 4284 7725 9716 17018 82660 48485 123436 2941 13062 7136 41711 20739 5616 5525 12247 2412 68642 7872 36095 4969 8339 8093 18853 815 25122 1834 28960 6859 1377 47352 38614 44046 46075 904 22216 1403 7077 5563 4626 498 21850 13034 5785 7135 2318 4154 6774 27278 10786 16492 8190 9973 4708 428 457 2167 20119 14210 3026 1090 7834 1406 43326 7189 1035 1185 925 474 904 54807 9113 11784 722 3879 1480 21382 13002 1347 4870 4593 4319 21131 8959 12172 3984 517 6154 8485 11214 3594 13835 2596 1357 1137 11900 5811 1548 70413 2067 1054 1793 4128
cat_boundaries=0 6 12 13 17 47 80 81 82 114 119 123 124 129 162 195 222 227 257 288 291 320 324 355 356 357 383 384 416 417 449 480 511 515 548 580 609 641 673 675 708 738 770 802 834 840 844 876 877 910 943 972 1001 1034 1036 1069 1098 1130 1159 1160 1193 1194
cat_threshold=1644169544 1612718162 4 520 8388612 64 16786432 4194304 268435456 243274775 32 1 1 3279965484 1048830 268435456 32784 0 0 536871168 0 256 0 0 0 0 8 67108864 8448 0 524288 1048580 117456912 3 0 8192 1 1073750016 268435456 4194304 598016 0 163840 4101 0 0 134217728 0 0 1073741824 0 0 167837696 4096 0 0 0 0 0 147456 786432 4194436 16 32768 134217744 2048 134217856 1048576 536871698 0 524288 0 0 0 67108864 2097152 8193 0 134217728 4 1 1 2048 2147483648 0 0 0 1 1024 1048577 0 0 16777216 1048576 1081344 0 2147483776 2147483648 2048 0 0 32896 8 64 514 4194304 1073741824 8389136 16384 1048577 0 2 1073741824 4 17212976 9375781 469762048 648020117 160 3347598628 1048694 272760832 16 1 53776 327689 134217728 268435456 8 0 32 1207959552 0 0 0 65536 0 0 0 134217728 0 4456448 2359297 96 872415233 0 536872960 0 536870912 0 19 0 8192 0 0 0 0 0 0 0 2147483648 32 4 276824064 1073741828 0 2097152 0 0 4 0 6291456 192 0 1048576 0 2097152 0 589824 2151677954 16384 16388 2147483648 536870912 262144 512 4096 134221824 0 0 0 4096 16 0 4 0 0 0 0 0 0 0 0 0 0 0 0 0 524288 1048580 16777216 0 0 0 1 0 0 4194304 0 0 0 5 2282153504 720937 335675392 645930007 32 4 0 1753219073 2 33554976 2147483648 50331648 0 0 536870912 0 524288 512 262144 0 256 4227200 0 0 16384 16384 1610613776 0 0 0 0 0 134217728 262144 1107296256 0 0 0 0 67108864 0 512 0 0 0 0 0 1049088 0 0 2 536870912 268435456 0 1048576 1073741824 268435457 0 0 4096 134217984 0 16777216 8208 34623488 64 2346737967 135276606 8397313 0 0 0 0 0 0 0 0 0 0 33554432 0 0 0 32 536870912 128 2147483648 0 16384 4096 536870912 0 0 0 0 0 0 2097152 128999727 2281711678 268583425 589896 0 0 8192 8 512 67239936 1073741888 1073741824 335544320 0 16448 0 4194304 2147483648 16384 0 0 1073741824 4734976 2097152 0 33554436 16 33554434 0 0 58720264 0 8388612 0 524288 2048 2048 0 0 134217728 0 0 2097152 16777216 0 0 0 0 0 0 0 67109440 8 0 4 0 0 0 0 0 0 0 268435488 2048 0 0 134217728 0 0 0 0 0 538968064 4194304 64 0 1064960 262145 0 0 16384 1073741824 0 536870912 0 536871040 20 0 0 0 128 134217728 262272 0 0 1048576 12 536872976 2147483648 0 64 0 1 1073808384 0 268435456 2097152 0 2048 1048576 8192 128 0 526336 335544320 134217728 541065216 2 0 2 0 0 0 25182208 1572864 4 0 0 1073741828 64 0 2147483648 0 268435456 131072 16777216 0 0 0 33554496 2097408 0 32768 5242880 67108864 557056 0 8 131072 8192 2147484160 262144 8192 0 33554432 1048576 151003152 4097 0 67108928 256 16384 134217988 66 0 0 0 0 0 67125248 33554432 0 131072 0 4194336 16777248 32898 0 0 67174408 8192 0 20 131072 0 0 24 0 1052672 131080 16 17167 0 0 32768 16 0 2049 64 128 0 134217728 33554560 0 4194304 0 0 0 262145 64 536870913 794880 0 0 16384 2 134217728 0 32768 0 32768 128 16777216 2367488 33554432 0 1 2048 603979778 0 1073741825 0 256 0 16777216 0 0 0 32 256 0 33554432 0 536870912 786944 36 0 4259840 1108361344 0 8388608 0 0 131072 0 0 24576 34603008 536870912 1048576 0 0 256 0 0 0 0 64 0 0 0 0 16384 262145 75497472 3162116 4432128 67110928 262148 0 4096 671088641 262144 0 0 36864 0 0 262144 32 0 536870912 2 0 0 134217728 128 68157440 4194308 0 2097152 0 1048704 0 67108864 536870914 2147483936 0 0 4224 0 65540 32768 0 32768 8 0 0 1484783616 67108864 1048576 268435456 0 1610612737 0 256 65536 134217728 0 0 4194304 0 2097152 8404992 129 0 33554432 294914 32 0 138412032 1107296258 16 0 8192 0 0 128 16777216 0 0 0 2147483648 16777248 48 0 0 0 0 0 0 16777216 0 0 0 0 0 0 0 0 0 786432 0 0 0 0 0 128 128 0 0 0 134217728 128 0 0 0 4 4 0 671088640 0 0 131072 0 128 0 0 0 0 0 0 69206016 0 512 8 0 0 8320 512 16 0 0 33554432 0 0 131072 8388608 256 512 8 8 2097152 33817136 0 0 0 0 64 4194304 180224 2097152 65536 33554689 2147483648 2147483648 16777216 0 32 0 16 0 0 0 2155872288 4 0 536870912 524288 67108864 32 0 0 0 0 65536 16384 4 0 2097152 134217728 0 524288 134217728 67641344 0 1073741824 134217984 4194304 134283776 8388616 1 65536 139264 4096 5242880 16 0 16777216 1048576 67108864 16384 4 0 536871168 1048576 0 0 0 0 0 8 0 0 67108864 262145 0 33554688 98304 134217736 16777216 147456 2147487744 536870945 0 512 4096 524288 32 0 67112960 0 67108928 134217728 8192 0 0 134217728 0 1 3349177634 134293534 1347445249 557056 0 0 0 0 0 671088640 134217728 0 0 0 0 8448 147456 0 524352 32 0 0 0 4194820 2147487744 536871040 32 16785408 0 134220032 134217856 16777216 2105344 4096 0 1310720 5 0 0 0 0 0 0 0 0 0 0 0 0 0 16777216 8388608 0 0 32 0 0 32 0 0 0 0 524288 131072 0 8192 0 0 134217728 4 8 0 0 8388672 268435456 2097152 4 131072 67108864 0 32 0 0 0 16777216 536870928 134348801 4194304 2147483656 2097216 1075838976 0 0 268435456 0 134221840 0 16 0 16384 67108992 524288 2048 0 268435472 0 0 0 2416050176 0 0 134217728 0 0 0 0 0 10489856 33554434 134283264 16 33570816 1179648 1073741856 1342177280 8388624 33620096 0 524296 131072 0 4096 6 0 0 0 0 65536 0 0 0 0 0 0 67108864 8320 0 0 0 0 0 2097152 0 0 0 0 0 0 0 0 1 0 536870916 256 0 270532608 536870912 16777216 8192 0 0 0 0 2147483648 262144 64 67125504 327680 0 0 16384 1174409216 541065232 0 0 0 33554432 0 67108864 0 0 67108864 2147483648 36 295472 327720 67108864 0 1073741824 0 0 0 0 128 0 4194312 167788544 0 71303168 32768 64 2181038336 0 0 536887296 0 1107296256 134217794 0 8194 0 0 16 0 9216 268435457 0 2147483648 4 0 0 0 0 0 0 512 0 0 0 0 0 0 0 0 0 0 0 0 0 0 0 0 0 4096 0 0 0 16 0 0 1 0 16777216 0 4 66 524288 16 16384 0 0 128 0 262656 0 32 1 0 33554432 0 1073741952 0 0 33556512 0 524288 2101248 1048576 0 1048576 6 0 0 0 0 0 83886080 134217732 0 0 134217824 0 0 134217728 268435968 570425600 65536 1077938176 33554432 0 16384 4194304 144 512 0 33554432 32 1 267265 4 8388693 0 2056 0 256 33554432 16777216 2 0 0 2097152 0 0 33554433 524288 536872960 1 16 0 0 2147487744 4194320 0 33554432 0 1073741824 0 1073741824 8192 1342193664 0 0 4 1
is_linear=0
shrinkage=0.118


Tree=4
num_leaves=127
num_cat=60
split_feature=4 21 24 24 24 24 24 31 21 4 6 24 15 7 31 21 7 63 7 6 6 21 31 63 24 4 65 63 63 63 31 15 24 63 21 15 13 24 36 24 63 32 24 63 63 36 31 63 24 15 15 63 4 63 12 12 63 31 32 63 36 15 63 24 13 31 24 63 63 31 36 63 12 67 63 37 63 63 24 63 31 31 24 13 45 15 63 63 63 24 63 28 31 63 63 4 63 13 24 63 39 63 63 31 4 31 63 13 32 63 31 21 63 62 13 63 63 63 63 28 63 24 31 28 7 56
split_gain=7.82168e+07 1.56565e+07 8.29756e+06 5.78416e+06 1.4904e+06 892628 878732 785753 727104 719664 737088 428498 299819 295734 298966 293625 289796 217021 216712 200389 177394 156085 151343 144612 138121 138044 129981 128150 123763 119526 109081 104255 101071 100471 97827.3 82424.2 78633.5 76233 73668.8 72265.6 67876.3 66366.6 63863.5 61577.3 60371.8 59997.8 58148.3 72991.7 57863.6 57777.7 56233.2 52815.8 52757.1 50822.7 49765.6 49339.3 49265.4 47532.9 47394.2 46953.5 64862.2 46406 48796.6 73359.5 43551.8 41888.2 40127 44074.9 39629.3 39392 38366.8 37995.6 34394.3 32823 32731.5 32235.3 31370.2 31087.9 30896.1 30605.8 30386.9 29986.7 29719.4 29514.1 29004 28849 28448 27949.5 27917 27519.2 28227.5 26913.3 26551.4 26363 26324.4 26252.7 25234.2 25126 24958.9 24605.9 35056.5 24508.2 24293.1 24198.2 34818.8 28195.5 23932.7 23674.2 26771.5 23388.6 23975.3 23246.9 23208.9 23027.7 23004.3 22646.4 22069.8 22055.1 22053.4 21383.7 20808.9 20802.2 20678 20664.2 20462.8 25023.9
threshold=0 1.0000000180025095e-35 1321.4610000000002 5290.4171045332414 2522.3957385052377 13447.933905210646 558.8875034078518 1580.0613732531867 96681.660000000018 1 2 8329.2653631317571 3 1.0000000180025095e-35 5404.4810731918933 99999.99500000001 46.500000000000007 4 14.500000000000002 5 6 195985.99000000002 3769.4749603287269 7 1351.7107375643225 8 6.5000000000000009 9 10 11 8549.7139517928463 12 253.23416623777669 13 70922.645000000004 14 1971.9946964623575 19158.058236379056 1938.2029229954082 20702.70348856732 15 1937084.5100000002 3305.0864456563345 16 17 3834.3404792217966 5140.2258325357307 18 3641.5774991610738 19 20 21 22 23 24 25 26 1029.468961539704 35619.100000000006 27 3249.2691685520367 28 29 11661.50177631579 10377.716512650853 586.61963005054474 22125.163253189701 30 31 2428.2011690235795 3834.3404792217966 32 33 34 35 3786.7857568768791 36 37 1835.5403928571429 38 14437.959239344655 5645.1203057229131 8689.2492288165286 14623.301909703083 369994.28500000009 39 40 41 42 4774.5997918001294 43 179.43498283752862 4755.5021881706934 44 45 46 47 1348.3863508354536 2917.0853928571432 48 7033.175589510075 49 50 1450.4799670657167 51 1370.9369791829297 52 3266.8513675818103 503870.57000000007 53 3912.1149089637274 59684.635000000009 54 82.500000000000014 1002.6071845515472 55 56 57 58 308.34323423451173 59 904.73419607843164 1739.3874733026607 269.88814528023607 11.500000000000002 14147802.905000003
decision_type=9 2 2 2 2 2 2 2 2 9 1 2 9 10 2 2 8 9 8 1 1 2 2 9 2 9 2 9 9 9 2 9 2 9 2 9 2 2 8 2 9 2 2 9 9 8 2 9 2 9 9 9 9 9 9 9 9 2 2 9 8 9 9 2 2 2 2 9 9 2 10 9 9 9 9 10 9 9 2 9 2 2 2 2 8 9 9 9 9 2 9 2 2 9 9 9 9 2 2 9 10 9 9 2 9 2 9 2 2 9 2 2 9 2 2 9 9 9 9 2 9 2 2 2 10 10
left_child=1 3 6 7 19 13 32 24 34 11 15 48 23 41 82 26 17 75 22 31 52 71 53 70 58 103 35 123 39 91 94 57 -2 -24 111 44 72 -13 79 113 -38 -5 -40 -44 -11 83 89 97 107 76 -31 -20 121 -9 -33 -22 -26 -4 -1 -32 -61 62 63 -42 -65 -57 67 -47 -59 116 -12 -10 -14 -52 -74 -7 -27 -71 -56 -25 -18 -35 99 -30 101 -54 -76 -51 -49 -45 -91 -28 -72 -55 -29 117 -70 -48 -58 100 -15 -68 -60 105 -105 -21 -43 108 -6 -50 -111 -3 -67 -19 -97 -78 -46 -88 -64 -117 -116 -8 -122 -16 125 -69
right_child=2 8 4 5 9 16 20 18 21 10 12 37 36 14 27 -17 80 28 51 25 55 -23 33 38 56 49 29 30 45 50 59 54 -34 81 -36 -37 40 -39 42 -41 61 106 43 46 69 66 47 88 109 87 73 -53 85 93 78 65 98 68 102 60 -62 -63 118 64 -66 112 84 124 96 77 92 -73 74 -75 86 -77 115 -79 -80 -81 -82 -83 -84 -85 -86 -87 95 -89 -90 90 -92 -93 -94 -95 -96 114 -98 -99 -100 -101 -102 -103 -104 104 -106 -107 -108 -109 -110 110 -112 -113 -114 -115 120 119 -118 -119 -120 -121 122 -123 -124 -125 -126 -127
leaf_value=-0.15237898493932062 -0.16492035466989344 0.18378779893609146 -0.058180091649918234 0.028011620070999631 -0.029937176967487225 0.1214942470053943 -0.11363454768450272 -0.030048328081513268 0.25401848108072111 -0.030228470214431848 -0.0032378822033530324 0.060163303338000122 -0.16472317595240149 0.035444417610910842 0.060571916751703835 0.22063197437723858 0.065387965603900186 0.052590057483694878 -0.013206757567560413 -0.062114085217639239 -0.16191903365121516 0.2863111757690423 -0.051775119412687212 -0.0048559589690437216 -0.088878739781880947 -0.036197271148530864 0.11482299938986813 0.10523879309256795 0.059925316983874627 -0.015759270196028553 0.1480047807381546 -0.16259642155800638 -0.1428227233540123 0.068306760701123043 0.21828934699451755 -0.12591547680744131 0.044146842798376731 0.1274682928162531 -0.024846319471886241 -0.020117160423119153 -0.021266114615064627 -0.0086067748204093127 0.033492704499086187 -0.0035416629056869275 -0.016976973396764933 0.1405078806661452 -0.070232273752050628 -0.07346650392706465 0.053963201664808849 -0.063523238230757562 -0.15446765225974665 -0.084974278077875984 -0.1141153431161917 0.059985532522838121 -0.076791447322330772 -0.098780987100504272 -0.042240895724324087 0.0087863426247004467 -0.04172705567467757 0.030460560285114048 0.11790903695408042 -0.049940996736243796 -0.011740977464661784 0.0053511222345822684 0.11573752676982514 -0.040705676351694919 0.14800119411196722 0.11496236623434078 -0.089586920650972748 -0.074472094706416817 0.026970000619137267 0.23305587256222318 0.0028825295308302773 -0.072554452485002377 -0.095275307233849083 0.16371196139402436 -0.13827548333285336 -0.11672954950427865 -0.061416492419763942 -0.057940017405395727 -0.053190436493714847 0.11545344638592539 0.072088087348366983 0.11764451366318325 0.15638639674953478 -0.12953770552042432 0.066103730270132666 -0.12110218059378886 -0.027484316462311319 0.04269285312312452 0.0048290646252571066 0.0084231341154034634 0.096152050132753936 0.017125407021502868 0.079511364893903674 -0.088159311714251454 -0.039140739861504681 0.016358262495342307 -0.012497938704324016 0.05117777651160578 -0.058963350511450477 0.11457321426014408 -0.091237112659009842 0.017876593603401041 -0.076995120191626451 -0.15587250662412383 -0.10007232749454691 -0.011830121503933975 -0.1257732416176571 0.014034773457288386 -0.068043286148158147 0.20045025764135324 -0.081610834603214208 0.10463013623501631 -0.027921598817468318 -0.082103780569604171 -0.078418939405577537 -0.031405542923092021 -0.040908837136677707 -0.11783198618583704 -0.035559241825142293 -0.088645836013631435 -0.064767509064064283 -0.027138553567002528 0.14886057462878458 0.078038996611408326
leaf_weight=155603.31678009033 4606201.3066558838 2365996.848449707 3860936.1013031006 181239.26016235352 141935.25790405273 275585.99786376953 907999.23249053955 297149.89898681641 2831570.598815918 262810.56287384033 116422.25776672363 451157.34979248047 38786.767150878906 263450.72108459473 55028.599090576172 44375.075576782227 39853.033111572266 160765.97190856934 326038.1609954834 1444408.1457366943 135918.65423583984 1726152.5417480469 87383.191177368164 200738.50782775879 264187.16506958008 156444.97331237793 62665.808601379395 801365.81257629395 247389.42810058594 229056.89823913574 691515.97888183594 80378.091651916504 7699474.4913101196 745839.84771728516 3412357.8666687012 927338.33090209961 168925.62272644043 487540.49438476562 2173849.1414794922 94227.647583007812 454381.25064849854 57392.739776611328 636550.89204406738 1702168.8695983887 120958.48580169678 1293145.0398254395 49911.926254272461 212501.99954223633 200571.00523376465 127309.54139709473 83006.658142089844 254035.54570770264 2854007.7847976685 229656.49670410156 3703096.8976745605 3145323.5838165283 1571346.2563095093 232774.1183013916 170413.62363433838 126514.17289733887 1775837.6289367676 1340646.5592422485 502021.76119232178 92902.04817199707 107184.27783203125 212952.15821838379 583562.51025390625 1619092.9451141357 146851.41617584229 361193.97734832764 112035.51747131348 2102824.7353515625 139648.24256896973 380122.01044464111 231547.49443817139 2921573.1490783691 132302.54949951172 738152.19297027588 3578515.8521957397 613318.87530517578 122847.60675811768 251075.14236450195 800043.7151184082 246031.09669494629 1184440.53074646 4144505.3202056885 42026.554779052734 1517990.8555679321 1363470.7610778809 460729.15524291992 676973.36819458008 70163.962310791016 248742.00172424316 1538263.5922393799 1794714.9534301758 265099.19164276123 2310174.0804138184 716197.11990356445 523798.44993591309 1557008.0062255859 69139.488220214844 641992.41874694824 726694.3624420166 124849.5615234375 94725.941833496094 46085.352714538574 130261.38632965088 798295.36708068848 56839.470237731934 1040789.4533996582 52030.552215576172 2298547.4663696289 2082922.1781539917 449245.5694732666 424939.47116088867 1500172.6689910889 249027.24881744385 139412.74317932129 1284554.9247436523 276195.97470092773 458554.78770446777 948316.8908996582 1278309.1348190308 116753.01991271973 199248.36221313477 303480.07095336914
leaf_count=1346 44584 2453 23007 728 743 488 7182 1431 1387 1420 503 1262 324 884 140 51 125 435 1508 8826 1267 493 438 907 1753 899 169 1617 652 1218 1010 756 68441 2010 2547 7432 624 817 10717 394 2210 262 2276 7482 654 1955 276 1263 633 873 676 1617 22595 702 24297 22624 8585 1068 1002 398 3183 7510 2392 402 264 1262 821 2950 913 2373 376 1314 645 2496 1493 3670 1077 5595 21686 3455 699 495 2022 459 1625 34715 160 12068 6769 1596 2752 319 576 5844 4226 1676 12595 2797 2344 4672 315 1145 5035 591 596 372 871 3779 376 3995 288 2020 14059 907 2230 10343 1651 736 6900 2112 2489 6710 7569 504 282 679
internal_value=-2.26551e-05 0.12978 -0.076463 0.0746082 -0.0439661 0.108945 -0.127928 -0.015798 0.226907 -0.0236739 -0.0321053 0.0279756 -0.0214915 0.0803962 0.0851297 -0.0809881 0.132099 0.134586 0.0216403 -0.0681179 -0.108175 0.25577 0.033848 -0.00760555 -0.0567189 -0.0873645 -0.0848293 0.101234 0.122983 -0.0439108 0.104553 -0.0606193 -0.151094 0.069546 0.203106 -0.0975228 -0.0399896 0.0951202 -0.0110338 0.0760579 -0.0290336 -0.0229167 -0.00758945 -0.00114212 -0.082321 0.128213 -0.00539672 -0.019161 0.000457954 -0.100149 -0.0635855 -0.0446381 -0.118557 0.0151041 -0.0702549 -0.0916901 -0.0408603 -0.0497903 -0.0922612 0.121668 0.112093 -0.0323026 -0.0226152 0.00494969 0.0644841 -0.0899353 0.13156 0.123333 -0.0377477 -0.0916382 0.0556604 0.245086 -0.0543297 -0.0872388 -0.0528919 0.160072 -0.0870036 -0.102847 -0.0692354 -0.0448508 -0.024145 0.08018 0.0530255 0.0887055 0.143219 -0.123249 -0.0556346 -0.116647 -0.0336849 0.00595483 0.020163 0.0586156 0.0746683 0.0226933 0.0874537 -0.0521152 -0.0421562 0.0107167 -0.0348048 0.0449545 0.0158183 0.130492 -0.0818337 -0.0596251 -0.0230542 -0.0650131 -0.072104 -0.0209032 -0.0573415 0.0169252 0.0101268 0.191999 -0.0778172 0.0909152 -0.0553522 -0.0911678 -0.0583345 -0.00881716 -0.0327129 -0.0876584 -0.0513294 -0.100868 -0.0570558 0.000958614 0.112864 0.109134
internal_weight=1.09763e+08 4.06817e+07 6.90814e+07 2.59442e+07 4.23438e+07 1.88027e+07 2.67376e+07 7.14149e+06 1.47375e+07 2.30106e+07 1.97814e+07 3.22916e+06 1.62526e+07 8.42027e+06 8.05137e+06 3.52887e+06 1.03825e+07 1.02198e+07 3.72944e+06 1.93332e+07 1.44319e+07 6.66055e+06 3.14937e+06 9.28361e+06 3.41204e+06 5.42049e+06 3.4845e+06 5.36173e+06 7.02262e+06 825015 5.18995e+06 1.39127e+07 1.23057e+07 1.0843e+06 8.0769e+06 2.65948e+06 6.96894e+06 938698 8.80641e+06 704239 3.95062e+06 368893 7.99235e+06 5.8185e+06 1.73214e+06 6.31838e+06 5.18195e+06 2.34208e+06 2.29046e+06 3.71042e+06 692186 580074 8.85483e+06 2.06507e+06 7.36199e+06 5.57712e+06 2.35933e+06 6.55074e+06 1.05271e+06 2.59387e+06 1.90235e+06 3.78169e+06 2.44104e+06 654468 200086 5.4412e+06 5.82496e+06 3.41497e+06 2.6898e+06 1.46933e+06 477200 4.9344e+06 3.01832e+06 463129 2.97954e+06 3.19716e+06 2.06512e+06 1.09935e+06 7.28161e+06 814057 162701 996915 2.68964e+06 493421 2.41e+06 6.99851e+06 2.83989e+06 1.6453e+06 1.57597e+06 2.83987e+06 1.1377e+06 132830 360778 1.76792e+06 2.59608e+06 2.60834e+06 2.45703e+06 766109 2.09514e+06 1.8896e+06 332590 1.22555e+06 897108 1.71007e+06 219576 1.49049e+06 187654 997070 198775 1.29339e+06 1.09282e+06 4.66454e+06 2.29587e+06 610012 2.4269e+06 1.90867e+06 369986 181439 1.78658e+06 1.77637e+06 2.1618e+06 1.85632e+06 1.73686e+06 171782 2.12182e+06 1.92257e+06
internal_count=543276 82442 460834 72228 237395 38118 223439 34110 10214 115316 103423 11893 79369 20832 18971 24054 17286 16462 14045 122079 110414 3194 10920 41745 20065 37757 24003 11078 12304 4878 10434 84322 113025 2943 7020 19125 37624 2079 40290 1736 20302 1861 35928 25211 11693 10568 22935 11105 9814 27372 4390 3125 71202 7977 46739 39212 12682 37583 7383 4591 3581 19678 12168 2876 666 37945 9457 5866 14576 10273 1455 2701 17322 3172 16998 4158 14431 7968 45983 4362 824 2505 7893 1111 3591 57310 16353 12941 8032 11830 4348 488 952 6546 5843 14860 13508 3073 10929 5871 1199 1966 6037 10385 1187 9198 1133 4898 1119 4916 4283 4473 15321 1342 13964 13532 2305 896 9292 12455 12288 13892 10058 644 3911 3629
cat_boundaries=0 6 12 13 17 50 51 52 84 89 118 148 180 184 214 220 253 286 316 349 355 361 390 395 427 428 429 461 494 497 528 561 592 624 625 628 661 693 726 756 762 792 824 856 888 919 952 955 984 1015 1047 1079 1083 1112 1141 1174 1203 1236 1265 1298 1329
