tree
version=v4
num_class=1
num_tree_per_iteration=1
label_index=0
max_feature_idx=70
objective=tweedie
feature_names=acci_city acci_region_type age age_bucket age_bucket_x_duty_code annual_prem_log claim_type day_count day_count_filled day_of_week duty_code est_loss_ratio fee_item_type group_code_te hosp_grade hosp_grade_x_fee_item_type insured_gender is_expensive is_public is_yearend is_yearend_x_hosp_grade large_case_amt large_case_filled main_insured_rela member_avg_claim_size member_avg_paid member_case_count member_claim_count member_claim_rate member_disease_count member_hosp_count member_std_paid member_total_paid month month_cos month_sin monthly_avg monthly_avg_lag1 monthly_avg_lag2 monthly_avg_lag3 monthly_avg_mom monthly_count monthly_count_lag1 monthly_count_lag2 monthly_count_lag3 monthly_duty_total monthly_duty_total_lag1 monthly_duty_total_lag2 monthly_duty_total_lag3 monthly_median monthly_median_lag1 monthly_median_lag2 monthly_median_lag3 monthly_prem monthly_total monthly_total_lag1 monthly_total_lag2 monthly_total_lag3 monthly_total_mom native_place_name_te pass_months pass_prem_log policy_age_days policy_grp_name quarter rgt_source rnew_flag rnew_flag_x_duty_code sale_chnl work_addr year_actual_claim_paid_log
feature_infos=[0:256] [0:2] [0:80.533880903490754] [0:4] -1:1:0:2:5:84:12:79:76:3:91:14:10:38:78:99:86:93:98:4:102:88:95:16:11:35:106:32:6:129:15:9:19:18:20:130:34:26:8:119:108:97:90:36:23:21:105:89:25:96:33:37:51:30:123:121:7:161:40:122:13:29:120:22:87:39:62:117:55:103:166:46:54:66:135:48:64:50:125:124:134:85:159:17:49:27:31:94:151:24:68:131:45:28:111:42:92:61:43:127:104:52:126:70:81:100:150:53:146:114:160:56:58:72:142:164:41:44:60:63:65:73:83:107:115:118:162 [0:19.527323814462907] -1:1:0 [1:730] [0:730] [1:7] -1:0:2:18:19:23:5:1:3:27:6:7:8:22:25:32:10:11:21:26:4:44:9:24:13:20:42:16:33:15:28:12:14:43:45:29 [0:8.0748999999999995] -1:2:3:1:0:4:5:6:15:7:11:12:10:9:14:16:13:23:8:18:17:25:24 [417.35306841041148:163319.24644421253] -1:1:2:0:4:3:7:5:8:9:6:10 -1:4:10:2:12:9:11:6:8:5:24:33:22:3:1:13:0:28:31:27:23:29:7:35:15:54:65:50:30:45:55:51:16:17:19:26:38:62:36:34:14:18:56:40:39:74:44:61:46:67:41:85:57:32:43:21:25:68:71:70:59:114:81:83:66:37:80:82:42:77:89:111:93:94:96:84:73:102:72:162:79:95:76:69:86:75:91:112:49:58:78:99:60:64:97:98:115:100:146:121:52:120:122:48:105:104:128:88:20:90:163:53:63:117:119:137:124:134:141:165:110:140:167:87:107:113:126:133:135:103:106:130:153:164:166 -1:0:1 -1:0:1 -1:0:1 [0:1] -1:1:4:5:3:0:2:7:11:6:12:9:14:13:16:18:15:8:17:19:10:20:21 [0:1200000] [0:1200000] -1:0:1:2:3 [0:218126.46862068967] [0:218126.46862068967] [0:118] [0:643] [0:4102] [0:44] [0:9] [0:498999.4448139242] [0:128864792.59] [1:12] [-1:1] [-1:1] [18:295833.71777777775] [18:188968.4110041841] [18:306189.86624434387] [18:306189.86624434387] [-0.99937483107955971:63.80742907312522] [1:22851] [1:22851] [1:22851] [1:22851] [24.399999999999999:4512038.3700000001] [24.399999999999999:4512038.3700000001] [36:4512038.3700000001] [36:4512038.3700000001] [3.7999999999999998:406438.66999999998] [3.7999999999999998:207895.48000000001] [3.7999999999999998:406438.66999999998] [3.7999999999999998:406438.66999999998] [0:60483786.703999996] [73.199999999999989:189288866.92000002] [73.199999999999989:189288866.92000002] [44.600000000000001:189288866.92000002] [90:189288866.92000002] [-0.99997007170061725:756.81924999459034] [1207.0458650977148:44446.057004832954] [5:36] [0:18.826183797973908] [-691:468] -1:1:656:509:530:519:676:940:326:474:825:91:63:424:220:528:622:651:549:505:435:89:216:539:309:230:955:701:506:453:839:888:665:720:986:909:914:908:849:958:670:956:708:749:671:534:345:575:347:513:189:310:891:913:417:98:411:298:819:71:578:653:1027:373:137:672:231:226:827:360:743:150:737:527:217:486:953:647:780:546:1019:630:590:808:693:26:813:552:468:521:625:488:95:8:346:399:694:1012:624:59:896:484:548:1020:905:177:467:512:702:654:948:917:1023:489:65:894:532:678:469:660:613:547:635:511:100:579:751:555:291:494:151:159:890:402:673:598:699:576:777:805:188:138:504:574:629:964:176:483:815:179:9:93:455:836:502:156:942:400:470:719:745:703:454:713:837:58:120:752:44:15:281:46:522:593:734:822:601:636:471:364:436:643:681:28:431:706:62:1010:224:566:802:668:863:811:75:185:480:573:851:430:1009:357:677:931:952:572:966:529:906:352:570:202:83:154:29:66:820:834:645:997:595:761:4:3:404:700:933:328:407:661:869:680:912:284:0:283:692:754:862:911:247:804:181:443:602:831:1016:288:290:333:626:163:856:920:441:832:810:571:915:312:591:638:725:88:161:201:679:7:450:526:814:211:403:1035:273:327:705:541:648:691:864:991:816:36:60:323:628:168:194:208:618:637:753:556:391:567:998:351:497:23:272:721:600:1018:160:844:1022:463:487:741:73:180:503:32:56:437:456:491:767:899:954:996:229:397:434:599:910:936:969:187:294:807:895:904:210:545:633:835:1024:520:860:976:184:499:775:930:11:514:535:893:190:246:251:258:446:716:324:103:285:605:2:158:540:683:236:594:821:941:427:662:873:40:380:457:589:608:766:826:277:412:666:779:973:1003:363:632:949:192:238:432:460:709:710:740:70:166:641:898:925:27:207:214:501:538:854:907:928:49:86:131:302:365:408:516:596:640:669:731:744:48:338:750:39:212:353:615:667:828:922:218:237:674:855:866:900:1008:301:461:577:612:729:762:175:359:558:843:961:14:146:204:303:392:508:663:929:945:41:109:152:165:223:263:428:1014:242:269:409:440:727:903:55:295:370:559:935:992:993:118:253:274:275:358:393:604:698:722:803:847:871:924:995:1026:34:149:222:239:354:614:760:786:817:846:51:169:356:362:372:462:597:874:927:193:314:317:472:476:517:524:525:607:870:939:981:31:42:481:748:769:823:829:833:989:84:112:348:405:584:588:781:880:43:69:248:254:557:684:772:776:21:96:119:186:241:316:336:542:569:616:714:757:987:37:57:101:135:198:340:623:797:806:979:110:125:153:191:313:343:482:485:492:537:553:587:697:707:990:1007:1029:1031:379:410:445:458:649:771:918:926:1005:24:47:54:206:339:384:704:763:812:861:919:937:967:1011:1015:20:77:82:97:332:475:682:688:717:853:875:883:1013:1025:1028:1030:45:105:108:205:228:307:375:442:447:544:550:560:580:606:642:675:850:923:78:278:337:495:510:523:592:689:723:756:916:962:971:972:5:145:182:196:199:213:240:287:329:395:398:444:554:582:657:738:845:1034:13:90:209:270:342:349:366:465:687:715:765:809:824:842:848:858:947:1006:52:114:115:164:174:361:415:420:448:452:515:533:581:946:957:79:157:203:267:305:330:371:478:496:531:551:695:778:878:988:33:80 [1:4] [0:10] -1:0:1 -1:0:2:37:34:36:15:50:41:5:1:3:45:6:7:17:8:43:49:35:57:10:40:11:44:16:4:39:58:22:51:78:47:60:18:21:23:24:27:9:38:76:13:42:20:29:30:52:25:68:19:32:14:12:54:59:28:77:46:56:79:48 -1:0:1:3:2 [0:110] [0:17.275027520051449]
tree_sizes=18109 19133 19982 19510 18912 19775 18756 19790 19950 20315 20249 20220 20200 20552 21508 21475 21641 21729 21090 22000 20970 20988 21433 21481 22372 20806 20828 22321 20968 19884 22072 21480 22063

Tree=0
num_leaves=127
num_cat=54
split_feature=4 24 24 21 31 4 24 24 7 6 24 7 31 15 31 24 21 63 63 21 24 6 24 24 63 63 36 24 4 31 63 63 63 24 24 15 6 65 13 31 24 36 4 63 63 31 13 15 63 63 15 63 63 24 27 4 63 20 38 32 21 31 63 31 63 63 63 31 20 63 24 31 62 63 63 6 24 12 24 63 31 65 24 17 35 27 24 27 13 31 63 15 62 63 63 13 63 7 63 63 12 31 13 31 63 63 24 36 65 21 63 65 27 63 24 13 24 24 11 63 63 63 13 26 32 34
split_gain=1.79284e+08 3.15207e+07 1.13217e+07 6.33152e+06 3.71935e+06 1.76687e+06 1.60534e+06 1.48119e+06 1.4343e+06 1.41586e+06 983501 844475 685454 644462 623010 515830 431035 373587 347494 293948 277167 265743 221964 211564 176976 174256 173262 168471 167663 159449 140842 137632 136863 133617 125819 123664 117303 114958 157530 114823 104987 101601 95728.7 94842.7 93868.4 91040.6 89541.7 87836.2 84171.5 81326.7 76545.9 71768 70450.8 68209.4 67079.6 64636.6 64031.7 62360.2 60012.2 71736.1 59846.6 58377.6 58137.9 56696.8 56366.2 55228.4 53496.7 52618.8 52290 49904.2 49798.4 48488.9 46788.1 54563.6 46444.9 45450.3 44948 44766.5 44023.8 40971.5 40883.9 39881.1 55161.3 38353.1 36979.8 36818.6 36432.5 36227.1 36164.2 45284.7 35670.3 35635.7 35467.9 35416.5 34806 34786 34027.2 33814.7 33127.1 32588.3 31991 31702.2 31501.5 30236.2 29991.2 29782.4 29545.2 29445.9 28988.4 28803 28791.4 28732.9 28716.8 32551.8 28435.3 28333.7 28160.5 27196.1 26788.8 26604.3 26299.1 26215.9 26021.6 25875.8 25239.9 24644.2
threshold=0 7412.0739421023309 1764.3513668791745 1.0000000180025095e-35 2158.4187149320751 1 7696.4010367804849 834.07261240310083 46.500000000000007 2 2886.3942144583611 1.0000000180025095e-35 9112.3346418731326 3 5719.0402397467315 2150.6140625000003 59968.500000000007 4 5 86162.450000000012 3676.0647459421316 6 14295.632803738319 19205.130833333336 7 8 2777.3054322662788 404.01764869642074 9 3208.8737037250335 10 11 12 20481.460569074457 846.39048245614049 13 14 7.5000000000000009 10177.507164936151 11562.167835366532 5657.6343684287394 3843.0876630098137 15 16 17 4863.2397509267412 11899.467685309102 18 19 20 21 22 23 4131.6577727272734 298.50000000000006 24 25 26 5091.7780889249652 4628796.6050000014 144674.03500000003 889.63772219248688 27 5042.9384921154096 28 29 30 6974.0632102004529 31 32 24698.596197876828 4863.2397509267412 309.50000000000006 33 34 35 8404.6272767332575 36 15359.455797101451 37 899.09809071845177 6.5000000000000009 6370.5701869158884 38 -0.8660254037844386 548.50000000000011 2375.8558048868131 426.50000000000006 3821.8998025162869 1063.9397589289817 39 40 58.500000000000007 41 42 10377.716512650853 43 15.500000000000002 44 45 46 5042.9384921154096 1807.7503090685173 2976.9414321679656 47 48 3757.0650340909092 5239.7560717495517 7.5000000000000009 59785.255000000012 49 7.5000000000000009 113.50000000000001 50 3050.4157811581431 11852.47734810216 1152.2431547619051 1318.5880753968256 0.87155000000000016 51 52 53 1447.1229264236038 9.5000000000000018 2822835.9399999999 -0.24999999999999994
decision_type=9 2 2 2 2 9 2 2 8 1 2 10 2 9 2 2 2 9 9 2 2 1 2 2 9 9 8 2 9 2 9 9 9 2 2 9 1 2 2 2 2 10 9 9 9 2 2 9 9 9 9 9 9 2 2 9 9 9 10 2 2 2 9 2 9 9 9 2 9 9 2 2 2 9 9 1 2 9 2 9 2 2 2 1 2 2 2 2 2 2 9 9 2 9 9 2 9 8 9 9 9 2 2 2 9 9 2 10 2 2 9 2 2 9 2 2 2 2 2 9 9 9 2 2 2 2
left_child=1 4 7 8 15 6 20 27 12 16 35 36 22 17 29 34 28 41 33 109 88 42 49 -8 67 76 44 -2 81 43 83 -30 78 54 -1 86 121 38 66 57 74 -12 116 -13 -20 53 -40 69 95 -3 61 107 -39 93 -14 58 87 110 59 -34 -21 -23 85 122 -51 -60 -15 -16 -56 -33 -24 105 73 -10 -17 -29 -19 -52 -28 -55 119 -7 115 102 -78 123 -11 -31 -4 -90 -50 -44 -61 -32 -68 -47 -58 -82 -57 -43 -37 -66 -27 -81 -45 -22 -104 -38 -103 -5 125 -97 -71 -114 -76 -83 -9 -79 -85 -36 -88 -6 -64 -54 -108 -26
right_child=2 3 5 19 11 9 23 21 72 10 13 14 18 37 24 40 -18 25 26 60 71 50 70 -25 39 30 32 75 31 56 45 47 55 -35 80 100 51 52 46 -41 -42 99 91 104 -46 48 -48 -49 90 64 77 -53 62 79 68 98 96 -59 65 92 -62 -63 63 -65 101 -67 94 -69 -70 112 -72 -73 -74 -75 114 -77 84 117 -80 103 97 82 -84 118 -86 -87 120 -89 89 -91 -92 -93 -94 -95 -96 111 -98 -99 -100 -101 -102 108 106 -105 -106 -107 124 -109 -110 -111 -112 -113 113 -115 -116 -117 -118 -119 -120 -121 -122 -123 -124 -125 -126 -127
leaf_value=8.2793085536111004 8.2532875530632612 8.5927523357999984 8.3425992891372793 8.6868491522050988 8.411435805875044 8.3342143044122405 8.5166934955614977 8.2949604812426809 8.4215651286370239 8.3522298526420045 8.415756780244342 8.3053066067847769 8.6215808047762685 8.4404227367058091 8.5143061351309974 8.3513277751914909 8.5906782127110475 8.4398098864136397 8.6166693162482311 8.7196730095961215 8.4982372671957798 8.3195945214659819 8.6029679180672751 8.6265427800288332 8.4542023556019839 8.3853623909476038 8.6318143252155402 8.2695065746099914 8.3735730868273741 8.4851971122193852 8.3440402949066179 8.3471553208974338 8.6120444487738688 8.4111107274247239 8.2636566543549197 8.2499542730667788 8.4159436368235436 8.4167354521382958 8.5786814167743035 8.6771747155303185 8.4739035928336222 8.612219591767035 8.2921344909051076 8.4921407801740312 8.4480053374183086 8.3964329422236634 8.4030536557776703 8.2805403000704452 8.3882324606925511 8.4562647503787112 8.2510100886003173 8.3608532559368189 8.4186947539968902 8.4551532160752849 8.5809920498475414 8.6154923967287598 8.5570172474883055 8.6052374037036401 8.6454882661766312 8.5698364588792426 8.7376187968697216 8.3488894605485999 8.3360500890433222 8.3311994843372332 8.5379471445973962 8.6031396202655905 8.3215111802790336 8.3649412454343537 8.4732996226779438 8.3245252989537413 8.6446967654544338 8.3351657608145278 8.4899936403701872 8.3167693938248419 8.3889250950357042 8.2896141262425544 8.5604818821685402 8.3021851271730291 8.6659702101890339 8.4308562638843565 8.3673797252627153 8.3776614025899434 8.4817514463092998 8.4363023347683601 8.4691065379961508 8.48648880047236 8.4194321614893699 8.3929321736184033 8.3620732934624993 8.4039627410029141 8.3498953650441639 8.2759190751732383 8.4584700743426939 8.3984046877219178 8.3789665941104889 8.5222779594433327 8.5129674276142637 8.3162810651462653 8.6451546882531058 8.5288902969730778 8.3362045827031039 8.5143324541607495 8.3974675916156567 8.3802918350039803 8.4514705512540917 8.4429566710541319 8.4554694221445583 8.5122990546132353 8.5728181973532767 8.7021142115609749 8.5695088862872808 8.4178122468995173 8.3197063739745847 8.2855386697699878 8.4203291385024865 8.2798736076947854 8.32199057229926 8.316579813255915 8.5153558102841007 8.3302278068105853 8.3680521133934445 8.3121690588345842 8.3680355725958311 8.3638175286356713 8.4051464075315447 8.5490582479834654
leaf_weight=592394.64064025879 13121958.846618652 983295.23278808594 433924.97914123535 2699692.6813812256 42572.338973999023 556731.40492248535 466031.16184997559 889113.62661743164 110342.62454223633 3610941.0972290039 101446.15937805176 54940.356170654297 192630.84115600586 173169.85321044922 85130.997833251953 298435.85322570801 76469.403900146484 530603.46130371094 86502.047424316406 6218776.1058349609 157917.50856018066 3505547.6993255615 1505569.0141601562 512693.77752685547 69392.589370727539 218450.37658691406 631393.13829040527 10399259.449539185 345710.03773498535 412398.70069885254 183317.62066650391 442434.61029052734 284688.4790802002 89457.668441772461 90576.495544433594 60494.759185791016 73840.53352355957 247409.47425842285 92791.908294677734 208585.24931335449 260651.90203857422 87714.169921875 3556447.8795013428 363162.6263885498 98006.64421081543 520111.09722900391 71617.466705322266 2503066.130645752 480190.46520996094 82352.126373291016 184401.03382873535 137539.62702941895 151238.48941040039 492298.66081237793 130158.88763427734 621766.05020141602 296693.27124023438 635203.46542358398 896842.44839477539 78244.570159912109 4431328.6031799316 1297825.8711853027 468840.62934875488 1836800.0592651367 852166.26480102539 823309.69987487793 174425.71577453613 53465.088470458984 121325.82780456543 694965.58448791504 541404.08428955078 52933.280212402344 41258.02978515625 185464.80578613281 971741.75596618652 1842594.3229370117 89952.56071472168 3416096.8651123047 3131297.4951171875 409514.25773620605 868367.34521484375 287632.62022399902 65847.999053955078 114137.68383789062 196136.60977172852 43973.529968261719 148961.90989685059 69197.30126953125 777136.78184509277 668405.38664245605 1141214.4197692871 4026941.5191345215 81082.340911865234 1857664.0719451904 927648.1099395752 62177.139801025391 1382470.5373535156 227582.33479309082 3387346.0995941162 256912.15689086914 5978855.2209320068 130833.11676025391 233997.12390136719 275404.34437561035 828449.98854064941 964396.54443359375 660790.14762878418 109867.27359008789 1203277.1005554199 4748358.6700744629 289096.53573608398 89329.801071166992 566892.94610595703 1234687.0026855469 684096.19926452637 48165.731063842773 1353898.6064147949 3930037.7955169678 125110.8681640625 1089039.9516296387 2018224.9693908691 285950.88116455078 1447787.8046569824 572606.37925720215 175671.38238525391 84672.007385253906
leaf_count=3534 82528 2032 2247 2419 184 2941 1404 5131 463 18266 433 310 329 686 259 1513 160 2106 153 3033 512 19156 2920 844 263 1015 998 63306 1657 1404 946 2266 520 387 558 383 315 1053 208 212 924 160 20649 1205 379 2345 317 14894 2214 310 1165 681 640 1860 288 1109 745 1214 1265 184 1172 6619 2466 9772 2342 1595 949 262 431 3755 769 279 138 1020 4472 10756 222 19407 3619 1671 4229 1364 227 458 707 149 629 315 3836 2951 5806 24193 303 8330 4384 183 4229 1253 4792 735 31436 398 1052 1297 3168 3790 2494 337 2785 3353 681 379 3097 7270 2881 287 7358 21623 379 5807 9812 1589 7039 2814 773 221
internal_value=8.42129 8.61176 8.32021 8.66653 8.4335 8.36898 8.44272 8.28205 8.61316 8.36001 8.37242 8.50091 8.61825 8.393 8.51789 8.36078 8.3121 8.41451 8.6355 8.71456 8.40058 8.30434 8.58356 8.57424 8.58339 8.40854 8.64039 8.26258 8.30894 8.49048 8.40256 8.30137 8.6425 8.54268 8.32775 8.34715 8.37461 8.36424 8.39347 8.59703 8.40356 8.51955 8.28986 8.45688 8.52709 8.39377 8.50218 8.29679 8.3758 8.5644 8.31587 8.42531 8.35542 8.40657 8.56918 8.63168 8.50987 8.58153 8.61524 8.57656 8.72714 8.32751 8.35207 8.34601 8.55212 8.62522 8.37945 8.45668 8.52905 8.31062 8.614 8.44553 8.37228 8.35586 8.39418 8.27253 8.46014 8.30844 8.66024 8.42919 8.34036 8.35466 8.383 8.43425 8.49784 8.38165 8.35949 8.47194 8.37247 8.38144 8.36125 8.28352 8.51316 8.39352 8.36987 8.41093 8.52075 8.35677 8.64055 8.55011 8.33534 8.55573 8.4262 8.41052 8.46387 8.45074 8.43453 8.47357 8.56708 8.69658 8.54755 8.46068 8.30415 8.29629 8.4019 8.36364 8.31128 8.30989 8.47764 8.32511 8.37158 8.32503 8.36021 8.37528 8.4449 8.50633
internal_weight=1.29662e+08 4.49537e+07 8.47081e+07 3.43882e+07 1.05655e+07 3.7184e+07 4.03344e+06 4.75241e+07 1.629e+07 3.31505e+07 2.63279e+07 5.48263e+06 1.59529e+07 1.45105e+07 4.83286e+06 5.08289e+06 6.8226e+06 8.30214e+06 1.06541e+07 1.80982e+07 3.05471e+06 2.21603e+07 5.2989e+06 978725 1.42555e+06 7.85607e+06 1.01205e+07 2.53638e+07 6.74613e+06 3.40731e+06 7.03938e+06 5.78776e+06 9.93597e+06 533573 2.86796e+06 1.18175e+07 649771 6.20831e+06 1.43965e+06 1.28695e+06 2.21493e+06 446072 9.8264e+06 1.24655e+06 184509 5.51122e+06 164409 5.44205e+06 2.29302e+06 3.25192e+06 1.23339e+07 321247 4.76866e+06 3.2182e+06 444116 6.17328e+06 2.16076e+06 1.07836e+06 2.16417e+06 444015 1.06501e+07 4.80337e+06 4.52125e+06 3.75343e+06 2.26863e+06 1.72015e+06 1.27524e+06 138596 251485 2.93898e+06 2.04697e+06 1.17525e+06 337065 295807 1.95427e+06 1.22419e+07 816693 7.53054e+06 3.76269e+06 1.17722e+06 2.27557e+06 958378 401646 1.52816e+06 286089 767818 5.77813e+06 481596 1.87947e+06 1.44554e+06 1.6214e+06 7.58339e+06 159327 2.04098e+06 1.10207e+06 671618 1.67916e+06 1.09595e+06 4.00911e+06 344626 6.03935e+06 2.18628e+06 1.28891e+06 684919 1.19161e+06 1.12231e+06 1.07046e+06 183708 1.33411e+06 7.44805e+06 443161 151507 2.49655e+06 1.80158e+06 1.65584e+06 335798 2.24301e+06 7.34613e+06 239249 1.17962e+06 2.16719e+06 328523 1.91663e+06 723845 836462 154065
internal_count=544511 82271 462240 39506 42765 180349 15863 281891 29529 164486 126568 17594 27908 66042 14488 25171 37918 35565 16352 9977 13615 125301 11556 2248 3112 34237 14917 156590 37758 11376 31202 32939 14385 1435 15381 60526 3106 30477 6544 2591 9790 1328 57331 4683 532 25031 525 31282 10927 7867 67970 1333 23933 14104 1048 9768 6693 2379 3867 1007 4205 25775 22880 19277 5835 2860 6019 521 719 16388 3689 4581 1621 1483 8866 74062 3035 42195 4617 4828 11847 4819 1878 6171 929 3603 28707 1719 9034 6787 8020 44842 487 9276 5333 2907 4974 5482 5901 895 31819 5525 5334 2968 4373 4302 4319 652 3183 5772 1165 562 14122 10367 7353 1651 12489 41030 837 6365 10441 1773 9505 3454 3267 484
cat_boundaries=0 6 12 13 17 49 79 80 109 142 147 180 212 245 249 250 255 284 306 312 344 377 381 400 433 436 467 468 499 525 555 587 588 619 648 681 682 683 715 716 745 749 781 810 842 872 900 901 932 961 979 1010 1041 1073 1102
cat_threshold=536893536 1074282610 4 4 8388612 64 393344 536870920 134217728 243274315 128 2 2 1164444821 268453904 524288 16 32768 1073741824 0 0 0 1 2147484672 4194304 0 0 0 1048576 1638400 0 0 2147549184 4096 0 64 1073741824 8 2 2 8192 0 8388608 16785408 524289 0 2 1073741824 8195 0 0 0 0 512 0 0 0 0 8 67108864 0 0 0 1048576 100679696 3 1073741824 0 1 33562624 0 8388608 65536 0 65536 0 0 0 134217728 2 1 0 128 0 0 0 16777216 64 0 0 0 0 0 256 4 536870912 0 0 0 0 0 0 0 8192 0 134217728 0 16777216 8192 8192 0 2147483648 16 0 67108864 1073741888 536870912 0 0 4194368 0 0 2147483648 32960 335544321 16 536870912 16384 4194304 33554432 67108868 4096 16777218 536870912 16 136 0 2097152 0 0 0 2048 1105232656 401413 2214592512 805307520 72 0 32 0 4224 0 65536 0 0 0 0 33554432 0 8388608 34111488 0 587202560 294914 32 0 186646528 1342177281 80 33554432 0 0 0 12582912 0 1073741824 0 2147549184 0 64 0 0 0 0 0 167903232 20480 0 0 16777216 0 0 262144 1572864 4194308 16 1342210048 272 4096 134284416 128 536871168 1073741824 262144 0 0 0 0 2149580800 1048576 0 1050624 2 150994944 2147483650 0 8388608 0 0 4 0 4194304 192 0 1048576 524288 2097152 0 1114112 4194306 4210688 16 2147483648 536871168 131072 512 4096 134225920 0 0 0 1107296256 16 0 8 1432880276 268466192 2621440 32784 2 31720064 4587660 2351038464 109057035 128 0 0 0 0 0 0 0 0 0 0 0 0 0 0 0 0 262144 0 0 0 1073741824 0 0 0 16 0 131072 0 8192 0 0 134217728 0 0 0 0 0 0 0 0 0 0 0 32 536870912 0 2147483648 0 0 2048 536870912 1162383124 683700757 2687508 524288 0 64 67109120 2147483649 2048 0 0 33554432 16777232 0 0 0 8 0 0 16386 67108896 0 273678848 1140850688 0 0 128 536870913 16 33554432 0 8192 0 0 270336 34603008 536870912 1048576 67108864 0 128 4 268435968 536870912 0 192 0 4194304 134217728 0 1048576 524288 32 0 37814274 256 16384 131072 1073741952 16 0 270336 0 33554432 84017152 0 262144 0 0 0 64 1147667476 536902162 2687235 512 2 0 0 0 0 0 1024 128 0 0 0 0 0 0 0 0 65536 32 4 32768 1073741825 0 128 8388608 0 1024 0 0 0 0 1024 151060480 32768 128 4 1048576 0 0 128 33562624 134217792 1 18 0 0 25174016 0 16 0 1073741824 8194 2048 20480 1073741840 4 0 0 0 0 67108864 0 512 0 0 0 0 0 512 1048578 0 0 134283264 0 1 1114112 1073741824 268435456 0 0 4096 134217984 0 0 4104 269504512 67108928 38 16 2147483680 2147483648 0 0 570425344 16777216 0 268435456 4194304 8388608 0 0 33554432 8388672 67584 262144 335544352 537018370 4194336 1073741825 0 0 0 0 0 16 0 0 8 2097152 128 0 0 0 0 0 0 0 0 0 0 0 32768 0 0 16777216 0 134217728 0 0 2048 1 0 0 0 8388608 0 2147483648 0 0 0 536870912 0 1 0 0 134217728 0 0 0 0 4194304 1074003968 4 0 1073741824 2048 0 0 0 0 2147484672 0 16777216 0 1048578 67108864 544 2147483648 4 0 3 1073741824 4194304 0 35651584 134217728 0 17825792 524288 0 2147483649 0 0 262144 1073741824 33554432 1 2 16777216 0 4096 16777216 1 8192 33554434 2147483648 1 92 0 0 2684354560 0 0 0 268435456 4 0 6291460 134217728 0 40960 134234368 268435456 0 0 0 71303168 268697600 8 16 65540 163840 0 1081344 8 67108864 0 402653184 67108864 256 0 33554432 0 0 0 0 64 0 0 0 0 134218240 16640 68157440 0 0 0 0 2097152 0 536870912 0 0 0 33554432 0 0 1 256 0 0 0 1024 536870912 0 1 536870912 1024 134217792 0 0 0 67108992 0 128 12 2097152 147488 3254781952 2147483648 0 2147483776 0 2048 32 134217728 512 256 0 32 8 2 4096 268435456 2147483648 134217728 4 2147485184 134348800 0 65 268435456 2097152 134217728 0 32896 258 0 0 65664 67110912 0 131072 0 0 4 0 0 33587200 0 1073741824 12800 33554432 0 2147483648 1 8388608 134217728 134218240 4 512 536870912 0 65 0 0 0 257 32768 136314880 1048576 2097216 196608 0 262144 65536 1050624 0 131072 0 0 33587200 0 65536 16400 1145589524 2021685781 3146512 557056 67108864 256 0 16777216 1024 671088640 268435456 0 0 0 67108864 256 32896 0 268435456 0 0 4096 281051136 16 67108864 128 1073741824 16416 0 32 268435456 0 67117056 1052672 8192 1048576 2 0 33816576 0 0 524288 285212672 0 0 0 0 0 0 0 67633184 64 0 32 0 16384 537944068 1073741824 0 34 0 1048584 1 67108864 2233344 0 2147483649 2181038080 20 1024 0 50335746 0 33554432 536870912 80 2097152 134250496 0 0 67108864 0 67108896 16384 1024 128 671088640 0 32768 0 8388608 268435456 0 4 0 0 1048576 0 0 167772160 0 0 536870912 32772 0 0 0 33554432 2097408 134217728 0 0 512 0 0 0 0 0 0 33280 0 0 301993984 0 16777216 2097152 268435456 0 0 0 0 0 0 0 0 0 0 0 0 65536 0 0 2147483648 0 0 0 0 8 0 2 0 0 0 0 524288 4096 2 0 4194432 4 1032 0 33554432 0 0 0 0 262400 134217728 524546 0 256 32768 8 0 131072 2147485696 1610612737 2 512 4096 0 32 512 266240 33554432 67108864 0 0 134217728 0 0 0 0 0 0 0 0 0 134250496 0 0 0 0 0 16384 0 16384 0 0 0 512 0 0 0 262144 2 0 0 0 0 0 0 0 0 0 0 0 0 0 0 33554432 65536 2147483648 2 1048576 33554432 0 0 0 83886080 0 33816576 0 64 0 0 0 67109376 256 128 1077936160 33554436 0 18432 37748736 16 0 0 4194432 1073743872 1 513 1073741824 4096 0 0 0 2 268435456 0 0 0 0 0 0 2097152 0 0 0 0 1081344 0 0 131072 0 512 0 0 0 33554432 16384 16777216 0 0 64 0 134217728 0 16 262144 48 131072 16777216 65536 0 0 0 16875520 0 0 256 0 17 268468224 2097152 0 0 16 32768 0 0 16 0 2147491840 536870912 0 67108864 0 0 0 0 0 0 0 0 536870912 0 0 0 0 0 0 0 0 0 0 16384 0 0 0 0 0 33554432 0 0 131072
is_linear=0
shrinkage=1


Tree=1
num_leaves=127
num_cat=66
split_feature=4 24 24 21 31 24 4 24 7 6 24 7 31 24 15 31 21 63 63 63 6 15 24 31 36 63 24 24 63 24 13 36 63 63 4 63 14 24 63 15 15 36 10 24 13 63 26 63 63 17 63 39 63 31 15 63 63 63 36 7 14 32 56 21 63 31 63 63 63 28 14 63 31 6 31 12 63 63 24 24 13 63 4 13 31 15 11 4 31 63 24 63 4 63 6 63 13 65 31 4 41 4 6 63 31 63 63 63 31 63 15 62 63 56 63 39 33 4 65 31 54 65 20 63 63 24
split_gain=1.4802e+08 2.68692e+07 1.05697e+07 6.89109e+06 2.9598e+06 1.58416e+06 1.48469e+06 1.36498e+06 1.15119e+06 974456 727240 670456 636699 537558 524757 431083 405915 349481 310276 309964 266356 223105 191015 190136 161626 152783 144373 124757 117032 114427 109734 109720 104442 102031 95093.6 94860.8 94258 87557.5 87381.5 85955.1 82073 82006.7 80062.1 79582 78588.7 78084.7 76702.9 75996.7 72455.2 72311.9 74882.2 71043 70488.5 68394 67769.8 67289.1 65758.8 65052.3 60931.9 60415.8 113251 113671 60814.9 59306.7 56171.7 53887.6 68037.5 53200.8 50447.1 55418.7 49852.6 49346.9 48690.4 47794.1 47764.5 47159.8 46918 45571.9 45331.7 45168.6 44078 42888.1 42766.5 42127.6 42075.4 41828.5 41567.1 40803.3 40082.3 39999.9 39921.5 38289.4 37611.8 36860.4 36430 36354.6 35875.1 34436.9 35624.4 33657.4 33591 33352.5 62374.4 33208 33076.5 32971.2 31720.8 30893.8 30842 30784.4 29704.7 28601.3 28117.9 29083.8 27838.6 27411.6 43042.8 26889.5 39419.7 26312.5 25511 25392.6 26905.3 25391.3 25242.5 25223.3
threshold=0 7412.0739421023309 1661.6865630929794 1.0000000180025095e-35 2604.5091263378145 2921.7165542521998 1 753.86491562500009 46.500000000000007 2 12973.141333333335 1.0000000180025095e-35 9112.3346418731326 2172.1047324496813 3 5719.0402397467315 96081.49000000002 4 5 6 7 8 14295.632803738319 2388.5792271442128 3187.5517131647784 9 365.68105990783414 846.39048245614049 10 4360.8886544164752 1971.9946964623575 1978.0675555555556 11 12 13 14 15 3676.0647459421316 16 17 18 3843.0876630098137 19 2375.8558048868131 1348.3863508354536 20 83.500000000000014 21 22 23 24 3599.8627319322627 25 4125.4788773021473 26 27 28 29 1881.3885423365491 2.5000000000000004 30 2526225.8650000007 18942654.240000002 62728.670000000006 31 5488.6130246248285 32 33 34 645.62445329794332 35 36 1325.2473937401221 37 889.63772219248688 38 39 40 7696.4010367804849 24698.596197876828 6221.9266339528676 41 42 3778.6240118550345 16366.255800857793 43 1.0849500000000003 44 6806.1617176785103 45 4360.8886544164752 46 47 48 49 50 3291.2542527353198 7.5000000000000009 5244.7205887147866 51 18434.500000000004 52 53 54 6974.0632102004529 55 56 57 5488.6130246248285 58 59 77.500000000000014 60 23587740.370000001 61 4223.7264245296474 6.5000000000000009 62 7.5000000000000009 1895.3596906066261 5846416.5950000007 6.5000000000000009 63 64 65 1195.81402198809
decision_type=9 2 2 2 2 2 9 2 8 1 2 10 2 2 9 2 2 9 9 9 1 9 2 2 8 9 2 2 9 2 2 8 9 9 9 9 9 2 9 9 9 10 9 2 2 9 2 9 9 1 9 8 9 2 9 9 9 9 10 10 9 2 8 2 9 2 9 9 9 2 9 9 2 1 2 9 9 9 2 2 2 9 9 2 2 9 2 9 2 9 2 9 9 9 1 9 2 2 2 9 8 9 1 9 2 9 9 9 2 9 9 2 9 10 9 10 2 9 2 2 10 2 9 9 9 2
left_child=1 4 7 8 13 21 10 26 12 17 29 36 22 27 19 52 63 35 38 41 34 43 56 42 48 -17 -2 -1 -27 -7 76 77 -32 -26 -9 -8 -6 105 -14 91 101 -11 107 73 123 46 -34 -38 -20 50 -46 80 58 87 74 -18 -3 -52 -13 60 61 -35 71 -5 -51 90 -67 -50 69 -47 -30 -61 93 82 -22 -56 -16 -21 -31 -24 -40 -45 -4 -62 -64 109 -44 100 -43 -58 114 -25 -12 -29 -28 -41 -74 104 -99 -78 -54 -23 -103 -63 -91 -15 -83 -19 -70 -10 -36 -53 -39 -114 -59 116 -72 118 -37 -101 -60 -42 -123 -33 -84 -77
right_child=2 3 5 16 11 6 9 20 85 14 92 15 18 37 30 25 55 23 24 31 54 40 79 39 33 28 94 72 70 78 32 44 45 59 110 117 47 112 51 95 121 88 86 81 49 68 -48 -49 67 64 57 111 53 -55 75 -57 89 65 120 62 83 103 84 -65 -66 66 -68 -69 108 -71 115 -73 96 -75 -76 125 99 -79 -80 -81 -82 106 124 -85 -86 -87 -88 -89 -90 97 -92 -93 -94 -95 -96 -97 -98 98 -100 119 -102 102 -104 -105 -106 -107 -108 -109 -110 -111 -112 -113 113 -115 -116 -117 -118 -119 -120 -121 -122 122 -124 -125 -126 -127
leaf_value=-0.13643739510135419 -0.16722890674692806 0.15182534649375029 -0.063621632436839506 0.24844516861671098 -0.11005429501161057 -0.024122278851312105 0.10332510907392736 -0.10649108811694152 0.033093060381441851 -0.0091143180743174946 0.1878908052918139 -0.053974089727562853 0.012589677966825115 0.015180982413643077 -0.022688474485884833 0.20935363439120805 0.31079644366674236 -0.031768484203082738 0.16859860791759387 -0.011910174103253988 -0.097639644417734733 -0.058448300640754229 0.16090575199090149 -0.038817630762103435 0.2245490468839394 -0.012397166471667963 -0.15026999183268649 -0.14275283037083261 0.16869414107329642 0.027881965382239929 0.043797093049993387 -0.012271995376486017 -0.019116340649146905 0.18252335755575741 -0.12594790108975831 -0.073612356502358089 0.034059054864494828 0.042781377093111465 0.12299818050957292 -0.09078930940764568 -0.13811139720411322 0.074156860424326343 -0.029553614036048156 -0.10385956950470436 0.040376319125855084 -0.034771534057139841 0.11542603427740819 -0.073399555755498641 0.12789613709137507 0.073322243028666884 0.020573951022639151 0.097348818838870421 0.062606016967209854 0.1014568694362715 -0.16894990428980083 0.28942339897559732 0.032854450147822976 -0.05693296490475741 0.018009502333093036 0.20574260965252997 0.1338935036601879 -0.032571028582006153 0.19632209116553861 0.2690251040107034 0.0072719039748303906 -0.0015818812534688451 -0.052143884603739095 -0.012307497870251781 -0.047977675725416988 0.086691015448417438 0.12739906097206841 0.17359327090505419 -0.082666334660081497 -0.067840994130112311 -0.068917928827327501 -0.11708182041336036 -0.023535203731269955 -0.07648624959313223 0.079053989292216922 0.2011866330255366 -0.015121766697740232 -0.0011569343964547632 -0.068265891049145835 0.19878921863061397 0.2257174381685513 -0.092002784038433358 0.078687158676784261 0.066093662826811256 0.15064548899910271 0.10368514229600102 0.012795146301421492 -0.10219314174338626 0.1146334650028992 -0.077975014136693346 -0.12885414031203032 -0.1372098444150297 -0.017169772014131064 0.10165250793320901 0.1349535578803765 -0.049801712330502297 -0.050111479665914047 -0.11465224575167375 -0.082968867840955959 0.082097548215361985 0.013112310131548689 -0.032377138957648197 -0.051353282119876179 -0.10986108667832506 -0.078032639161135078 -0.068753691291909363 -0.1408695817533549 0.16520036479191672 0.012073994066354184 -0.075547613303724087 -0.011803123281049436 0.12689233436876532 -0.00082602472573859646 -0.072683624614428913 0.040063069753949306 -0.084761112327482083 0.075112809282361609 -0.16971697640475436 -0.093979324133432213 -0.063449585948330153 -0.11342839126115058 -0.10177261419542342
leaf_weight=545917.01727294922 10554697.748550415 919851.34196472168 536820.44528198242 3017098.2395782471 197243.82525634766 523869.62832641602 111624.61630249023 2089975.5391998291 103863.73271179199 99359.60107421875 475056.00625610352 103720.33576965332 86599.322998046875 233847.68739318848 265271.01989746094 375290.58352661133 3482885.4794921875 94833.965423583984 184485.01277160645 223842.78262329102 3266416.120300293 519955.25651550293 1439952.9018554688 205812.08807373047 2206341.892074585 83497.816665649414 9362054.5563201904 132188.27868652344 351353.03221130371 882405.32888793945 206091.47325134277 199438.93341064453 527540.98225402832 142509.14978027344 3111702.5479278564 63920.779647827148 225945.91917419434 402660.21022033691 68338.731369018555 270525.64996337891 600813.18572998047 196837.28216552734 293261.44804382324 208080.44006347656 418694.85079956055 718998.78025817871 66430.25 154148.4796295166 75918.066589355469 278355.07789611816 747722.17991638184 103509.38902282715 67538.25080871582 851499.13473510742 181497.84979248047 5012306.5724487305 80632.226928710938 217245.32769775391 217133.15119934082 1239441.9266967773 160499.27648925781 60603.281356811523 1167570.439163208 5511598.7861633301 503683.95669555664 575214.27920532227 1041586.3527984619 74821.72297668457 1048728.1046142578 56407.333755493164 79330.279220581055 1437023.8324890137 183770.85023498535 5711235.6394195557 1070408.7893371582 2504480.9536743164 164108.59094238281 475298.83366394043 331641.04550170898 530396.21508789062 60788.968322753906 184930.29956054688 215543.23551940918 1053732.3162384033 1617043.7101135254 154220.55406188965 59407.890533447266 1463263.1502532959 185102.29577636719 206326.01679992676 935112.59700012207 374073.31689453125 122980.91865539551 1641550.2252960205 1254163.9782562256 1793232.0765991211 317843.4751739502 695811.89981079102 1252392.5552978516 359351.59753417969 80920.938568115234 1104099.9713897705 3998251.8688812256 83759.517822265625 77129.062286376953 1537543.6272583008 3367222.5735473633 275622.23579406738 869655.25102233887 68614.761215209961 4619254.5203094482 526519.83045959473 355672.92366027832 61930.542709350586 1535259.5763702393 470397.63534545898 67439.887359619141 103952.14888000488 126608.4453125 1808271.9202728271 218614.08457946777 74867.27229309082 513425.55470275879 417802.78169250488 861881.28578186035 3730762.4160919189
leaf_count=3528 73884 1901 2789 2798 1172 2399 319 12424 395 429 781 505 339 940 1219 524 930 466 342 978 18902 2688 2806 1010 2644 362 62754 859 651 3348 755 875 2406 240 19543 344 849 1436 169 1540 3879 606 1393 1203 1520 3441 180 830 183 887 2926 280 226 2335 1272 2448 293 1095 844 1751 360 250 1770 3882 2070 2448 5209 314 5199 169 189 2574 1009 30240 5677 15312 766 2514 1001 776 262 790 1151 1583 1930 868 188 4702 394 557 3768 2187 312 8942 7933 11511 1446 1890 2855 1797 377 6722 22119 242 293 7207 16951 1662 4731 362 30191 1006 1426 328 6744 1126 265 553 478 9946 687 521 2924 2133 5191 21861
internal_value=-0.00015377 0.175479 -0.0953928 0.227776 0.0103488 -0.0504943 -0.0278882 -0.136421 0.17186 -0.0394258 0.0605931 0.075735 0.176465 -0.0501381 -0.0252107 0.0913225 0.27993 -0.092707 0.193393 -0.00543905 -0.114777 -0.0760726 0.14279 -0.10518 0.199488 0.144712 -0.157456 -0.0857787 0.121649 0.021971 -0.0513436 -0.0112777 -0.0376885 0.202431 -0.128826 0.0106996 -0.0438702 -0.0113398 0.124898 -0.119846 -0.0928805 0.0863812 -0.0515631 -0.0657451 -0.00674557 -0.0427963 -0.00406891 -0.00952191 0.119011 -0.00278034 -0.00757806 0.137709 0.0659441 0.074405 -0.101946 0.298187 0.125136 -0.0115523 0.0273097 0.195421 0.174455 0.10776 0.201184 0.261745 0.0307826 -0.017133 -0.0341556 0.058308 -0.0513356 -0.0259353 0.133206 0.188483 -0.0736243 -0.0729082 -0.0905504 -0.109648 -0.0697145 -0.0558123 0.0418606 0.171749 0.057976 -0.0517906 -0.0908362 0.19021 0.213392 -0.0473535 -0.0113199 0.0601135 0.111226 0.114518 -0.00689275 -0.0797011 0.172831 -0.0828039 -0.14774 -0.131125 -0.041165 0.117468 0.12306 -0.0750641 0.00116679 -0.0869231 -0.0898247 0.0339633 0.07904 -0.0260989 -0.04874 -0.0898714 -0.0616021 -0.00742489 -0.134864 0.154053 0.020533 -0.000920272 -0.0173979 0.112999 0.0684805 -0.0244129 0.00192589 -0.0789651 0.0466582 -0.121047 -0.103622 -0.0469147 -0.104394 -0.107922
internal_weight=1.23216e+08 4.33228e+07 7.98928e+07 3.29026e+07 1.04203e+07 3.81474e+07 2.02502e+07 4.17454e+07 1.58787e+07 1.79143e+07 2.33595e+06 5.00734e+06 1.5552e+07 5.41292e+06 1.41414e+07 4.43e+06 1.70239e+07 3.77287e+06 1.03495e+07 8.05056e+06 2.05745e+07 1.78971e+07 5.20249e+06 3.36677e+06 9.50375e+06 1.42731e+06 2.11709e+07 2.82127e+06 1.05202e+06 1.73792e+06 6.09086e+06 7.56926e+06 3.49385e+06 9.16853e+06 9.82093e+06 406106 577338 2.59165e+06 845756 2.64364e+06 6.81141e+06 481299 723126 1.10857e+07 6.87012e+06 3.28776e+06 593971 380094 335225 6.25287e+06 5.47084e+06 759157 3.00269e+06 2.46322e+06 1.07536e+07 8.49519e+06 3.23214e+06 5.05214e+06 539468 6.96218e+06 1.5011e+06 286872 5.46108e+06 8.5287e+06 782039 4.30442e+06 1.6168e+06 150740 2.69379e+06 775406 968521 2.67647e+06 2.27535e+06 7.32548e+06 4.33682e+06 6.41674e+06 2.597e+06 699142 1.21405e+06 1.97035e+06 129128 3.76023e+06 1.61424e+06 1.21423e+06 2.78461e+06 326699 352669 1.61172e+06 381940 2.31229e+06 2.68762e+06 579885 598037 1.77374e+06 1.06162e+07 2.06376e+06 501614 2.23166e+06 1.9482e+06 2.33173e+06 148459 5.62231e+06 5.10235e+06 144363 283455 1.77139e+06 3.55215e+06 370456 1.91838e+06 172478 7.73096e+06 630029 820264 417603 1.7525e+06 617168 146770 294481 190529 2.16762e+06 435747 1.18911e+06 588293 617242 1.07742e+06 6.23524e+06
internal_count=543676 82058 461618 39293 42765 191865 94697 269753 29235 86856 7841 15644 27610 27121 65205 12793 10058 21651 16239 34596 125182 97168 11371 19957 14183 3117 144571 15784 2593 6748 30609 33167 16881 13344 62158 1694 2851 11337 2056 16248 38853 1429 3709 58315 29675 16126 2586 1679 839 26667 23710 1717 9676 7640 63024 3378 7789 22190 2036 10700 2675 732 8025 6680 2957 19264 7657 497 13540 3610 2231 4325 12256 39371 24579 38445 13728 3492 4349 3582 431 18944 9131 1943 3700 1625 1581 5305 1000 5888 11607 3197 1093 9801 70687 13051 2455 5595 4745 12509 603 31529 28841 492 850 8147 17741 2128 9930 757 49734 1286 3190 1754 7839 1580 454 1375 822 11743 1531 7324 3445 3008 6342 37173
cat_boundaries=0 6 12 13 17 49 79 111 112 117 150 180 212 245 250 279 280 307 310 314 315 348 374 403 404 436 468 472 500 533 564 565 587 619 643 675 676 709 710 711 744 774 806 811 812 816 842 872 876 907 908 940 943 948 949 977 1009 1041 1071 1100 1104 1135 1167 1171 1172 1205 1238
cat_threshold=536893536 1074282610 4 4 8388612 64 393344 537919488 134217728 243275331 128 2 2 90702996 268454416 524288 32784 0 0 2147483648 0 0 167903232 0 0 0 0 0 0 294912 1048576 4 16 268468224 16 4096 128 1114112 536871440 0 262144 0 0 0 0 2147483648 16785408 0 134217728 0 0 33554432 0 512 2097152 0 0 0 8 67108864 256 134217728 0 1048576 100679696 3 1073741824 1 1 33562624 0 1082195968 65536 0 65536 4 0 262144 134217728 32768 1073741824 0 0 0 1 2147484672 4194304 0 0 0 1048576 1638400 0 0 2147483648 4096 0 64 1073741824 8 2 4098 8192 536870912 8388624 16785408 524289 2097152 2 0 3 2 1197999764 1342208532 36243477 524304 262144 16 0 134217728 0 0 0 268435456 0 0 0 0 2101248 32768 524288 67633280 16777216 128 1073741872 1048576 134217728 33554432 536870912 4 130 0 0 0 134217728 512 1207959552 0 0 8 0 0 128 0 0 0 16777216 64 0 0 0 0 0 256 4 536870912 0 0 0 0 0 0 0 0 0 134217728 0 16777216 8192 33554432 32768 1073741825 0 0 0 1 1073741824 4194304 0 0 134217728 16 16842752 2149580800 128 2147483648 0 0 262144 1073741824 33554440 0 4099 8194 0 0 16777216 589824 16 2 0 8192 0 150994944 2147483650 0 8388608 0 0 4 0 4194304 192 0 1048576 524288 2097152 0 65536 4194306 16384 16400 2147483648 536871168 132096 512 4096 134225920 0 0 0 1107296256 16 0 8 31720064 4587660 2359427072 109057035 128 0 0 0 0 0 33554432 0 0 0 0 0 0 32768 0 0 0 0 0 0 0 0 512 0 0 0 0 0 0 2147483648 274 0 0 0 0 512 0 0 0 0 0 0 0 0 0 0 0 1 0 0 1 0 0 8388608 0 0 65536 4 1145573120 952128000 524288 8509739 683934723 1074921730 98376 67895505 0 0 2147483648 128 0 0 16778240 0 0 33554432 33554496 0 143654912 32768 64 67840 67375104 1073742340 604127232 0 0 80 0 16777216 0 0 16 0 0 0 1074266112 0 64 2 0 33554432 0 0 0 1024 0 536870912 0 0 0 0 0 67108864 0 65536 0 4 0 0 0 0 0 0 33554432 0 0 134217728 0 0 0 0 0 0 0 33554432 0 0 0 32 536871424 128 2147483648 0 16384 2048 0 0 0 0 0 0 0 2097152 1 8448 0 512 16 1024 0 1073741888 1 268435456 0 4202560 0 0 2147483648 128 65536 16 0 4210688 39878656 0 67108868 16 50331650 0 512 8 0 0 0 0 8192 0 0 2 8192 0 134217728 0 0 0 8 0 262144 512 0 0 33554432 138412032 0 0 0 1073741824 268435456 1 0 512 134217984 0 0 8200 1052704 64 268435456 359138452 545282578 2687235 513 0 2147483648 134217728 0 0 536870913 0 0 0 0 0 0 0 524288 0 33554944 65536 0 0 0 34603008 536870912 0 0 0 256 16777216 2147483648 67108864 0 128 4 268435968 536870912 0 8388672 0 4194304 134217728 256 1048576 524288 32 0 37814274 256 24576 131072 1073741952 16 0 8192 0 33554432 16908288 0 262144 0 0 0 64 0 8388608 2147483776 4096 0 65536 0 536870912 0 0 33554432 0 0 33554432 32768 33556480 33282 1073741856 0 402653184 1107296257 0 0 32768 0 0 12583040 0 8720 0 65536 18 0 32 2281701376 0 0 0 0 0 0 0 134217728 0 8388608 524288 96 603979777 0 0 0 0 0 17 67108865 2147483649 0 0 512 33554432 16777216 0 0 0 8 256 134217728 2 67108864 536870912 4456448 2052 0 65536 1048704 536870913 33554436 0 0 8192 0 0 16384 34603008 536870912 1048576 2 0 0 0 0 0 16777216 0 0 0 0 0 0 0 0 0 262144 0 0 0 16384 0 512 128 67108864 2147483648 2048 4 8389632 536870912 65536 0 268435456 2097160 536879104 0 128 34078720 76546048 553648128 1048578 32 0 4194304 1073741824 134217730 0 0 0 0 128 0 8192 0 0 2147483648 4 268435456 2147483648 2048 0 0 0 33554432 1 0 1024 134217728 0 32768 0 0 4194312 1048576 0 4194304 0 0 0 16 128 0 2147483648 16 16777216 512 1048576 512 1048576 1 2 4096 32768 544 0 128 0 65538 65536 0 0 0 0 0 262144 16384 1048640 268435457 1056768 67108896 8193 128 33554432 1 0 16 0 32768 8388608 65537 0 33554440 0 0 2048 268435456 0 671088640 4 2147483648 0 0 128 0 0 33554432 4096 262144 0 128 587202624 1081473 536871168 0 32 2147491840 320 4 0 4096 0 8 1073741824 4097 16384 0 0 0 0 268435456 0 0 128 0 536871936 100663296 256 67108864 1048578 8388608 528 138412544 256 0 1073741825 268435456 33554432 2 0 0 134226176 135168 0 0 1073745920 0 2415919104 1077183376 8332 2281701376 545259592 64 1028 536887296 0 0 4 128 0 0 0 0 0 0 0 0 0 0 0 32768 0 0 16777216 0 32 0 0 0 0 0 0 0 8388608 2 0 33554432 0 0 0 268435456 4 33554432 4 0 0 0 524288 0 33554432 65536 2147483936 0 0 128 0 65536 32768 0 32768 0 0 2359297 134217728 0 0 134217728 33559104 0 0 0 2 268435456 65536 0 0 0 0 33554432 2097152 0 0 0 0 1081344 0 0 131072 2147491840 0 512 0 0 167772160 16384 16778240 1 0 64 2 0 1048576 0 536870912 0 0 16781312 0 0 0 134217728 65 134225920 0 68157984 67109120 512 1073741826 33554432 1073741824 16384 32 0 33554434 4096 33562624 0 0 4096 1073741824 0 1048576 1084228368 4194436 16384 1082393088 8 2348810240 648024778 128 2 2 0 0 0 0 0 0 1 0 0 0 0 0 1048576 0 0 128 0 0 0 0 0 0 0 0 0 0 16777216 0 2147483648 0 4 0 2 33554432 128 0 0 0 416 0 537395456 0 33554432 4194305 134217984 16777476 134217728 0 536870928 0 0 0 33554688 0 0 131072 134225920 0 402669568 0 16384 0 144 262144 48 0 16777216 0 4 0 0 8503296 32768 6291456 256 0 268435457 67141632 0 0 0 16 32768 0 0 16 0 2151686144 536870912 0 67108864 0 0 0 4 0 0 0 0 0 2097152 0 0 0 256 0 536870912 0 288 0 0 2048 4194304 16 0 0 32768 0 0 0 268435456 258 0 33554432 0 0 0 0 0 0 0 0 0 134217728 540928 0 0 0 0 0 0 0 536870912 0 0 0 0 0 0 1 1145605520 947943957 1077412624 33587200 2 0 33554432 0 16777216 0 0 128 65536 1024 0 0 0 0 0 570425600 65536 0 0 16384 0 32 262144 8192 4096 524288 128 134217732 67112960 268435456 64 67108864 128 0 0 0 671219712 285212672 134217728 131072 0 0 4096 294912 0 67108864 67108928 134217728 268435456 8396800 1040 2147485696 536870912 0 0 0 138412032 268435456 0 1024 4096 0 1048576 67109901 0 0 8 88 0 2147483649 2048 0 0 0 268435456 0 0 2097152 64 2097152 32768 540674 64 1 1319168 0 16384 16384 33554433 134217729 65536 0 0 40960 128 16777216 8192 33554432 2147483648 0 2048 0 0 0 4 0 0 285212672 4 262144 20971520 0 0 0 524288 67665920 256 1073741824 0 67108868 272958464 33570816 16 65536 0 0 1048704 1073743872 0 0 1048576 4096 2048 8
is_linear=0
shrinkage=0.118


Tree=2
num_leaves=127
num_cat=69
split_feature=4 24 24 21 31 24 24 4 7 15 7 24 21 31 24 31 63 36 6 6 10 63 15 21 63 13 63 24 4 6 63 63 63 24 27 28 36 4 63 65 63 63 6 24 63 24 36 15 24 28 21 15 31 24 63 13 63 63 4 32 63 63 12 63 6 63 31 63 31 31 63 63 63 4 12 63 13 63 63 63 15 26 15 63 63 6 63 27 47 31 63 24 63 4 6 63 63 63 31 63 65 24 24 63 31 63 63 50 65 62 9 60 24 13 4 63 63 63 31 62 63 6 31 65 63 63
split_gain=1.20402e+08 2.23105e+07 9.83893e+06 6.39016e+06 2.94917e+06 1.44214e+06 1.35401e+06 1.22474e+06 797894 774753 640276 625417 522365 460047 458322 416496 318329 293576 285050 273818 273833 218340 216344 166071 149152 148957 152776 146499 136237 245870 133594 124869 122344 118382 116098 104971 99267.2 99225.4 93965.6 90219.2 89847.4 84740.4 84575.2 81949.8 81692.1 80867.3 79571.6 79362.7 79343 74299 70053.4 67730.5 65067.5 63428.1 59255.2 54713.7 102673 52664.7 51444.2 67087.1 61393.8 48775.4 47724.8 46917.1 46903.6 46545.6 45547.9 44025.4 43902 43141.8 42494 42116.7 46167.2 40134.1 39738.3 42503.9 39433.2 39145 38819.5 37824.5 37671.8 36851.9 36636.3 36355.5 35971.7 34974 33880.1 54698.2 58570.4 34780.1 34051.4 32906.3 32585.8 32523.3 59002.2 32172.3 31874.6 30888.6 30870 30634 30589.7 30331.3 30254 30005.9 29929.8 29794.1 28343.2 27630.9 27606.6 27532.8 27311.7 34089.8 27309.4 27058.3 26322 26214 25834.2 25738.3 25406.9 25314.1 25296.1 24641.7 27548.8 24384.1 24217.6 23040.9
threshold=0 8404.6272767332575 1661.6865630929794 1.0000000180025095e-35 2604.5091263378145 714.26535714285728 3010.7653153330707 1 46.500000000000007 2 31.500000000000004 12973.141333333335 96081.49000000002 5719.0402397467315 2150.6140625000003 9606.2844621257773 3 2777.3054322662788 4 5 6 7 8 54494.530000000006 9 1971.9946964623575 10 324.81487667371397 11 12 13 14 15 846.39048245614049 13.500000000000002 420.14763969825049 4099.4420496673065 16 17 7.5000000000000009 18 19 20 2375.8558048868131 21 4360.8886544164752 1843.3145143285872 22 2961.6555166152798 24.001071428571432 63878.92500000001 23 4125.4788773021473 11769.390353686795 24 9293.4083270984374 25 26 27 4018901.1950000008 28 29 30 31 32 33 824.10044506312477 34 1325.2473937401221 4418.2295548700868 35 36 37 38 39 40 27303.962443914035 41 42 43 44 9.5000000000000018 45 46 47 48 49 325.50000000000006 883450.88500000013 3851.9814896780422 50 10006.819402173915 51 52 53 54 55 56 14503.407208958315 57 6.5000000000000009 1167.6579166666668 5062.6009235382317 58 5244.7205887147866 59 60 2379.1400000000008 7.5000000000000009 163.50000000000003 4.5000000000000009 24.500000000000004 6006.3598655645865 19683.62194146726 61 62 63 64 7318.3122548269903 158.50000000000003 65 66 9606.2844621257773 7.5000000000000009 67 68
decision_type=9 2 2 2 2 2 2 9 8 9 8 2 2 2 2 2 9 8 1 1 9 9 9 2 9 2 9 2 9 1 9 9 9 2 2 2 10 9 9 2 9 9 1 2 9 2 8 9 2 2 2 9 2 2 9 2 9 9 9 2 9 9 9 9 1 9 2 9 2 2 9 9 9 9 9 9 2 9 9 9 9 2 9 9 9 1 9 2 10 2 9 2 9 9 1 9 9 9 2 9 2 2 2 9 2 9 9 10 2 2 2 2 2 2 9 9 9 9 2 2 9 1 2 2 9 9
left_child=1 4 5 8 14 27 22 11 15 16 13 45 50 52 33 30 36 32 37 20 31 39 43 24 118 40 35 -2 -11 49 -3 123 -17 -1 -22 102 -9 101 -14 41 -21 -19 -12 64 -23 -8 103 93 92 -30 120 66 65 95 -48 56 -46 -42 59 -58 -61 -50 -53 -26 73 -6 -20 -45 79 112 119 -56 -73 -4 -31 -76 117 -59 108 -35 105 124 -39 -33 -51 -29 87 104 -89 -88 113 -38 -16 -24 -95 -32 -70 109 -57 -83 -49 -7 -27 -28 -74 -10 -69 -100 -54 -41 -47 -112 -36 -91 -108 -75 -63 -67 -15 -44 -5 -65 -123 -18 -79 -68
right_child=2 3 6 12 10 18 7 9 80 28 42 -13 38 23 48 17 19 21 51 25 34 44 47 -25 63 26 46 85 29 74 53 83 -34 68 69 -37 91 82 -40 97 57 -43 70 67 55 110 54 100 61 84 -52 62 78 -55 71 98 58 77 -60 60 -62 116 -64 121 -66 76 125 106 96 -71 -72 72 86 115 75 -77 -78 81 -80 -81 -82 99 -84 -85 -86 -87 89 88 -90 90 -92 -93 -94 94 -96 -97 -98 -99 107 -101 -102 -103 -104 -105 -106 -107 114 -109 -110 -111 111 -113 -114 -115 -116 -117 -118 -119 -120 -121 -122 122 -124 -125 -126 -127
leaf_value=-0.13089011607243498 -0.16641759928292166 0.16239868531587626 -0.057010306439981472 0.19616979197198711 -0.031374715286630321 -0.11519426971313053 -0.021375859874899421 -0.018702442012824561 0.033927113536942263 -0.0021904041831641934 -0.0864246011427489 0.16309166765748717 0.30171621691028111 0.036948569252493187 0.0036824343486690459 0.12598117101439768 -0.040261501343201785 0.12595564921313271 -0.093419944445088401 0.017007951150487543 0.17949206114652397 0.21088890062755328 -0.050864370680707212 0.25003003673932767 0.15489849533178296 -0.0078827525918008616 -0.021052091565604555 -0.14752047970860688 0.062140516101324886 -0.16767492016341778 0.034691807006577743 -0.078995160968971856 -0.058677772298681548 -0.14311593450833296 -0.0099912865513219398 0.14079627490767452 0.069762740756601771 -0.12170764206548473 0.27537997964824379 0.07361820547609442 -0.0093545438858196016 -0.030692780540206181 -0.031197891984106444 -0.097314402976151709 0.065805401087583135 0.050966823133136656 -0.071546801780453306 -0.12906866812664922 -0.098246204339322504 -0.072754763205592946 0.25186479164285297 -0.16693595102973802 -0.021414110582967126 0.1330230059971913 0.023196447220896598 0.17655989741136602 0.17267743141464573 -0.094069047966596694 0.1796776999110318 0.14793493127211269 0.016214809545937028 0.032924541141529026 -0.10341924025771491 0.095379859098728412 -0.061533524527036365 0.086491126781016295 -0.031181168248213448 0.0056300607197354614 -0.090792781593161065 -0.082068787571478202 -0.063987372870394604 0.010218862160647473 0.0042144103886800439 -0.056208976101052674 -0.018972693083299717 -0.065249208164817121 -0.038210537293763329 0.024779580274045275 0.092605650163611997 -0.071410582268233339 -0.094546055384665401 -0.032158675890660994 -0.13812760669110627 -0.12217410139385385 -0.13345252708882688 -0.12466783621698641 -0.009301016094760816 0.0070977842887541553 0.12810189035458031 -0.02267950117916322 -0.051718158832057701 0.14257735501014357 -0.043716931644193498 -0.10879963615856734 -0.075786508662903831 0.10496251728269063 -0.018113766576512057 0.15761192268970362 0.20240457545190041 -0.066434447688335369 -0.093801804553080487 -0.087845648262254911 0.044882874743638057 -0.084861721347356825 -0.040480420052241457 -0.065700273586890026 -0.11818190401747371 0.16497248776072979 0.064126502242337624 0.14559361429491305 -0.065944855635250724 0.032845537039838058 0.061761690616726858 0.062940326354857634 -0.043732360003888478 -0.10548146290800248 0.00020370595910071436 0.048116758939287373 -0.085730183086852443 0.057718241358078536 0.23272845812372653 0.11881380487581582 0.17728076381833943 0.037983209442465506 -0.032853433557013839 -0.075134891769008796
leaf_weight=501054.33856201172 8135175.1296157837 1376787.9160003662 504005.96011352539 291511.08638000488 101045.28213500977 1136047.086807251 449331.16151428223 113944.68218994141 104241.31091308594 314911.3602142334 290745.0785369873 609258.18179321289 3129341.0987548828 46130.231719970703 260230.93223571777 98914.659881591797 182530.5196685791 111074.37748718262 3991165.8348846436 393578.69311523438 50354.633148193359 1351850.0796813965 508680.35551452637 145438.79814147949 578855.87208557129 247974.35092163086 166069.22637939453 9198558.4620132446 29639.32145690918 48306.093124389648 97208.913238525391 425745.03378295898 100919.8062286377 109600.96182250977 290810.21936035156 129682.82269287109 163513.38702392578 3849888.5839385986 4764160.3768920898 135438.97430419922 530848.94424438477 84782.320205688477 63352.747268676758 219333.30661010742 135778.30088806152 711805.25991821289 198494.40785217285 672110.55198669434 57902.776962280273 153088.03009033203 4972820.684753418 170966.63624572754 70622.551620483398 1888993.8758392334 615202.10971069336 1914779.5668945312 294826.48054504395 255602.48229980469 1984898.518157959 101134.52278137207 96087.657836914062 530211.2660369873 4539275.8861541748 547030.64768981934 5511773.8644714355 285882.78955078125 187042.85275268555 160121.05177307129 109837.36494445801 90834.215148925781 93515.074111938477 1247735.6504821777 566505.65797424316 180354.11038208008 314306.84403991699 2290624.1542663574 67088.447830200195 132283.88009643555 934665.96589660645 1569146.0534057617 108755.76161193848 558825.12312316895 3725352.0897827148 750379.92683410645 1220788.7187347412 1037670.6421127319 1305426.1527099609 153131.02313232422 87538.779632568359 519727.36761474609 811098.98930358887 183289.23892211914 901826.92358398438 937356.57810974121 3849531.150604248 1366018.8430938721 357451.3692779541 777608.41563415527 1902136.0095825195 1036855.390625 698217.19766998291 1122663.3657226562 388104.12905883789 268626.09683227539 330226.36289978027 69757.239288330078 67315.023193359375 320910.3616027832 205089.18432617188 163142.89865112305 67792.197891235352 172119.00398254395 99001.425186157227 57034.189254760742 3729384.3152618408 906140.90878295898 917115.01724243164 1637897.5330810547 47927.550659179688 150473.22113037109 2833512.8063964844 819009.44145202637 130029.91836547852 79660.226654052734 436457.19017028809 1483961.05909729
leaf_count=3497 63384 2367 2682 366 456 7510 2071 515 390 1350 1720 1049 918 160 1108 226 937 237 24466 1586 103 1571 2684 116 1049 1055 772 67807 116 333 331 2528 484 779 1274 293 506 26133 2495 402 2394 359 293 1322 372 2387 1087 4638 332 886 3681 1328 309 3906 2368 2934 470 1487 2958 188 316 1927 28774 1402 30025 804 949 676 637 511 512 5087 2377 978 1459 12480 305 534 2471 8859 656 2711 26565 5017 8448 7092 5763 630 216 2428 4200 384 4488 6061 22061 3344 1678 1366 2391 5583 4257 6801 1367 1524 1621 383 424 528 633 314 335 620 307 199 18951 5750 3872 5441 254 505 2629 1847 203 315 2107 8511
internal_value=-1.85274e-05 0.159959 -0.0889194 0.212702 0.0200771 -0.130671 -0.0456142 -0.0238762 0.15622 -0.0340405 0.0752653 0.0632843 0.26422 0.0876245 -0.0444616 0.1601 -0.0194593 0.174252 -0.108916 -0.023036 -0.0633933 0.177268 -0.0689328 0.127964 0.119779 -0.0154212 -0.00574102 -0.154598 -0.0769573 -0.0827612 0.131449 -0.0901284 0.0327286 -0.0792466 0.00902533 0.0440385 0.0768496 -0.12331 0.285822 0.131814 -0.0359501 0.0581507 -0.0408025 -0.0589717 0.184404 0.0198826 -0.0117661 -0.0857863 -0.00994 -0.122703 0.243164 -0.0952697 0.0593526 0.118737 -0.00817172 0.1791 0.165731 -0.0430134 0.171208 0.137038 0.0837686 0.00794191 -0.105725 0.126367 -0.0666847 0.0467533 -0.0865718 -0.0458545 -0.0671889 -0.00883338 0.00235616 -0.00596217 -0.00949449 -0.0845358 -0.061633 -0.0596657 0.0507186 -0.0503966 0.0811281 -0.0760933 -0.0400707 -0.0452388 -0.129783 -0.106545 -0.126691 -0.145204 -0.0159156 0.00116103 0.0511106 -0.0231271 -0.0361322 0.108246 -0.0331027 -0.0792361 -0.0822509 0.100295 -0.0351995 0.145221 0.187542 -0.0544313 -0.111098 -0.101601 0.0243123 -0.0604866 -0.0122447 -0.00601569 -0.0430017 0.197001 0.0422141 0.112941 0.0393618 0.00493011 0.008232 -0.0142126 -0.0450527 -0.097303 0.0121908 0.0538201 -0.0255602 0.0313725 0.22932 0.115326 0.126825 -0.0164881 -0.0194487 -0.0702156
internal_weight=1.17878e+08 4.21066e+07 7.57712e+07 3.05774e+07 1.15292e+07 3.85778e+07 3.71934e+07 1.92491e+07 1.4586e+07 1.72388e+07 6.2148e+06 2.01031e+06 1.59913e+07 5.61671e+06 5.31438e+06 1.43033e+07 1.28671e+07 9.57428e+06 2.02064e+07 1.24063e+07 1.96932e+06 9.37445e+06 1.79443e+07 2.31442e+06 2.16898e+06 1.0437e+07 7.09258e+06 1.83714e+07 4.37166e+06 4.05675e+06 4.72901e+06 1.43832e+06 199834 2.64709e+06 531000 765761 460747 9.83395e+06 7.8935e+06 1.27205e+06 3.34445e+06 195857 598086 1.12784e+07 8.1024e+06 1.40105e+06 6.32682e+06 6.6659e+06 2.66729e+06 1.40352e+06 8.09784e+06 1.03724e+07 3.30229e+06 3.35222e+06 5.89212e+06 6.75055e+06 2.61273e+06 2.95087e+06 2.47695e+06 492049 197222 1.50523e+06 4.71024e+06 2.07493e+06 7.10227e+06 2.09191e+06 5.66217e+06 4.17615e+06 2.14604e+06 480646 307341 5.69363e+06 5.07842e+06 1.5905e+06 2.65324e+06 2.60493e+06 1.99087e+06 2.42002e+06 1.21038e+06 1.67875e+06 282754 2.16442e+06 7.57524e+06 1.17612e+06 1.37388e+06 1.02362e+07 3.83069e+06 1.1374e+06 240670 2.69329e+06 1.38786e+06 346803 1.16206e+06 5.29557e+06 4.78689e+06 1.46323e+06 467289 1.07619e+06 4.13783e+06 1.59568e+06 1.37033e+06 2.25871e+06 636078 434695 896732 173999 3.95682e+06 2.22305e+06 275712 298582 951716 239911 389812 576762 3.7967e+06 1.0865e+06 1.44733e+06 1.92378e+06 94057.8 213826 3.12502e+06 1.49607e+06 949039 262191 568741 1.671e+06
internal_count=543388 82239 461149 36582 45657 269320 191829 91320 26493 84858 18480 6462 10089 15450 27177 25064 59786 15116 131037 58381 10992 14406 100509 5031 4915 47389 30987 138283 25072 23722 9948 8797 710 15450 2195 2715 1405 67009 3413 2678 16402 596 3030 60808 11728 5413 28272 39701 11727 9450 6676 64028 10419 7581 25976 10157 4304 14816 3932 974 504 6131 30102 4501 39435 7006 33926 21373 11953 2092 1310 24889 22521 9410 14272 13939 6550 12422 3413 9638 1429 10935 52698 7545 9334 74899 17434 4844 846 12590 6827 890 5596 30806 28122 3675 2315 2082 5853 8294 8895 14311 2422 2296 3998 773 20051 2919 942 716 3342 955 1581 2627 19375 6728 5799 6245 414 798 2995 3452 2050 1252 2641 9460
cat_boundaries=0 6 11 17 49 50 51 53 85 90 120 153 159 160 193 225 258 263 291 324 353 354 387 391 394 426 455 485 489 506 536 537 570 571 600 632 658 690 720 725 726 756 789 820 851 852 856 889 921 922 955 985 1016 1020 1021 1037 1070 1100 1132 1162 1191 1223 1228 1261 1292 1321 1347 1348 1378 1410
cat_threshold=536893536 1611153522 4 4 8388612 64 393344 0 134217728 243275329 128 1164447381 1879079444 2621456 32792 0 192 32768 1 0 65536 0 33554433 2147483648 4194304 0 0 0 16 17825792 0 0 2147483648 4096 0 64 0 8 512 4099 0 0 8388608 16785408 524289 2147483664 2 0 3 2 2 34341569 1024 0 0 0 0 4194816 2097152 16777216 0 0 8 67108872 256 134217728 0 1048576 33701888 0 1073741860 1 1 33562624 0 1082195968 0 0 33624064 4 16777216 262144 134217728 0 1048576 1164445332 1350597140 1076431121 524304 262144 0 2147483648 128 0 0 0 0 0 0 0 0 0 0 256 4 536870912 268435456 134217728 0 0 0 0 0 0 0 134217728 0 16777216 8192 33554432 8192 1082130432 0 0 1024 67108864 1073741888 0 268435456 33554432 4194368 1048576 589824 0 128 67108864 18 0 16384 1077936128 0 70 0 8194 536870912 16 0 0 0 0 1073741824 8192 2112 4194304 8 2164260864 10 8 2 2 0 0 33554432 0 512 536870912 285507584 128 2097152 2097152 67108864 2097152 1048576 524290 0 512 33702912 1073741824 0 1073741824 0 16 1073774596 0 0 0 0 16777216 294912 0 0 16 64 0 0 2181038080 0 0 134348800 67108864 0 0 2097156 134217728 0 32768 135790848 0 16 32768 2352 0 0 128 536871184 4 262144 0 32768 0 67108864 2097152 0 67108864 1048576 0 0 512 0 0 0 0 0 0 0 0 0 0 0 32 570425344 1048576 2147483648 0 0 18432 0 0 128 0 0 0 67108864 0 0 0 0 8 1373897616 4587532 2357329920 109057035 128 0 2147483648 134217728 0 0 536870913 0 0 0 0 0 0 0 524288 0 33554944 65536 0 0 0 34603008 536870912 0 0 0 256 16777216 2147483648 128 544 0 16 0 65536 4194304 0 33554432 0 64 0 128 33554432 0 268435457 0 67108864 0 2129920 128 67108864 8388612 16777216 262144 0 8388632 65536 1 0 2216689664 0 2048 0 0 0 0 0 0 0 0 0 0 0 0 0 0 1048576 33570816 0 4 0 0 8192 0 0 0 0 4096 0 0 262144 2 0 134217728 2147483650 0 0 0 0 4 0 4194304 192 0 1048576 0 2097152 0 65536 2151677954 16384 0 0 536870912 132096 512 4096 134217728 0 0 0 0 16 0 8 121131 675545091 33554436 98313 1430816404 536902162 36241411 268435456 32 0 0 67108864 0 268435456 134217728 33554432 0 67108992 0 0 1048576 1028 131592 0 4194304 8388608 16 8192 0 66560 32 0 1048584 268453888 1140850688 132097 0 0 64 0 0 0 0 0 536870912 268435456 0 0 0 134217728 0 0 0 32 0 128 0 0 134217728 2048 0 0 0 0 0 0 0 8192 268435456 33554432 2048 0 268435456 2147483648 33619968 0 262144 8 0 0 0 256 64 0 1048962 536870912 65537 268451840 1 49 0 33562624 0 32768 132 0 262144 131080 4096 0 0 4 0 0 0 0 0 0 0 0 0 0 0 0 0 0 0 4194304 1074003968 256 0 8192 0 0 0 0 0 0 0 0 0 0 0 128 0 128 2 0 0 0 0 0 0 16 0 0 512 0 256 4096 0 0 134217728 0 0 67174400 268435456 0 536870912 0 64 2101248 32896 0 67633312 16777216 134217856 1073741824 1048576 134610944 0 536870928 65536 130 0 32768 0 134217728 512 268435456 0 0 8 2 0 0 0 0 0 0 268435456 0 0 0 0 0 65536 0 0 0 4194304 256 0 0 1073741824 268435456 0 0 0 0 0 0 8192 0 67108864 0 0 0 0 16777216 0 0 536870912 100663296 0 0 1048578 8388608 524800 138412544 256 0 1 270532608 33558528 2 1073741856 0 134217984 135168 1073741824 0 1073745920 0 2416967680 2 2147483648 33554432 0 0 131072 1024 64 0 0 0 0 0 524288 67108864 0 65536 0 4 0 0 0 0 0 0 33554432 272 0 2147483776 0 0 0 1040 536870913 0 8 0 0 8388608 2147483648 32832 536936448 67141632 1073741824 4587520 134217728 33554432 0 0 16809984 0 0 136 65536 8704 0 65536 4194304 67108864 0 512 4096 0 524288 16777216 4 0 0 167772160 0 0 0 0 50331904 263680 32 0 18939904 1342193664 134218000 16 33554432 0 0 4194304 0 0 33554432 1076134160 8200 2281701376 645922888 64 4096 67141648 268435488 2147483648 0 0 0 1024 128 268435456 0 0 2098176 1310720 2147516416 192 0 270336 0 67125248 4194304 1107296256 2 33554432 2 0 0 8388624 524288 1024 2 0 0 536870912 0 0 537395264 68 0 0 1 67108864 256 0 0 69206016 576 0 2147483648 574619652 196608 1048576 0 0 128 0 288 1 0 131072 1052672 10240 0 16 0 0 0 0 0 0 0 0 0 0 67108864 0 32768 0 0 0 134217728 0 0 2097152 0 1 0 0 0 134217984 0 0 8 1209008128 67108864 0 0 0 2 0 0 0 0 0 0 33554432 2097152 0 0 0 4194304 1081344 2147483648 8 131072 8192 512 65536 0 0 134217728 16384 16777216 1 0 64 4197892 1166561044 952136209 1076888340 33587200 2 1048576 0 4 0 0 285212672 134217728 33816576 0 0 2097152 8192 0 268960256 100663552 0 1077936128 0 0 0 4194304 16 33587200 0 33554432 8 0 266240 1476395008 0 0 8 0 0 2147483648 0 0 33554432 16781312 128 0 2097152 64 0 0 2281963520 67108864 272 268451840 2147485712 0 1073741824 16384 536871440 0 294914 0 1056768 0 0 2149842944 0 0 1048576 2 128 0 2 0 0 16777216 0 0 8192 69222400 0 8192 134217856 524290 67108896 270534661 65536 2147483648 67108864 0 1 0 33554432 131072 0 33554432 16 0 256 0 536870912 3221225472 8 8388608 2147483648 134217728 0 0 537001984 0 64 0 64 8 2097408 32768 33554432 0 16384 269615360 67108884 0 32 1050624 536870913 131072 0 0 73728 1 0 278528 1048576 256 0 0 4 0 0 16777216 128 0 0 0 128 0 536871168 288 16 138477569 256 256 134217728 73728 536870928 16 32 0 167772160 0 0 167936 1073750016 16 1074004480 262156 2348826624 916460234 2 0 16777216 0 0 0 0 0 0 0 0 33554432 0 0 0 0 553648128 0 2147483648 0 0 0 0 1 128 536870912 0 134217728 0 0 0 2097184 570425344 65536 0 0 0 8224 16 0 0 0 0 0 1073741824 0 167776256 0 0 8 0 0 0 0 512 2097152 0 0 0 8 0 0 134217728 0 0 33570816 0 1073741824 0 0 33554432 0 8388608 0 0 0 4 0 0 134217728 67108880 2147483648 0 0 512 2 0 64 0 0 134217728 0 142639104 134217730 9437184 0 73728 134217760 0 0 2048 2 0 0 0 2181046272 0 0 16785408 33570816 16 2152726528 0 65536 2112 4 2147483648 0 0 128 0 0 33554432 2048 262144 0 4194304 570425344 32769 2181038080 0 16384 2147491968 272629760 0 33554560 4096 0 0 1073741824 4097 1073764352 258 0 33554432 0 0 0 0 0 0 0 0 0 134217728 16640 0 0 0 0 0 2097152 0 0 0 0 0 0 0 0 1 0 16384 536870912 144 262144 16 0 150994944 0 16392 8192 0 8454144 0 2113536 16640 0 1 32768 32768 8 0 16 32768 0 0 0 512 4194304 536870912 0 67110912 12582912 0 2706395136 2097153 2 0 0 33554434 4 0 0 16777216 4 4 20971524 0 0 0 524288 68714496 0 0 0 67633152 272958464 8388736 536870912 65536 0 0 1048576 1073741824 0 262144 1048576 0 2048 8 0 2147483648 33554432 0 16777216 0 33554432 128 0 1024 0 0 0 2 0 570425600 4259840 134217728 16777216 16384 0 2097184 327680 512 6144 8913152 0 134217732 67112960 268435456 64 268435456 0 134217856 0 2181039112 524288 0 0 0 1024 0 0 1048576 524288 32 67109120 0 0 42213376 131072 2181056512 1744834560 0 0 0 8388608 0 16777728 262144 0 0 0 0 0 0 16777216 64 0 8 0 0 0 0 67108864 536870912 0 0 0 0 0 0 0 0 0 33554432 2 16 2147483648 0 0 0 0 0 128 0 0 0 2097152 0 540672 0 536870912 262144 2080 0 32 0 0 0 0 0 0 1024 0 2048 268435456 8 16384 4 16 0 0 0 0 33554432 0 0 0 0 2 524288 0 134217728 0 0 64 3223330816 268435456 16 33562770 0 33628176 0 67108864 139776 0 0 1074003968
is_linear=0
shrinkage=0.118


Tree=3
num_leaves=127
num_cat=61
split_feature=4 31 24 21 24 24 24 7 4 6 21 24 24 31 15 63 63 27 6 6 63 4 24 31 21 7 15 63 24 24 24 38 7 13 31 24 15 31 63 21 63 4 36 63 15 65 63 28 63 4 63 15 26 36 31 12 63 24 63 12 63 38 31 63 31 20 63 63 63 24 63 63 63 63 24 63 65 28 63 63 49 63 63 20 63 63 13 63 63 31 32 36 63 31 24 24 31 28 31 4 63 31 63 15 63 31 24 15 31 37 26 13 70 63 63 24 63 49 27 6 20 13 63 26 27 63
split_gain=9.76778e+07 1.84875e+07 9.01233e+06 5.59644e+06 2.82162e+06 1.51331e+06 1.04856e+06 1.04134e+06 921810 827398 637603 533606 490329 369446 340874 315454 256743 213473 201498 195602 187062 155917 145746 138354 136019 135093 128633 127614 127481 118375 116756 115195 111751 98887.4 96271.4 91653.8 91502.4 89782.6 80397.4 76997.6 76003.7 75955.6 75868.2 71592 66745.6 63876.4 62638.3 61429 61380.8 60057.5 55249.3 54779.7 58407.9 54608.9 54449.9 53142.1 53071.3 48644.1 58088.4 48222.3 47807.7 47226.6 46516.5 45849.2 45603.8 44151.9 42895.2 42835.3 42763.7 40887.6 40779.1 40652.3 40625.4 40505.5 39956.2 38597.6 38859.5 55881.3 37697.1 37410.1 36804.5 36714.8 36504.1 35942.5 35754.1 34714.9 34187.2 33731.6 33727.7 33222.1 33081.1 32851.3 32497.3 31880.4 31023.3 30785.2 30588.3 30206.8 27932.9 27411.7 27133.3 27108.1 27006.6 26753.2 25846.9 25733.2 25471.6 24675.5 24360.6 24080.6 24069 23933.7 24898.7 23622.6 23453.4 23338.1 23118.2 22498.4 61036.2 21872.8 21810.3 21162.5 21126.1 20964.1 20942.1 20848.4
threshold=0 7318.3122548269903 1441.1370045045048 1.0000000180025095e-35 3402.2211425810297 2736.7690178571434 620.72325853658549 46.500000000000007 1 2 96081.49000000002 12973.141333333335 7696.4010367804849 1343.2253160090097 3 4 5 5.5000000000000009 6 7 8 9 16056.020330729169 2756.0304691763845 194732.59000000005 14.500000000000002 10 11 24698.596197876828 286.20831018518521 1057.6202597402601 3249.2691685520367 1.0000000180025095e-35 1971.9946964623575 22753.494823024812 4360.8886544164752 12 3208.8737037250335 13 66536.910000000018 14 15 2382.6885773187259 16 17 7.5000000000000009 18 372.28132642851853 19 20 21 22 83.500000000000014 3843.0876630098137 956.77358410336183 23 24 3821.0521879671155 25 26 27 2847.0512650221385 585.96671065921294 28 7622.7998613436412 29 30 31 32 2005.5205284552849 33 34 35 36 7412.0739421023309 37 7.5000000000000009 174.86549806576406 38 39 2676.9900000000002 40 41 42 43 44 6819.6802529597526 45 46 1412.8765644227713 29207.200000000001 3786.7857568768791 47 1481.1842511646698 19205.130833333336 7696.4010367804849 5042.9384921154096 64.000755287009085 11562.167835366532 48 49 1382.2615935726751 50 51 52 538.0834747338115 11769.390353686795 53 8322.1835072156227 3623.1503717181154 28.500000000000004 3534.7481501765792 14.421601723804097 54 55 12973.141333333335 56 5489.8400000000011 476.50000000000006 57 58 9862.2898258185523 59 20.500000000000004 390.50000000000006 60
decision_type=9 2 2 2 2 2 2 8 9 1 2 2 2 2 9 9 9 2 1 1 9 9 2 2 2 8 9 9 2 2 2 8 10 2 2 2 9 2 9 2 9 9 8 9 9 2 9 2 9 9 9 9 2 10 2 9 9 2 9 9 9 8 2 9 2 9 9 9 9 2 9 9 9 9 2 9 2 2 9 9 8 9 9 9 9 9 2 9 9 2 2 10 9 2 2 2 2 2 2 9 9 2 9 9 9 2 2 9 2 10 2 2 2 9 9 2 9 8 2 1 9 2 9 2 2 9
left_child=1 4 6 7 13 19 29 15 11 16 39 35 23 30 20 31 45 -18 41 21 53 89 40 78 85 37 54 91 71 -2 90 -3 47 79 84 -7 49 73 -33 100 -17 105 63 109 68 80 -34 114 -36 -19 -44 52 82 -11 -21 -20 -52 -58 110 -28 -51 -42 -57 -22 74 104 -32 106 -23 -61 -50 -14 -27 -15 122 108 77 -77 -6 -16 -10 123 -45 -39 -29 -12 98 -47 -56 101 -1 -24 -76 -70 -13 -37 -83 -81 -40 -91 -5 -4 -65 -43 -9 -8 -66 -64 -63 -35 -59 -108 -113 -38 -25 -73 -53 118 -78 -31 -101 124 -60 -48 -110 -62
right_child=2 3 5 10 12 8 18 65 9 14 24 94 28 25 33 22 17 36 55 26 42 44 27 32 -26 72 59 34 -30 119 66 38 46 43 48 95 113 83 86 -41 61 103 50 51 -46 87 81 -49 70 60 56 116 -54 -55 88 62 57 58 64 69 125 75 107 102 67 -67 -68 -69 93 -71 -72 115 -74 -75 92 76 117 -79 -80 97 -82 96 -84 -85 -86 -87 -88 -89 -90 99 -92 -93 -94 -95 -96 -97 -98 -99 -100 120 -102 -103 -104 -105 -106 -107 111 -109 121 -111 -112 112 -114 -115 -116 -117 -118 -119 -120 -121 -122 -123 -124 -125 -126 -127
leaf_value=-0.16729121424987634 -0.16583386511530171 -0.028141617458942159 -0.064039322994222728 0.17611567407511244 -0.086729612203386999 -0.020457100263995553 -0.11152150791492847 0.026275952992094311 -0.05747699691976918 -0.002421671449820913 0.27073968149297217 0.083953466980233774 0.12320274760584354 -0.039079030759787692 -0.0055167158602329441 0.16602627300444411 0.14496839699922645 -0.037629380915042636 -0.16469437049053637 -0.062263702267781947 0.0044026715400931555 -0.040240648105487116 0.13529403185026379 0.05627272168506138 0.29884508305105473 -0.034521077055496188 -0.16563980316048735 0.13227438563242688 0.16769844022159922 -0.14611498482315677 -0.10704017652025143 -0.0099772813206156045 0.10634143404938048 -0.011383460187129301 0.14057964424124131 0.0198259593446308 -0.089395340822892813 0.002786386204889101 0.11544613703360444 0.23429769444311788 0.051319792780927291 -0.1185103607594085 -0.062515252202475793 0.01211591801873149 -0.12420014353204104 0.13033556705815647 0.043437826771346853 -0.084573166347902032 0.090597688305744412 -0.049824047371348643 -0.034175415938064072 -0.014655072392429686 0.11607818620186165 0.092105764220890077 0.0031779780438247612 -0.10273724746601277 -0.014869233888027336 0.029909650058388474 0.03026767830507808 -0.080604252138565521 -0.083003150102081327 0.11115746684521423 -0.071287711634623177 -0.095220846803353992 -0.022814202447982965 -0.091468947506738368 -0.051275395543019242 -0.032386197958330747 -0.085215674025826152 -0.062742376334342875 -0.015485772173069373 0.080877121307305413 -0.10802147785085968 0.009108049719021705 0.094341724560784851 0.13080365691918325 0.12715925639547912 -0.009228613556618288 0.015822825979607432 -0.032801678928536554 0.034998640354212601 0.055773922421056193 -0.031043078279745145 0.091931225440921624 0.16231087659284216 0.25203383810558272 0.12764977688252271 0.011956000720418414 -0.044378000546606379 0.01352882899556951 -0.10061757675157951 0.18498074711308257 0.015527620611424977 -0.11558695083072557 0.14947353881290709 0.061472721899098713 0.086445418355663148 -0.067978209680678123 0.04203378980583139 -0.013554810043650911 0.21379037306598836 -0.15816676641354693 -0.039795100881503703 -0.13309115506521421 -0.048147327395965403 -0.083852663574768949 -0.014298240235918577 -0.09194786451296956 0.14235799996357598 0.068785358714518435 0.088169480071993392 -0.0056055519505203502 0.075457913570967483 -0.13252400590183602 -0.037678167798814624 0.10558687564662705 -0.051534648306146999 0.15131555680116679 0.048274564846357192 -0.12371415970764141 -0.10575414511287963 0.16133052823997712 -0.0011771182155197308 -0.011543170387948462 0.089732493643039354 -0.11647191676402636
leaf_weight=125105.42575836182 6109306.3172302246 112340.84017944336 1329585.4123382568 289458.9123840332 52160.883079528809 786883.80596923828 1233459.3843383789 125628.67230224609 208301.76760864258 114294.71075439453 3023705.9281005859 126434.23652648926 624920.88656616211 326168.28594970703 170716.92237854004 946820.04591369629 49716.30525970459 319159.82196807861 149364.41474914551 3387438.4408416748 310863.82077026367 210388.52255249023 198134.7590637207 127034.85033416748 1883275.6650390625 269018.25561523438 78755.545463562012 684372.31372070312 395865.77899169922 8114888.1427154541 214444.00177001953 86068.691268920898 422433.53747558594 87921.991943359375 253193.5126953125 944483.3902130127 211939.182762146 87154.672607421875 138676.52015686035 4120429.3515319824 107420.56265258789 2987521.4794082642 226223.03120422363 354156.75970458984 1324504.2420654297 62985.309432983398 611426.99591064453 105504.04026794434 156880.54536437988 272046.65325164795 687159.15888977051 273589.8277053833 44438.257385253906 333104.13754272461 220986.27284240723 3658331.2816848755 1908253.166595459 454983.03561401367 394740.4615020752 4085989.8942260742 397110.02538299561 301449.00756835938 1367283.3082122803 140806.78768920898 208986.12400817871 156887.08946228027 1841819.3369750977 784005.45509338379 1348750.9654541016 3167960.704536438 74375.626708984375 1551578.1802825928 171461.3450012207 951271.44940185547 142529.42543029785 80092.298583984375 878032.96405029297 78641.694458007812 1151265.3779754639 402054.2049331665 84127.409439086914 1417458.9879302979 1188913.5242156982 227082.80003356934 2863302.374786377 2556827.1150817871 532080.20022583008 71639.274932861328 3443685.3971405029 143606.04827880859 603308.72734832764 2856914.342376709 149014.7438659668 748203.6856918335 492941.90188598633 334728.08612060547 665210.94186401367 2199105.7144088745 150475.35108947754 71755.89501953125 3407757.2341003418 44012.294937133789 937196.18405151367 4246328.9668197632 134565.6318359375 754221.21956634521 120126.44705200195 1959046.5077133179 681837.97315979004 128296.54313659668 126104.18017578125 76906.711196899414 168021.03436279297 1073485.1170883179 52191.540328979492 810108.5648651123 1755263.0031204224 305452.59182739258 161729.9815826416 656001.42514801025 71159.20068359375 798715.75942993164 1207572.2124938965 114674.72331237793 124520.84016418457 747576.21085357666
leaf_count=1022 52976 486 7704 365 303 3718 8729 485 1156 488 1405 315 1232 1627 782 1380 126 1650 1272 19483 1319 1165 376 431 491 1350 665 1274 568 65990 1438 332 946 389 439 3551 1399 332 281 3124 326 21931 1246 1480 9801 151 2015 640 354 1520 3441 1302 115 838 1013 24730 8717 1656 1480 25286 2542 645 8287 845 959 990 10061 3826 8812 18320 273 3975 1096 3968 412 147 1678 292 4459 2061 309 4297 5940 585 4245 1543 1054 311 18474 656 4114 3538 607 5194 810 995 1647 12633 466 359 3194 340 4752 32788 721 4946 537 12919 1173 419 354 330 529 8057 271 1746 9468 525 439 4884 465 1201 5107 468 302 5335
internal_value=-8.73678e-05 0.144912 -0.0828163 0.198353 0.0279653 -0.0464059 -0.130557 0.141405 -0.0245941 -0.0339279 0.246756 0.0400304 0.0704871 -0.0435557 -0.0219452 0.147491 -0.0856368 -0.0975577 -0.109935 -0.0699936 -0.00630652 -0.0893906 0.153045 0.0459112 0.271424 -0.00530095 -0.0628577 0.163565 0.104776 -0.153223 -0.0714726 0.0845724 0.0577314 -0.0420507 0.149779 0.0112311 -0.101549 0.010704 0.0985294 0.223205 0.136345 -0.121455 -0.0104373 -0.0297714 -0.103085 9.12488e-05 0.0639762 -0.013137 0.100438 -0.0838758 -0.00520177 -0.0337149 -0.0172965 0.0679558 -0.0514791 -0.0950446 -0.00318474 0.000524537 0.00818832 -0.0738008 -0.0942937 0.128356 -0.0935548 -0.0355227 0.00204766 -0.0420287 -0.0570918 -0.0144541 -0.0909631 -0.0728035 0.0564804 0.0964362 -0.0631351 -0.00319578 0.0138807 0.130783 0.116644 0.0614274 0.0113772 -0.059029 -0.0308732 0.057604 -0.0211376 0.0672097 0.156517 0.26217 0.1099 0.0673516 -0.0415104 -0.0594311 -0.112069 0.181758 0.0540619 -0.0960518 0.136099 0.0307236 0.0655702 -0.0625408 0.0772422 -0.0228823 0.210842 -0.0670553 -0.0470355 -0.12707 -0.0122142 -0.101022 0.0100374 -0.083456 0.141935 0.0361843 0.0425521 0.0288445 0.0500042 -0.125414 0.0289148 0.0893527 -0.0465616 0.12316 0.114889 -0.14444 -0.0594663 0.147716 0.0065697 0.0347541 0.134231 -0.104862
internal_weight=1.1338e+08 4.11887e+07 7.21914e+07 2.82701e+07 1.29187e+07 4.09557e+07 3.12358e+07 1.29886e+07 2.12789e+07 1.85934e+07 1.52815e+07 2.68547e+06 8.10184e+06 4.81683e+06 1.50953e+07 1.25715e+07 3.49809e+06 3.07103e+06 1.63556e+07 1.96768e+07 8.49089e+06 5.29197e+06 1.15519e+07 4.71936e+06 7.46381e+06 2.03216e+06 1.43848e+07 7.08717e+06 3.38247e+06 1.48802e+07 2.78468e+06 1.01964e+06 3.51594e+06 6.60446e+06 4.03212e+06 2.0661e+06 3.02132e+06 1.59168e+06 907301 7.81765e+06 4.46471e+06 9.22153e+06 8.04349e+06 3.83258e+06 3.63185e+06 427054 3.23121e+06 284730 484450 1.73589e+06 6.65463e+06 3.61636e+06 1.58751e+06 447399 7.05211e+06 7.13403e+06 6.4284e+06 5.74124e+06 3.83299e+06 7.33271e+06 1.41673e+06 3.51789e+06 6.98466e+06 1.38887e+06 3.2519e+06 417081 2.05626e+06 1.35805e+06 2.30734e+06 7.25395e+06 231256 2.98661e+06 440480 1.27744e+06 1.89386e+06 3.41047e+06 1.50395e+06 158734 1.20343e+06 2.77188e+06 292429 2.80877e+06 1.54307e+06 314237 3.54767e+06 5.58053e+06 821232 134625 3.66467e+06 1.66012e+06 728414 3.05505e+06 291544 2.09695e+06 619376 1.27921e+06 2.08267e+06 2.60116e+06 289152 286521 3.69722e+06 1.3736e+06 1.078e+06 7.23385e+06 260194 1.98768e+06 574040 3.32633e+06 1.90652e+06 216219 581087 365054 244928 1.28542e+06 179226 2.36169e+06 2.02885e+06 1.34522e+06 1.03976e+06 8.77089e+06 142915 1.60507e+06 1.60231e+06 726102 806359 1.14469e+06
internal_count=543301 82135 461166 33544 48591 221714 239452 23422 103977 94588 10122 9389 22998 25593 72032 21226 22556 20629 115602 117737 37443 34496 18607 15477 3439 8958 83241 10499 7521 123850 16635 2619 10715 34589 6585 8264 20503 6512 2133 6683 8108 68394 36117 19113 24972 1927 9373 1342 1066 11047 29201 18305 7535 1326 38970 47208 27955 24514 15797 44271 9397 6728 45936 6916 13787 2196 11499 6181 15171 43606 627 6953 2446 5595 7606 6402 3081 439 4762 15476 1465 8427 7420 917 5519 2948 1801 462 19487 9524 5136 3914 1019 14006 1125 4546 5944 14694 747 1480 3559 8044 5597 54719 1206 13675 2355 21206 3321 808 2010 1396 859 9456 702 5721 10770 2642 2117 70874 824 2676 6587 2483 1475 7877
cat_boundaries=0 6 12 13 17 48 81 82 83 115 120 123 156 162 189 220 225 257 261 293 322 326 358 361 362 395 428 429 459 489 490 521 553 585 614 647 677 710 739 769 802 833 864 865 893 925 954 986 1008 1012 1038 1069 1073 1102 1105 1135 1154 1187 1188 1189 1221 1252
cat_threshold=536893536 1611153522 4 4 8388612 64 393344 1048576 134217728 243275339 128 2 2 1181222036 805333008 524288 32784 0 0 33554560 0 512 0 0 0 0 8 67108864 4096 0 1048576 1048580 117456912 1 0 8193 1 33562624 268435456 8388608 537206784 0 65536 4100 67108864 0 134217728 67108864 0 0 2147483648 536870912 0 167903232 4096 0 0 0 0 0 294912 1835008 272629764 16 268468224 16 4096 134217856 1048576 536871440 0 262144 0 0 0 67108864 2147483648 16777216 0 135266304 8 2 2 32772 1073741824 0 65536 0 67108865 2147483648 4194304 0 0 0 1048576 1638400 0 0 2147483649 4096 0 64 0 8 2 2 8192 0 8388608 16785408 524289 0 2 0 8195 1403388560 4595724 2348810240 648024778 64 1432880277 268466194 2686978 2 150994944 2 0 0 0 0 4 0 6291456 192 0 1048576 524288 2097152 512 65664 2151677954 4210688 16 2048 536871168 131072 512 4096 134225920 0 0 0 1107296256 0 0 8 1153961776 952136213 2621968 8 0 4 0 0 0 0 0 0 0 0 0 0 0 0 0 1048576 1048580 16777216 0 0 0 1 0 0 0 536870912 0 0 4 268435456 0 2147483648 0 8388608 0 268435456 1 536870912 0 64 0 1081344 134217728 2097280 2151677952 1048576 32 262144 1073741824 2147483648 536870912 1024 128 0 2147483648 0 1207959552 266752 1073745922 16 1088750464 4456588 203554816 645930059 128 32784 1073741824 2147483648 128 0 1 0 4194304 0 0 134217728 0 16842752 2149580800 128 2147483648 4096 1073741824 67108864 1073741952 8 64 3 8194 0 0 20971520 589824 16 2 0 8192 1162383156 2025873941 1114384 65608 67108864 1 33554560 0 4194816 0 4096 0 262144 4194304 0 256 32896 67108864 67108864 67109376 0 1140850704 16384 134218752 2147483648 134217744 0 0 0 33556480 268435456 512 0 0 0 2148532224 0 0 134217728 0 0 2097152 0 0 0 0 0 0 0 0 576 8 0 4 0 0 0 0 0 0 0 268435488 0 0 2097152 14713616 262156 2164260864 268435456 0 256 536870912 0 0 536870912 0 134217728 0 0 67108992 0 0 0 524292 17449536 0 4194560 8388608 16 0 128 1024 0 0 135267720 268453888 0 1024 4096 0 64 16777769 512 2 4096 18 134250624 33554432 25165824 0 0 268435456 0 131072 0 1048576 32 262144 1048576 0 0 4194304 134217728 4 132096 2147491840 4194304 66112 2097152 0 4194304 0 83886080 4096 0 0 524288 8 8192 32 512 16 1024 0 1073742912 0 268435456 0 4194368 0 8388608 2147483648 64 67174400 1081346 0 4734976 1077936128 0 0 4112 16777218 536870912 16 128 0 0 0 0 0 2048 4096 0 0 33554432 4 0 0 352321536 128 33554432 2097156 134217728 2097153 8192 134217984 0 67108872 2 1077938464 0 0 8320 0 4 32768 0 0 0 0 2097152 402653184 145 33570816 134217858 132 0 0 0 1 0 0 167772160 1 0 32768 160 553648192 130 536870912 0 0 0 336 4 1073872896 0 0 8 0 4096 2048 25 0 2147483648 0 2 268435456 0 16777216 0 0 0 64 256 262656 32768 5242880 0 32768 0 0 131072 8192 2147484160 131088 8192 0 0 2097152 16793600 4097 0 64 0 2147483649 2147483648 0 512 0 16777216 1 0 0 8 256 0 34078720 8388608 536870912 268567040 1073741856 0 2162688 34603136 536870913 33554432 33554432 0 65536 0 0 2105344 1048576 536870912 1048576 0 0 536870912 0 0 131072 16384 4 0 16777216 134217728 0 2097152 0 67641344 0 1073741824 134217984 4194304 134546432 12582920 64 65536 139264 4096 1048576 0 0 262144 1048576 0 2048 0 0 0 0 0 0 285212672 0 0 0 0 0 0 0 67108864 536870912 0 1073741824 0 134217728 0 0 0 0 0 0 0 0 262144 0 0 128 0 268435456 536870914 0 8388608 0 4194304 0 0 0 524288 0 0 66560 256 0 65536 1073743872 536870928 1073741824 8192 0 33554688 16777216 67108864 0 0 0 16 64 2 0 33554432 0 1024 65536 0 128 0 0 64 0 0 0 67108896 0 262656 0 0 0 8320 2147483648 16 0 0 33554432 0 0 196608 150994944 0 128 167772160 0 4194304 65536 1 68 134217728 6291456 134217728 4096 0 0 8388640 33554432 327680 32 0 4194304 1073741824 8389120 16 0 0 526336 524288 0 8192 0 0 134217728 8 2 0 134217728 0 4194304 536870912 16777220 0 0 2097216 134225928 2097152 0 524546 67633152 512 131074 0 0 16384 0 16 516 0 0 33559552 128 65536 2097152 0 0 0 16 0 0 0 0 0 0 0 0 0 0 0 0 128 2147483648 0 0 0 0 0 0 16 0 0 0 8192 256 0 33554977 0 128 0 65538 0 16777344 0 0 0 0 262144 134217728 64 268435457 537927680 67108864 1 0 8192 1 4 32768 0 32768 8388608 65537 0 8 0 34 2048 32768 67108864 134217728 8192 0 134217728 268435968 0 0 0 0 0 1048576 0 0 570425344 0 268435456 0 1114112 1073741824 1 3 0 4096 134217984 32 16777216 8200 1108344864 64 67108864 1 0 4 0 0 1073742848 0 0 0 8192 0 134217728 524288 75497536 100663296 67403778 4 409600 4194304 1107296256 2 0 0 0 0 16 0 4194304 0 1073741824 160 134217728 0 0 0 0 0 262144 0 524288 0 33554432 256 0 0 0 131072 0 1073741856 131072 0 0 16 1073774592 0 0 33554432 0 16777216 2 3221225472 134217728 0 0 536870913 16777216 0 0 0 0 0 8388608 524288 0 537395200 65536 0 0 0 33554432 0 0 0 0 0 0 2164260864 0 0 0 262144 0 0 0 0 0 33554432 0 0 0 0 0 0 0 0 0 0 0 16 0 0 0 528 0 0 0 0 0 0 2147483648 0 128 4 0 8388608 34275368 0 0 0 0 0 8388608 360448 2097152 2097156 33571073 4194304 17 0 32768 2097184 0 16 0 0 128 2147483680 0 0 536870912 0 67108864 67108864 0 0 0 0 0 0 0 0 2097152 0 0 0 524290 0 536870912 262144 32 0 0 1073741824 16 0 0 134217728 4232 0 0 0 0 0 0 16777216 64 0 8 0 0 0 0 67108864 536870912 0 0 0 0 0 0 0 0 0 33554432 8 0 512 0 71303168 64 0 0 0 0 67108864 256 0 256 335544320 8 4194816 4096 8929284 1076232224 34603008 0 4608 16418 0 0 0 0 32768 0 8192 1145588884 952138257 1077150484 98304 258 0 0 0 0 131072 0 0 0 0 64 0 134217728 16640 0 0 0 0 0 2097152 0 536870928 0 0 0 0 0 0 1 1164444821 536893442 589826 256 1048576 0 0 0 0 16777728 128 0 2097152 134217792 0 134217728 2 67109472 0 2 3221225472 33554432 0 2147502080 4194304 0 33554434 0 33595392 8 0 32768 1342177280 2 0 33554432 0 0 0 1024 0 0 0 0 0 0 0 0 0 65536 0 4 67108864 1 0 0 2147483648 0 1073742848 0 0 4194304 8192 0 143655040 32768 32 570427648 1048576 2147483648 536870912 6291488 1107296256 134217728 0 0 0 0 16 0 9216 33554432 0 2147483648 8 2 9112 268435712 512 128 0 8389120 134348800 65536 536870913 0 0 167772160 4096 0 256 32768 35651584 65552 16 0 136314880 1 20 0 128 0 32768 0 0 1 0 0 2147483648 67108866 0 536870912 0 0 0 0 134217732 262144 0 0 0 134217728 2147483648 512 33554688 0 2147483648 0 0 18432 0 66064 512 4096 33589248 24 1 267265 1073741824 67108864
is_linear=0
shrinkage=0.118


Tree=4
num_leaves=127
num_cat=60
split_feature=4 21 24 24 24 24 24 31 21 4 6 24 7 31 7 15 21 7 63 6 6 24 63 21 31 4 63 15 21 63 31 15 24 36 63 63 24 13 63 37 69 24 63 24 13 32 63 4 15 24 63 31 12 12 24 12 31 63 37 31 63 65 4 31 63 63 31 63 63 36 63 24 63 63 63 63 65 15 63 36 31 31 36 15 63 24 15 31 31 38 63 13 31 49 63 24 24 21 32 63 63 13 32 63 63 24 10 31 15 63 31 38 4 63 13 4 63 63 59 20 63 63 15 31 26 63
split_gain=7.81256e+07 1.57781e+07 8.12004e+06 5.94991e+06 1.4161e+06 916244 873854 780822 744147 590575 742517 379320 318013 320365 312347 310283 267270 212511 207734 198133 173177 161126 160374 143765 143432 139506 135577 131804 124303 123753 119243 112312 108749 101905 93243.1 92111 87977.7 84936 128950 77156.5 69213 64651.9 70196.6 61533.2 58149.9 58083.3 57212.9 56055.6 56021.7 54109.5 54888.1 55653.1 53810 50753.8 50164.8 47919.1 47282.4 47211.9 46562.6 45967 44157.2 43906.6 43582.9 61091.4 43581.8 42606.4 41396.7 40716 39212.9 39133.1 39033.2 38493.2 37958.4 37261.1 36175.5 35981.3 42001.6 50408.9 35023.6 33579.3 33324 32768.3 32550 32206.9 31974.6 31676.2 31552.8 30998 30700.3 30575.5 34836.8 30052.8 30044.1 29504.3 28400.9 28239.2 28157.9 27848 27680.1 27616.2 26708.8 26572.3 27561.4 26221.2 26167.1 26139.8 25824.3 25640.1 25389.3 25273.1 24922.9 24869.9 26547.7 23300.7 23226.6 24322.6 23209.3 23005.1 22470.6 22408.6 22079.9 22077.8 22010.6 21584.6 21259.4 20584.6
threshold=0 1.0000000180025095e-35 1318.5880753968256 5194.72065248749 2520.4076168224306 13543.770372340428 570.76409701492548 1560.3763954635199 104992.34500000002 1 2 19205.130833333336 1.0000000180025095e-35 5244.7205887147866 46.500000000000007 3 59968.500000000007 14.500000000000002 4 5 6 846.39048245614049 7 71108.360000000015 3208.8737037250335 8 9 10 194732.59000000005 11 8322.1835072156227 12 251.66914285714287 2382.6885773187259 13 14 3676.0647459421316 10377.716512650853 15 3843.0876630098137 11.500000000000002 21643.427019621926 16 2150.6140625000003 11899.467685309102 1975099.9150000003 17 18 19 3757.0650340909092 20 6806.1617176785103 21 22 5194.72065248749 23 5244.7205887147866 24 2864.0963474918508 1030.9292792239446 25 6.5000000000000009 26 5244.7205887147866 27 28 694.07141616345473 29 30 3786.7857568768791 31 19205.130833333336 32 33 34 35 7.5000000000000009 36 37 3749.4316892415131 28669.730951488891 15089.832094083193 10188.444572873736 38 39 2005.5205284552849 40 1433.9134288248197 3851.9814896780422 1912.0020938106447 41 14623.301909703083 2436.9785247020441 1554.6350000000002 42 7412.0739421023309 5657.6343684287394 59684.635000000009 31117.685000000005 43 44 3266.8513675818103 505302.75000000006 45 46 9510.1397342756336 47 1481.1842511646698 48 49 1382.2615935726751 9555.1219302571462 50 51 1909.7365793508245 52 53 54 5602.3339092012766 55 56 57 58 488.1942862584952 31.500000000000004 59
decision_type=9 2 2 2 2 2 2 2 2 9 1 2 10 2 8 9 2 8 9 1 1 2 9 2 2 9 9 9 2 9 2 9 2 8 9 9 2 2 9 8 8 2 9 2 2 2 9 9 9 2 9 2 9 9 2 9 2 9 8 2 9 2 9 2 9 9 2 9 9 10 9 2 9 9 9 9 2 9 9 10 2 2 10 9 9 2 9 2 2 10 9 2 2 10 9 2 2 2 2 9 9 2 2 9 9 2 9 2 9 9 2 10 9 9 2 9 9 9 2 9 9 9 9 2 2 9
left_child=1 3 6 7 19 12 32 21 23 11 16 36 45 105 18 22 27 24 41 25 47 98 54 97 78 87 69 34 100 -15 116 59 -2 64 -11 -26 101 40 44 91 68 -7 -43 60 93 122 -19 123 -27 -42 124 95 -17 -33 -12 -22 -37 -36 -32 -21 -23 92 -38 96 -24 -54 -57 -53 -35 -20 -61 84 -29 -63 -50 -60 77 -77 -9 -56 120 -16 117 -49 -41 -55 106 110 -70 -67 -91 118 121 -39 -68 -52 -64 -3 -1 -97 -10 102 -6 -72 -66 -14 -75 -76 -94 -47 -4 112 -86 -90 115 -92 -31 -46 -28 -113 -73 -59 -5 -8 -51 -25
right_child=2 8 4 5 9 14 20 17 28 10 15 -13 13 29 81 52 -18 46 26 31 55 43 33 125 35 48 39 72 -30 30 58 53 -34 37 57 56 62 38 -40 71 49 42 -44 -45 82 109 -48 83 74 50 51 67 65 85 79 66 -58 61 75 70 -62 73 63 -65 104 89 94 -69 88 -71 103 80 -74 86 107 76 -78 -79 -80 -81 -82 -83 -84 -85 111 -87 -88 -89 113 90 114 -93 108 -95 -96 99 -98 -99 -100 -101 -102 -103 -104 -105 -106 -107 -108 -109 -110 -111 -112 119 -114 -115 -116 -117 -118 -119 -120 -121 -122 -123 -124 -125 -126 -127
leaf_value=-0.16673845405654822 -0.16515157050776186 0.18325045091407346 -0.06125180496031362 0.048941401811286055 -0.03122068657567266 0.096630203476221629 -0.10989966297217853 -0.031165120619971117 0.23214286507043272 -0.0010875872095074319 -0.0010070985320195618 0.12802046321400637 0.044513888781286613 0.0020224797471947954 0.063671997421803822 -0.16342094343183039 0.15171419883855711 -0.01522263918872308 0.1169374746451747 -0.057886500527620434 -0.16160430412396981 -0.13788157165661602 0.0014454198153222085 0.22935954589596516 -0.028131459733568221 -0.1208846014742718 0.014903792576171306 -0.063555497356638527 0.28708047810292192 0.10535244166153604 0.046693978436459671 -0.16310369001366504 -0.14231796314818354 0.028186476189918975 -0.14201692802841911 0.056076018339951419 0.054335582336054913 0.16895763324874563 -0.020993434660778212 0.14029871389211526 -0.020753287928439838 -0.085144642554422709 0.085813749921653096 -0.027104523972315036 -0.063138462629324474 -0.022129654032722098 -0.091001203385505866 -0.11451089772033117 -0.041852797311861409 0.032112953269006747 0.0062201826250018796 -0.0041900387590888231 0.022518510404899647 -0.075323683611656603 0.0076348947209167739 -0.096445867604654886 0.1069659214636763 -0.021803312871384269 0.14418047770758877 0.0020290840692807305 -0.056989331088654997 0.053126638724221895 0.0034855474755614477 -0.093620150985723488 -0.095245891856508114 -0.070763124468120067 -0.030533476063115142 -0.048319075500697556 -0.020981168692028332 0.16675917207773075 -0.091285782337832216 0.12702927110517825 -0.12412861620089283 -0.17697059528509657 -0.085877426898199882 0.1256040444852633 0.12044879306631219 -0.0042408298269339508 0.016051681144134612 0.095752665916300869 0.089825168878560888 -0.055099515207179678 0.09140785355233462 -0.13076757891530025 0.055560645669010686 -0.058814841541994137 -0.014845727209564325 -0.014436877578952852 -0.015948187564942328 -0.074593444888816807 -0.005897031405859867 0.11502431102142541 -0.039271073496875315 0.077114846785559146 -0.079544796386826919 0.099583933356604065 0.042748400824275133 0.20106464961332024 -0.1035015515661289 0.010343043816288592 0.254601602570937 -0.011229600353990283 -0.12858095309469675 -0.03974333777601638 -0.041381157678415978 0.069690553745950776 -0.064920591789767626 -0.11205750997776796 -0.10102185411849392 -0.10942686298055219 -0.15070998127030549 0.084634827028919876 0.10903309128188415 -0.057602138051631606 -0.031537780276886876 -0.057644376181183149 0.079530468348130129 0.029626642314166684 0.087860291706033031 0.13852647502108345 0.14995481508328917 -0.079129951579952298 -0.037671915257998928 -0.083102170382886503 0.1018070815095774 0.21267067786454941
leaf_weight=132065.27645874023 4560092.3157501221 2450946.1839447021 1326581.7525482178 125508.12464904785 137070.55072021484 924560.32757568359 1091145.3363723755 260783.66435241699 990014.75170898438 253468.4927520752 168370.85546875 419280.9034576416 1924084.9000091553 169716.83058166504 43161.135498046875 55186.915679931641 67141.128814697266 350293.82884979248 240349.28945922852 3863277.1181945801 132903.72175598145 99528.626197814941 325329.82124328613 2321132.5219726562 149941.87521362305 1188426.0396499634 104252.14114379883 165768.61081695557 1707133.859375 646789.69486999512 112765.63795471191 82095.145698547363 7998411.5833511353 157086.71086120605 144845.11492156982 962952.26657104492 466877.86296081543 84270.627166748047 444286.95547485352 882208.33599853516 2054038.1958618164 60541.426834106445 74688.582077026367 1219340.4893951416 50484.734222412109 80612.14338684082 229700.87506866455 3180512.8899688721 200624.9835357666 251315.67492675781 1784446.5516357422 760257.06209564209 122231.64241027832 4836448.2344589233 76462.885894775391 3855925.0832061768 345398.61334228516 161686.26334381104 852715.40213012695 303531.25476074219 1680772.8018264771 52627.149421691895 659716.92398071289 72051.07682800293 136378.66748046875 698061.98961639404 187054.57180023193 471785.42402648926 1360577.3876037598 2533029.2407989502 146312.91483306885 749994.88813781738 1103321.8427352905 33690.850578308105 1680955.8595275879 80439.681610107422 1715833.5843963623 86287.081481933594 1356582.9524230957 283386.84365844727 159912.7678527832 129053.24908447266 89490.364883422852 3642928.1104660034 171628.21237182617 2432135.5969924927 174514.34738922119 199890.87138366699 243987.38317871094 450637.26013183594 142209.74363708496 242100.53826904297 104340.56810760498 115395.60760498047 1375714.9958190918 93904.522796630859 413894.84034729004 2436645.1743469238 356701.92567443848 99394.748077392578 2926707.6906738281 780009.81466674805 57456.218978881836 2265369.2158660889 1586455.0786972046 818468.04235839844 191165.86614227295 754773.77281188965 834918.01808929443 108144.76921844482 44828.712844848633 134571.08145141602 524898.99279785156 800830.05233764648 1970797.6210861206 1143914.0857543945 1937096.6734619141 141621.58741760254 134778.15269470215 535345.94808959961 2674756.6591186523 222023.12991333008 60558.643264770508 678947.41094207764 80452.200820922852 1860239.7803649902
leaf_count=1216 43983 2550 8090 440 719 1956 8378 1281 625 1192 699 710 5997 645 142 447 154 1634 447 23030 1243 802 1433 1535 646 9517 321 1037 479 1322 339 773 71140 590 1170 2780 1441 147 2102 1344 9939 306 167 5984 257 406 1500 25215 1187 916 7421 3344 501 31317 317 27506 729 860 1283 1449 9931 216 2654 386 865 4173 1085 2535 6587 3118 919 1243 8812 286 11773 136 3031 287 5279 667 332 731 259 30627 443 14529 909 1028 1165 2758 686 452 587 332 9197 254 1354 2135 2729 416 1419 3686 380 12399 8380 2097 1219 5655 6018 735 376 284 995 4412 10313 6680 4551 527 291 849 3772 1455 319 4779 212 1467
internal_value=-0.000283349 0.128919 -0.0770592 0.0740003 -0.0447645 0.108458 -0.127955 -0.0178278 0.226785 -0.0248185 -0.0322342 0.0239046 0.0802952 0.0850715 0.132251 -0.0215998 -0.0814533 0.0202802 0.134926 -0.0682545 -0.107842 -0.0577629 -0.0113749 0.205873 0.0326349 -0.087451 0.140691 -0.0860011 0.260508 0.10125 0.10435 -0.0608179 -0.150609 -0.0143895 -0.0683555 0.0594709 0.00703094 -0.00902849 0.0248475 0.131138 -0.0128718 0.0854831 0.00927703 -0.047526 0.0671655 -0.0260333 -0.0452358 -0.118336 -0.099612 -0.00551668 0.00332028 -0.00140263 -0.0476133 -0.0708419 0.0521539 -0.0915972 0.0695102 -0.0772367 0.121003 -0.0496172 -0.0615128 -0.0719496 0.0239473 0.011563 -0.0381659 -0.0462014 -0.0898797 -0.0210888 -0.0289329 0.162441 -0.0378515 0.134885 -0.116217 -0.0401989 -0.0900222 0.124066 0.114954 0.058412 0.00843836 0.0770289 0.142477 -0.0253324 0.0326283 -0.12319 0.122782 -0.0697996 -0.0524969 -0.0578482 -0.0326631 -0.0481081 -0.0438427 0.0857207 -0.0827979 0.115878 -0.0736791 0.0108609 0.018622 0.192131 -0.120588 0.0537019 0.248926 -0.0209601 -0.0599775 -0.0428707 -0.0456456 0.0520274 -0.0817165 -0.0939896 -0.0941636 -0.072152 -0.064176 0.111471 0.0958596 -0.0478758 -0.0395876 -0.051923 0.0859949 0.00524659 0.0560406 0.127704 0.144935 -0.0549765 0.0207522 -0.0996205 0.049012 0.221936
internal_weight=1.09664e+08 4.08757e+07 6.87878e+07 2.61829e+07 4.20842e+07 1.90389e+07 2.67036e+07 7.14406e+06 1.46928e+07 2.27589e+07 1.97526e+07 3.00636e+06 8.71902e+06 8.3442e+06 1.03198e+07 1.6243e+07 3.50951e+06 3.65565e+06 1.01476e+07 1.93253e+07 1.41451e+07 3.48841e+06 1.166e+07 9.06896e+06 3.07566e+06 5.39608e+06 9.08783e+06 3.44237e+06 5.62386e+06 5.60164e+06 5.43193e+06 1.39292e+07 1.25585e+07 1.11318e+07 2.17328e+06 1.45829e+06 2.58708e+06 9.08363e+06 925550 6.31445e+06 8.15808e+06 1.05979e+06 135230 2.99964e+06 481263 374824 579995 8.59353e+06 3.82478e+06 5.59559e+06 3.54156e+06 3.20979e+06 4.58304e+06 7.35068e+06 528221 5.5516e+06 1.30835e+06 1.91981e+06 2.84804e+06 6.57849e+06 1.7803e+06 1.77497e+06 1.61254e+06 1.14566e+06 2.04816e+06 4.52785e+06 5.41869e+06 1.23204e+06 2.56248e+06 2.77338e+06 2.71521e+06 5.83332e+06 1.26909e+06 451998 2.63635e+06 2.73528e+06 1.88256e+06 166727 1.61737e+06 359850 3.58466e+06 172214 281597 6.82344e+06 2.24865e+06 7.26858e+06 399371 1.5713e+06 2.40539e+06 4.40562e+06 3.70756e+06 481131 1.32297e+06 199666 1.56277e+06 1.97775e+06 1.07361e+06 4.88759e+06 488767 193299 3.91672e+06 974537 194527 2.41168e+06 1.72283e+06 2.74255e+06 224857 2.43573e+06 939259 188757 1.37141e+06 1.36644e+06 696527 1.04482e+06 3.25692e+06 1.28612e+06 2.58389e+06 192106 239030 669917 3.42475e+06 383709 186067 1.77009e+06 331768 4.18137e+06
internal_count=543276 83502 459774 73292 236621 38781 223153 34511 10210 114579 103249 11330 21588 19688 17193 79334 23915 13849 16320 122042 108030 20662 53776 7687 10715 37626 13891 23761 2523 11594 10949 84416 115123 52093 13912 4155 10620 41415 3624 10326 37791 2429 473 16717 1522 1900 3134 68999 28132 25037 15098 13970 25558 46619 1683 39031 3509 12720 5076 37797 10733 11550 5835 4394 10678 25111 37788 5879 12754 3565 14767 9262 9849 2630 18615 4737 3454 423 6560 984 5347 873 1043 55842 3915 45846 2414 9494 12164 24610 20437 1064 8920 479 10282 8091 4008 4685 3945 670 2044 4785 1099 13318 9245 8094 1505 17428 6605 1141 8466 2571 1438 5577 17679 7366 5873 784 612 1133 5015 2315 759 13157 1128 3002
cat_boundaries=0 6 12 13 17 49 50 51 83 88 121 127 156 160 192 222 254 283 312 317 320 353 354 355 356 385 418 422 453 486 519 551 580 610 639 671 702 703 735 739 772 774 806 839 861 890 923 954 956 959 988 989 1019 1021 1054 1069 1070 1101 1134 1135 1165
