tree
version=v4
num_class=1
num_tree_per_iteration=1
label_index=0
max_feature_idx=19
objective=regression
feature_names=claims_per_member claims_per_member_per_month claims_per_month cost_per_member policy_active_days policy_active_months policy_active_years policy_avg_claim policy_avg_days policy_claim_count policy_disease_diversity policy_fee_diversity policy_hosp_diversity policy_large_claim_ratio policy_max_claim policy_max_days policy_median_claim policy_member_count policy_p95_claim policy_std_claim
feature_infos=[1:264.375] [0.69999999999999996:62.333333333333336] [1:17821.5] [116.62:15499003.352500001] [0:563] [0:18] [0:1.5414099931553731] [65.839999999999989:104156.66691489362] [1:56.493554327808468] [0:670] [0:214] [0:20] [0:12] [0:0.76470588235294112] [76.459999999999994:1506167.6100000001] [1:730] [0:43361.050000000003] [0:142] [76.459999999999994:319179.88] [0:129039.33433257317]
tree_sizes=1391 1365 1451 1613 1525 1697 1528 1442 1448 1693 1539 1702 1615 1535 1700 1616 1623 1695 1707 1793

Tree=0
num_leaves=16
num_cat=0
split_feature=7 19 0 0 7 6 18 16 19 0 7 14 0 8 8
split_gain=310117 45841.5 13325.2 7230.3 5995.34 4260.44 3183.66 1809.41 1012.91 742.521 647.592 432.322 398.791 248.983 91.1757
threshold=14095.062288606146 7673.2297911902751 63.225000000000009 64.306818181818201 9270.3909312803171 1.2046543463381247 9947.7300000000014 1596.5500000000002 4023.110022208773 50.62718531468532 1955.1830621299162 18381.845000000005 33.06666666666667 1.5500000000000003 3.3996521523075969
decision_type=2 10 2 2 2 2 2 2 10 2 2 2 2 10 10
left_child=1 3 5 8 7 9 10 -4 12 -3 -5 -10 -1 -12 -14
right_child=-2 2 4 6 -6 -7 -8 -9 11 -11 13 -13 14 -15 -16
leaf_value=15.11587086749908 21.157919272965579 15.50354297181725 16.734307226930142 15.383816505548417 17.452426527037304 16.469600690043904 16.081362787333152 16.146939243676041 15.623618321674781 15.873691310921844 15.507498025278046 15.327463480744839 15.232396830404358 15.73140442026599 15.396319838688852
leaf_weight=139 25 36 31 46 23 20 33 25 21 21 20 39 125 34 24
leaf_count=139 25 36 31 46 23 20 33 25 21 21 20 39 125 34 24
internal_value=15.8052 15.5871 16.3297 15.3457 16.7816 15.8597 15.661 16.4823 15.2261 15.6384 15.5211 15.426 15.186 15.644 15.2557
internal_weight=662 637 156 481 79 77 133 56 348 57 100 60 288 54 149
internal_count=662 637 156 481 79 77 133 56 348 57 100 60 288 54 149
is_linear=0
shrinkage=1


Tree=1
num_leaves=15
num_cat=0
split_feature=3 3 3 3 15 4 8 3 16 8 3 2 16 4
split_gain=349025 52899.7 14105.1 5279.95 2819.01 1512.59 1279.37 1088.84 1001.31 828.567 694.402 688.721 115.315 8.75952
threshold=1803873.5760000004 283556.14660459914 793422.9225000001 147421.8134469697 10.500000000000002 401.50000000000006 5.7948846660599171 216684.38821290326 1779.1400000000001 1.5500000000000003 67824.020277777789 83.868055555555571 1538.7800000000002 435.50000000000006
decision_type=2 2 2 2 10 2 10 2 2 10 2 2 2 2
left_child=1 3 4 10 9 -4 -6 12 -9 -3 -1 -11 -5 -12
right_child=-2 2 5 7 6 -7 -8 8 -10 11 13 -13 -14 -15
leaf_value=-0.67791621165805394 6.3156403187343058 -0.17382997875628267 0.94649146123365924 -0.27788743218613998 0.29988939862251285 1.6629679632186889 0.84228289715621774 0.10649831745554419 -0.28686929685454216 0.33662478091631898 -0.54312000103233282 -0.0092969832296862648 -0.42384637718850915 -0.44639322109000629
leaf_weight=179 20 22 21 35 24 20 22 33 30 31 120 26 43 42
leaf_count=179 20 22 21 35 24 20 22 33 30 31 120 26 43 42
internal_value=-0.0285446 -0.23379 0.533819 -0.498722 0.265021 1.32738 0.571803 -0.238945 -0.082297 0.0814111 -0.605109 0.18131 -0.362762 -0.520966
internal_weight=668 648 166 482 125 41 46 141 63 79 341 57 78 162
internal_count=668 648 166 482 125 41 46 141 63 79 341 57 78 162
is_linear=0
shrinkage=0.05


Tree=2
num_leaves=16
num_cat=0
split_feature=3 3 3 8 4 3 8 3 3 9 8 8 0 17 15
split_gain=314750 50296.3 12715.8 7361.82 5755.37 3605.84 853.923 682.227 581.423 396.675 315.451 211.721 185.49 112.087 34.1797
threshold=1579841.5394444447 260375.72406645573 793422.9225000001 3.8752437325905298 505.00000000000006 132444.43375000005 5.6993579897550761 216684.38821290326 57963.420416666668 288.50000000000006 2.6271439968089356 2.7250917035278892 52.994047619047628 7.5000000000000009 4.5000000000000009
decision_type=2 2 2 10 2 2 10 2 2 2 10 10 2 2 10
left_child=1 5 3 9 6 8 -5 12 -1 -3 -11 -9 -7 -14 -10
right_child=-2 2 -4 4 -6 7 -8 11 14 10 -12 -13 13 -15 -16
leaf_value=-0.65890775362650567 5.6314936715364468 -0.20061553518686981 1.3244706104655526 0.094589756889776749 1.3288945340161975 -0.42523505144930901 0.52213757462799548 -0.21366725366562608 -0.52607361382053752 -0.10164402517179648 0.14353011281582817 0.010176903063600716 -0.34683047268982048 -0.19116819710567082 -0.4081874534391588
leaf_weight=152 23 27 36 21 21 46 27 20 123 23 28 21 29 28 30
leaf_count=152 23 27 36 21 21 46 27 20 123 23 28 21 29 28 30
internal_value=0.0111138 -0.201991 0.494878 0.284103 0.656379 -0.486495 0.340935 -0.277296 -0.584019 -0.0492952 0.0330369 -0.101384 -0.345623 -0.275065 -0.505792
internal_weight=655 632 183 147 69 449 48 144 305 78 51 41 103 57 153
internal_count=655 632 183 147 69 449 48 144 305 78 51 41 103 57 153
is_linear=0
shrinkage=0.05


Tree=3
num_leaves=18
num_cat=0
split_feature=3 3 3 15 3 1 3 3 3 9 17 15 17 9 7 3 6
split_gain=211681 40063.8 7543.59 5153.03 3238.08 2180.19 1254.17 728.566 568.602 562.767 640.745 198.175 156.466 39.2121 30.4717 23.1694 16.415
threshold=1295923.8582142859 260375.72406645573 793422.9225000001 7.5000000000000009 147421.8134469697 4.5094474153297694 398491.30022727285 216684.38821290326 40716.057034698271 288.50000000000006 15.500000000000002 6.5000000000000009 37.500000000000007 302.50000000000006 3006.3489751402599 94489.795526315793 1.1923340177960304
decision_type=2 2 2 10 2 2 2 2 2 2 2 8 2 2 2 2 2
left_child=1 4 3 9 8 -5 -7 13 -1 -3 -11 -9 15 -6 -15 -10 -17
right_child=-2 2 -4 5 7 6 -8 11 12 10 -12 -13 -14 14 -16 16 -18
leaf_value=-0.64032727464899297 4.3090303741561042 -0.20274530706983629 1.0266695483678425 0.96067097788507283 -0.38487967272062562 0.06084965231301992 0.55460481368005277 -0.17059900567999908 -0.53589750450269313 0.26301297212188895 -0.11102718635927887 0.033855236449411942 -0.32064423311324353 -0.21574692934751513 -0.32773511373996739 -0.48114134740241821 -0.35858560616319834
leaf_weight=110 26 32 38 21 36 22 31 27 112 21 23 20 20 21 29 70 21
leaf_count=110 26 32 38 21 36 22 31 27 112 21 23 20 20 21 29 70 21
internal_value=-0.0296908 -0.208501 0.406152 0.243164 -0.456822 0.537222 0.354665 -0.245484 -0.540228 -0.0463502 0.0692585 -0.0846003 -0.488191 -0.331368 -0.285951 -0.503021 -0.457119
internal_weight=680 654 188 150 466 74 53 133 333 76 44 47 223 86 50 203 91
internal_count=680 654 188 150 466 74 53 133 333 76 44 47 223 86 50 203 91
is_linear=0
shrinkage=0.05


Tree=4
num_leaves=17
num_cat=0
split_feature=3 3 8 3 3 19 3 0 17 9 4 4 9 3 4 4
split_gain=212166 39188.1 6888.28 4427.61 3631.53 3607.88 790.983 689.882 628.048 298.542 296.143 185.786 160.236 149.729 122.221 2.62352
threshold=1295923.8582142859 283556.14660459914 5.0934403803755952 692909.80050000013 182754.37489285716 16291.753455265187 94489.795526315793 68.416666666666671 54.500000000000007 428.50000000000006 485.50000000000006 330.00000000000006 431.50000000000006 37978.663041666674 415.50000000000006 448.50000000000006
decision_type=2 2 10 2 2 10 2 2 2 2 2 2 2 2 2 2
left_child=1 4 3 7 6 9 13 -3 11 -4 -9 -6 15 -1 -13 -8
right_child=-2 2 5 -5 8 -7 12 10 -10 -11 -12 14 -14 -15 -16 -17
leaf_value=-0.611822882542568 4.405479902304136 -0.1154294315744669 0.3798912136895316 0.83726461778987538 -0.33092821551141921 1.3539664264023303 -0.44810551374189322 0.059190205040077375 0.08850756591274625 0.69585180941082181 0.30865388809215455 -0.082235440228666579 -0.27852788955934588 -0.50425271246168346 -0.2364683291103159 -0.35176179601086516
leaf_weight=112 25 38 20 21 26 23 92 29 20 20 20 27 30 125 27 26
leaf_count=112 25 38 20 21 26 23 92 29 20 20 20 27 30 125 27 26
internal_value=-0.0244485 -0.199728 0.44931 0.203491 -0.429028 0.860872 -0.498698 0.0426783 -0.158466 0.551112 0.165249 -0.220602 -0.401448 -0.557466 -0.16234 -0.430054
internal_weight=681 656 171 108 485 63 385 87 100 40 49 80 148 237 54 118
internal_count=681 656 171 108 485 63 385 87 100 40 49 80 148 237 54 118
is_linear=0
shrinkage=0.05


Tree=5
num_leaves=19
num_cat=0
split_feature=3 3 3 3 17 15 13 3 8 9 10 16 3 3 0 12 0 15
split_gain=312142 40384.2 8010.02 6313.51 2909.44 1713.27 1708.82 1157.66 737.231 716.277 504.723 303.698 228.655 142.084 94.8313 49.7585 14.6328 6.11492
threshold=1803873.5760000004 421895.01850000006 216684.38821290326 793422.9225000001 90.500000000000014 6.5000000000000009 0.12187947619659721 94489.795526315793 5.1918899214614607 269.50000000000006 41.500000000000007 1754.6500000000003 147421.8134469697 37978.663041666674 64.306818181818201 6.5000000000000009 63.225000000000009 3.5000000000000004
decision_type=2 2 2 2 2 10 2 2 10 2 2 2 2 2 2 2 2 10
left_child=1 2 7 5 9 -3 -5 13 -7 -4 -11 -12 15 -1 17 16 -9 -14
right_child=-2 3 4 6 -6 8 -8 12 -10 10 11 -13 14 -15 -16 -17 -18 -19
leaf_value=-0.58190338743300674 6.0289405340807782 0.080976873613893996 -0.30748765584081417 0.75745500521226361 0.52122917719185358 0.34712109953165055 1.4539192858338357 -0.45449983157808821 0.78197707953660389 0.18452191159838724 -0.0091538823873568813 -0.23394111615717411 -0.37298253612518312 -0.47626877742767343 -0.20251749200023231 -0.30871979025694046 -0.33539110683259515 -0.27406742508594806
leaf_weight=104 20 29 31 21 21 22 23 62 22 20 38 24 24 124 32 25 20 25
leaf_count=104 20 29 31 21 21 22 23 62 22 20 38 24 24 124 32 25 20 25
internal_value=0.026702 -0.162024 -0.341585 0.677768 -0.00520839 0.3839 1.14585 -0.449653 0.577206 -0.1068 -0.0280791 -0.0985798 -0.353766 -0.526805 -0.282237 -0.404754 -0.4299 -0.329106
internal_weight=687 667 550 117 134 73 44 416 44 113 82 62 188 228 81 107 82 49
internal_count=687 667 550 117 134 73 44 416 44 113 82 62 188 228 81 107 82 49
is_linear=0
shrinkage=0.05


Tree=6
num_leaves=17
num_cat=0
split_feature=3 3 3 3 17 8 6 3 3 5 8 3 9 3 6 10
split_gain=216743 37136.6 7045.11 6172.53 2492.29 1734.37 1233.12 1040.87 416.518 229.111 183.661 171.607 114.063 105.976 62.7258 1.19754
threshold=1803873.5760000004 421895.01850000006 213381.95494186049 908451.78370519716 90.500000000000014 3.7115168174026132 1.0910335386721426 99054.865357142888 314933.32643478265 13.500000000000002 1.8522107813446398 255323.93666666668 319.50000000000006 37978.663041666674 1.1457905544147846 20.500000000000004
decision_type=2 2 2 2 2 10 2 2 2 2 10 2 2 2 2 2
left_child=1 2 7 5 8 -3 -7 13 10 -10 -4 -12 15 -1 -14 -9
right_child=-2 3 4 -5 -6 6 -8 12 9 -11 11 -13 14 -15 -16 -17
leaf_value=-0.5516996741989284 4.7797840665734332 0.11174798339605332 -0.30371496612117405 1.2605999766335343 0.48689775657086143 0.33910131232738494 0.8703295297175645 -0.33390974963704745 -0.09140337433327328 0.13953731335344768 -0.018823031634092335 -0.20023368672978498 -0.31870985468228658 -0.4580479142134139 -0.20788199627073484 -0.41523175678602081
leaf_weight=102 22 28 20 32 20 24 23 47 21 20 23 30 47 138 31 40
leaf_count=102 22 28 20 32 20 24 23 47 21 20 23 30 47 138 31 40
internal_value=0.0100628 -0.159502 -0.328563 0.687231 -0.0140574 0.42916 0.611884 -0.432318 -0.105457 0.0217717 -0.176311 -0.123407 -0.331431 -0.499995 -0.277915 -0.37565
internal_weight=668 646 539 107 134 75 47 405 114 41 73 53 165 240 78 87
internal_count=668 646 539 107 134 75 47 405 114 41 73 53 165 240 78 87
is_linear=0
shrinkage=0.05


Tree=7
num_leaves=16
num_cat=0
split_feature=18 3 8 19 13 3 3 4 14 3 3 9 0 9 0
split_gain=268098 32034 8003.64 6422.69 2352.76 1735.04 1043.19 805.39 395.05 320.934 316.293 108.257 57.2811 26.7867 26.7107
threshold=86052.780000000013 260375.72406645573 2.6271439968089356 14762.44039791525 0.086329849698544237 134344.43828125004 591383.02241666673 400.00000000000006 26935.985000000004 37978.663041666674 216684.38821290326 439.50000000000006 52.994047619047628 314.50000000000006 55.277777777777786
decision_type=2 2 10 10 2 2 2 2 2 2 2 2 2 2 2
left_child=1 5 8 6 -5 9 7 -4 -3 -1 12 14 -7 -14 -11
right_child=-2 2 3 4 -6 10 -8 -9 -10 11 -12 -13 13 -15 -16
leaf_value=-0.52491524524688726 5.4698486537283122 0.0035696012427409492 0.013386643648147584 0.57417444146453189 1.2509855435916357 -0.32486520737409591 0.55888025260888607 0.38780065243244177 -0.26191384751211716 -0.43726880742822377 -0.1025315781980753 -0.28260981974778354 -0.28568219406264167 -0.18962411673154153 -0.35309223574140797
leaf_weight=99 21 29 34 25 34 43 25 24 26 139 39 26 20 34 45
leaf_count=99 21 29 34 25 34 43 25 24 26 139 39 26 20 34 45
internal_value=0.0423964 -0.14336 0.386176 0.583409 0.978634 -0.378135 0.2941 0.172348 -0.124278 -0.443861 -0.226617 -0.403319 -0.2749 -0.229839 -0.418729
internal_weight=663 642 197 142 59 445 83 58 55 309 136 210 97 54 184
internal_count=663 642 197 142 59 445 83 58 55 309 136 210 97 54 184
is_linear=0
shrinkage=0.05


Tree=8
num_leaves=16
num_cat=0
split_feature=3 3 8 4 3 3 8 3 8 3 3 4 7 0 10
split_gain=145161 28136.8 5562 3116.96 2757.64 2545.06 504.681 515.21 466.478 484.922 258.568 249.227 32.0262 11.937 5.15304
threshold=1295923.8582142859 303475.83869212971 5.0934403803755952 398.50000000000006 147421.8134469697 715016.03046296304 1.7629310344827589 421895.01850000006 1.3753694581280791 216684.38821290326 57963.420416666668 364.50000000000006 2659.9726903581727 47.777729206737781 21.500000000000004
decision_type=2 2 10 2 2 2 10 2 10 2 2 2 2 2 2
left_child=1 4 5 -4 10 6 -3 -8 14 12 -1 -11 -10 -12 -6
right_child=-2 2 3 -5 8 -7 7 -9 9 11 13 -13 -14 -15 -16
leaf_value=-0.47860451057257247 3.5881713256129517 -0.14241996739591872 0.46210791174209476 1.2243042304424139 -0.25557257893539614 0.68877381188706277 -0.0099927343301955754 0.27381401253425902 -0.15559320234734081 -0.13213295889588503 -0.40587013866039029 0.072246647255761284 -0.25095957843033045 -0.34350986146378792 -0.35923618516751699
leaf_weight=150 26 20 32 25 20 20 30 33 22 25 93 34 36 86 20
leaf_count=150 26 20 32 25 20 20 30 33 22 25 93 34 36 86 20
internal_value=-0.00381569 -0.153715 0.419626 0.811836 -0.342954 0.196811 0.0714176 0.140545 -0.168968 -0.116746 -0.425201 -0.0150304 -0.218121 -0.378012 -0.315024
internal_weight=672 646 160 57 486 103 83 63 157 117 329 59 58 179 40
internal_count=672 646 160 57 486 103 83 63 157 117 329 59 58 179 40
is_linear=0
shrinkage=0.05


Tree=9
num_leaves=19
num_cat=0
split_feature=3 3 3 3 16 0 8 9 4 3 13 8 8 16 4 9 2 8
split_gain=154000 23602 7584.7 2733.44 1677.91 1085.19 1391.27 853.394 541.397 511.108 263.053 175.561 99.6566 140.395 87.8438 36.3499 23.6448 13.9207
threshold=2094467.0916666666 303475.83869212971 793422.9225000001 182754.37489285716 2291.3750000000005 51.517361111111121 6.0615763546798034 566.50000000000011 516.50000000000011 75365.636826086979 0.067597545387628896 5.1679925546765952 3.870977655086203 1913.3400000000004 417.50000000000006 98.500000000000014 38.979166666666679 2.0083333333333337
decision_type=2 2 2 2 2 2 10 2 2 2 2 10 8 2 2 2 2 10
left_child=1 3 5 9 -4 -3 8 11 10 15 -7 12 13 -5 17 -1 -16 -11
right_child=-2 2 4 7 -6 6 -8 -9 -10 14 -12 -13 -14 -15 16 -17 -18 -19
leaf_value=-0.47699685931205754 4.1991983547664828 -0.18563413214115873 1.2330836273942676 -0.086197760607446397 0.59951165367166204 -0.043369065962731837 0.56328793200579563 0.17620732532306152 0.32376030052250088 -0.3742113148955738 0.17528188014314292 -0.039657020555301147 -0.29162967638969423 -0.25984544759704953 -0.29929950091573926 -0.39807271377149833 -0.20934688411909963 -0.30424082821270204
leaf_weight=107 20 20 20 30 29 39 21 21 21 84 20 21 24 20 35 82 28 52
leaf_count=107 20 20 20 30 29 39 21 21 21 84 20 21 24 20 35 82 28 52
internal_value=-0.0174728 -0.14864 0.359374 -0.320376 0.877702 0.143958 0.210453 -0.106201 0.111962 -0.383957 0.0323526 -0.169865 -0.205728 -0.159488 -0.323968 -0.445056 -0.263294 -0.34991
internal_weight=694 674 170 504 49 121 101 116 80 388 59 95 74 50 199 189 63 136
internal_count=694 674 170 504 49 121 101 116 80 388 59 95 74 50 199 189 63 136
is_linear=0
shrinkage=0.05


Tree=10
num_leaves=17
num_cat=0
split_feature=3 3 3 4 16 18 3 3 14 18 16 16 11 3 3 3
split_gain=145314 16619 2919.26 2436.63 1314.98 1460.54 735.348 689.957 1351.76 206.698 149.118 103.666 104.021 68.0543 33.1753 42.1658
threshold=1295923.8582142859 219501.87714285715 793422.9225000001 525.50000000000011 1392.2800000000002 17494.035000000003 94489.795526315793 372322.1252272728 28653.470000000005 34159.710000000014 1946.5000000000002 1184.5350000000003 12.500000000000002 37978.663041666674 149856.51256981582 166237.48750000002
decision_type=2 2 2 2 2 2 2 2 2 2 2 2 2 2 2 2
left_child=1 6 3 4 5 -3 13 10 -9 -10 -6 12 -8 -1 -13 -16
right_child=-2 2 -4 -5 7 -7 11 8 9 -11 -12 14 -14 -15 15 -17
leaf_value=-0.4536619544662206 3.7913679292301339 -0.029516869307983491 0.60024625885190774 0.581550616596056 -0.073539153981853178 0.55922664436427039 -0.27147442570439095 0.40662076379571649 -0.18500664990881219 0.030539234815673395 -0.22084703398040603 -0.33130897523462771 -0.11334293490106409 -0.37683727776417969 -0.18184033041908632 -0.29180255382619008
leaf_weight=112 23 20 33 22 36 21 26 20 22 21 35 79 21 121 20 46
leaf_count=112 23 20 33 22 36 21 26 20 22 21 35 79 21 121 20 46
internal_value=-0.0300075 -0.169776 0.172084 0.0976672 0.0338491 0.278051 -0.354764 -0.0423385 0.0774335 -0.0813248 -0.148284 -0.279178 -0.204757 -0.415568 -0.301699 -0.261767
internal_weight=678 655 230 197 175 41 425 134 63 43 71 192 47 233 145 66
internal_count=678 655 230 197 175 41 425 134 63 43 71 192 47 233 145 66
is_linear=0
shrinkage=0.05


Tree=11
num_leaves=19
num_cat=0
split_feature=18 0 7 8 0 8 0 10 16 19 15 7 4 19 19 0 17 5
split_gain=52304.3 25087.1 7816.87 4336.7 3852.49 1974.87 1351.58 693.616 472.743 464.346 216.49 199.89 177.706 175.221 153.811 137.048 20.9783 7.87639
threshold=43403.500000000007 93.20046082949311 3840.6032202118304 4.7019006889997632 65.100000000000009 5.1918899214614607 52.994047619047628 125.50000000000001 2127.5250000000001 3834.4432268918131 8.5000000000000018 1895.7588855782149 333.50000000000006 8297.0843161040884 2333.4515481813378 26.586795252225524 21.500000000000004 9.5000000000000018
decision_type=2 2 2 10 2 10 2 2 2 10 8 2 2 10 10 2 2 2
left_child=2 3 6 -2 7 8 15 10 -6 11 13 17 -13 -4 -14 -1 -17 -8
right_child=1 -3 4 -5 5 -7 9 -9 -10 -11 -12 12 14 -15 -16 16 -18 -19
leaf_value=-0.42606634540895449 0.15702488357487782 2.7219915966760548 -0.21765268034239613 1.1393822400910514 0.2860408190217007 0.66211819094996294 -0.34821186477487742 0.13379187816665286 -0.024957175410312157 -0.03424343121615616 -0.33133201688173275 -0.27788880064435628 0.00024503084875288463 -0.036406050668312949 -0.19323882324354991 -0.35299217286230133 -0.26768655133658442 -0.26556199101697314
leaf_weight=112 25 20 29 20 26 30 21 20 22 36 20 22 20 25 20 118 28 54
leaf_count=112 25 20 29 20 26 30 21 20 22 36 20 22 20 25 20 118 28 54
internal_value=-0.0458753 1.29063 -0.191849 0.609015 0.0927183 0.350313 -0.305376 -0.122416 0.145798 -0.195361 -0.192588 -0.237108 -0.165783 -0.136021 -0.0987285 -0.378087 -0.338598 -0.293047
internal_weight=668 65 603 45 172 78 431 94 48 173 74 137 62 54 40 258 146 75
internal_count=668 65 603 45 172 78 431 94 48 173 74 137 62 54 40 258 146 75
is_linear=0
shrinkage=0.05


Tree=12
num_leaves=18
num_cat=0
split_feature=7 7 8 18 0 0 7 0 19 9 17 14 0 9 16 7 6
split_gain=125620 14709 5418.97 4359.79 2759.56 2402.71 1326.54 860.05 544.75 324.736 272.296 269.182 181.869 143.959 194.42 70.5201 4.53391
threshold=19205.668411431903 4420.9495500399325 2.6271439968089356 46728.760000000002 90.07967959527825 63.805107526881727 3337.9745136780216 45.841501240694797 12566.947153650628 473.50000000000006 37.500000000000007 25438.565000000006 40.721153846153854 233.50000000000003 1086.9150000000002 2408.3258374018365 0.62559890485968528
decision_type=2 2 10 2 2 2 2 2 10 2 2 2 2 2 2 2 2
left_child=1 5 11 4 7 10 9 -4 -9 13 12 -3 16 -7 -15 -14 -1
right_child=-2 2 3 -5 -6 6 -8 8 -10 -11 -12 -13 15 14 -16 -17 -18
leaf_value=-0.40806058845134702 3.8125906990255629 -0.071607860351602243 -0.15121327708596771 0.8850466187157342 0.74420319123701617 -0.29419372270948124 0.25468628011023003 0.040923752957688908 0.34569945637023813 0.016464505558428558 -0.18288651447743179 -0.31302738575935368 -0.32472842802361745 -0.25029227801731657 -0.071421511372601665 -0.2270513344130346 -0.34952289972412454
leaf_weight=98 20 23 22 36 21 27 23 27 32 22 31 24 81 27 36 41 88
leaf_count=98 20 23 22 36 21 27 23 27 32 22 31 24 81 27 36 41 88
internal_value=0.00554636 -0.115588 0.261564 0.418743 0.247121 -0.26304 -0.0838018 0.110683 0.209316 -0.154996 -0.333946 -0.198943 -0.348493 -0.196684 -0.150872 -0.294056 -0.382409
internal_weight=679 659 185 138 102 474 135 81 59 112 339 47 308 90 63 122 186
internal_count=679 659 185 138 102 474 135 81 59 112 339 47 308 90 63 122 186
is_linear=0
shrinkage=0.05


Tree=13
num_leaves=17
num_cat=0
split_feature=7 19 0 8 0 1 7 8 19 7 7 0 4 8 4 4
split_gain=197958 18061.5 3332.42 2625.84 3649.79 2256.75 2198.86 658.797 654.195 324.723 202.732 168.969 151.475 35.9724 42.9365 0.83208
threshold=18802.49037692499 13718.40016143062 64.306818181818201 4.7019006889997632 80.541666666666671 5.0708789146289162 3337.9745136780216 3.8375476892708522 5779.2025222876391 1895.7588855782149 4860.9738844156473 30.928571428571434 365.50000000000006 2.6958560904553077 440.00000000000006 360.50000000000006
decision_type=2 10 2 10 2 2 2 10 10 2 2 2 2 10 2 2
left_child=1 2 8 4 -3 -5 9 -8 11 -4 -10 -1 -11 14 -13 -15
right_child=-2 3 6 5 -6 -7 7 -9 10 12 -12 13 -14 15 -16 -17
leaf_value=-0.37858653178290713 4.6100357950252038 -0.092277682562669119 -0.26755888017464657 1.1589231017361517 0.7703577543866067 0.42766452213128414 0.016334578144934869 0.33238680345534877 -0.24568831666095839 -0.17758965593234949 -0.078994170904159555 -0.32430682136942218 -0.024471794946773633 -0.19200587828244486 -0.22646540640065305 -0.26577902008186688
leaf_weight=125 22 29 48 22 20 23 30 36 36 29 39 122 36 20 25 21
leaf_count=125 22 29 48 22 20 23 30 36 36 29 39 122 36 20 25 21
internal_value=0.0499724 -0.108527 -0.215111 0.529825 0.268084 0.8027 -0.0363269 0.191189 -0.297273 -0.169768 -0.161253 -0.329232 -0.0945174 -0.294561 -0.309344 -0.23534
internal_weight=683 661 567 94 49 45 179 66 388 113 75 313 65 188 147 41
internal_count=683 661 567 94 49 45 179 66 388 113 75 313 65 188 147 41
is_linear=0
shrinkage=0.05


Tree=14
num_leaves=19
num_cat=0
split_feature=3 3 8 4 3 16 3 3 3 14 2 0 18 8 18 0 17 3
split_gain=164039 15413.1 3856.37 3754.19 1928.84 876.182 868.712 720.969 308.579 228.831 218.477 105.979 66.6765 48.4439 23.6587 17.8009 14.3074 12.6913
threshold=1803873.5760000004 260375.72406645573 3.7115168174026132 517.50000000000011 715016.03046296304 1527.0200000000002 197246.13615096619 539788.08492424258 94489.795526315793 18381.845000000005 59.100000000000009 58.935643564356447 24516.790000000005 3.3996521523075969 4004.2650000000003 73.200757575757592 32.500000000000007 25164.490000000002
decision_type=2 2 10 2 2 2 2 2 2 2 2 2 2 10 2 2 2 2
left_child=1 6 7 4 5 -4 8 9 13 -3 -8 16 -11 17 -13 -16 -10 -1
right_child=-2 2 3 -5 -6 -7 10 -9 11 12 -12 14 -14 -15 15 -17 -18 -19
leaf_value=-0.3853816493600607 4.2711879711499732 0.051559571427801112 0.37460482608704343 1.0137795529725111 0.59697015632282602 -0.027077035407225294 -0.19939138896231143 0.21920994527105778 -0.29335518094973689 -0.20177864937782292 -0.010300300879137858 -0.23508911473055683 -0.074746188033710831 -0.23651403194124049 -0.11455860596636068 -0.19436068739209858 -0.21144711353562098 -0.32745333574068403
leaf_weight=63 21 21 20 22 32 38 27 27 77 24 34 23 21 21 22 20 21 161
leaf_count=63 21 21 20 22 32 38 27 27 77 24 34 23 21 21 22 20 21 161
internal_value=0.0223942 -0.116111 0.244738 0.440997 0.291327 0.115351 -0.274034 0.0061522 -0.300348 -0.0829041 -0.0959431 -0.243366 -0.145519 -0.337094 -0.187402 -0.156312 -0.278167 -0.345408
internal_weight=695 674 205 112 90 58 469 93 408 66 61 163 45 245 65 42 98 224
internal_count=695 674 205 112 90 58 469 93 408 66 61 163 45 245 65 42 98 224
is_linear=0
shrinkage=0.05


Tree=15
num_leaves=18
num_cat=0
split_feature=13 3 8 6 7 3 7 6 3 6 16 10 6 6 0 17 3
split_gain=173738 16558.9 7121.8 7352.1 5184.02 2688.91 953.172 788.439 483.359 383.732 222.929 198.623 70.4462 46.6066 46.4483 40.1435 32.5085
threshold=0.30676418296427999 421895.01850000006 2.6271439968089356 1.0006844626967832 9270.3909312803171 216684.38821290326 8100.5634085013398 1.3826146475017114 94489.795526315793 0.78576317590691314 1461.5700000000002 37.500000000000007 1.1430527036276525 1.321013004791239 26.586795252225524 41.500000000000007 149856.51256981582
decision_type=2 2 10 2 2 2 2 2 2 2 2 2 2 2 2 2 2
left_child=1 5 -3 6 -5 8 -4 9 14 -7 -11 -12 15 -14 -1 16 -10
right_child=-2 2 3 4 -6 7 -8 -9 12 10 11 -13 13 -15 -16 -17 -18
leaf_value=-0.35761376283786916 4.4184133799780509 -0.32884194306408365 0.3662397395854905 0.56573601627349857 1.6035749964610391 -0.25427694220095876 -0.11167454242706298 0.22012844521020145 -0.27609865423404811 0.092107639216162551 0.014872409157730915 -0.17635591119527819 -0.10174148075855696 -0.2023110095916256 -0.29530743952751159 -0.15843006818190866 -0.1990306942814436
leaf_weight=107 21 23 20 29 22 23 20 27 65 26 26 27 25 30 124 22 38
leaf_count=107 21 23 20 29 22 23 20 27 65 26 26 27 25 30 124 22 38
internal_value=0.047956 -0.0989035 0.446156 0.643535 1.03576 -0.214593 0.130265 -0.0152196 -0.276969 -0.0790986 -0.0254938 -0.083915 -0.213069 -0.15932 -0.325607 -0.235227 -0.249901
internal_weight=675 654 114 91 51 540 40 129 411 102 79 53 180 55 231 125 103
internal_count=675 654 114 91 51 540 40 129 411 102 79 53 180 55 231 125 103
is_linear=0
shrinkage=0.05


Tree=16
num_leaves=18
num_cat=0
split_feature=18 3 17 11 3 3 3 14 16 3 17 8 7 3 14 16 4
split_gain=80949.3 10909.5 4084.94 2006.03 2956.43 723.98 654.061 628.581 666.113 176.278 140.503 128.054 98.4299 96.0258 23.0088 22.929 16.1164
threshold=82019.570000000022 260375.72406645573 90.500000000000014 9.5000000000000018 908451.78370519716 561011.04749803932 134344.43828125004 19602.515000000003 1596.5500000000002 216684.38821290326 37.500000000000007 2.7250917035278892 2697.449101672732 57963.420416666668 17688.785000000003 1491.3000000000002 324.50000000000006
decision_type=2 2 2 2 2 2 2 2 2 2 2 10 2 2 2 2 2
left_child=1 6 3 -3 5 7 10 -5 -9 12 13 -11 -8 -1 16 -14 -15
right_child=-2 2 -4 4 -6 -7 9 8 -10 11 -12 -13 15 14 -16 -17 -18
leaf_value=-0.32583555579925921 3.0342772877145383 -0.29292005866233795 0.72014975628545208 0.19249876816685385 0.6767577512065569 0.25231609750438383 -0.12090002042682549 0.12034598093141209 -0.22468762767620576 -0.15628598297184165 -0.1497506812756712 0.013556398179220117 -0.168694000368317 -0.27626073644377969 -0.32538504083951314 -0.25131604761034254 -0.21870223675815154
leaf_weight=160 20 27 30 25 23 36 37 21 38 21 21 22 23 54 23 49 70
leaf_count=160 20 27 30 25 23 36 37 21 38 21 21 22 23 54 23 49 70
internal_value=-0.0232886 -0.117548 0.192042 0.0951514 0.169984 0.0680203 -0.246685 -0.012944 -0.101837 -0.159119 -0.286643 -0.0709431 -0.192897 -0.295474 -0.260415 -0.227664 -0.245818
internal_weight=700 680 200 170 143 120 480 84 59 152 328 43 109 307 147 72 124
internal_count=700 680 200 170 143 120 480 84 59 152 328 43 109 307 147 72 124
is_linear=0
shrinkage=0.05


Tree=17
num_leaves=19
num_cat=0
split_feature=3 3 8 4 4 17 16 0 10 3 14 0 3 7 4 16 8 16
split_gain=93219.8 9290.8 2203.79 3140.06 800.702 1029.63 748.219 554.818 625.497 377.489 90.1412 84.2069 61.5737 57.2913 51.0084 27.9707 5.0566 3.50661
threshold=1295923.8582142859 216684.38821290326 3.7115168174026132 275.00000000000006 517.50000000000011 10.500000000000002 1435.9000000000003 68.416666666666671 44.500000000000007 94489.795526315793 26935.985000000004 52.994047619047628 28882.460625000003 1895.7588855782149 402.50000000000006 1461.5700000000002 7.0397727272727275 2095.2200000000007
decision_type=2 2 10 2 2 2 2 2 2 2 2 2 2 2 2 2 8 2
left_child=1 9 7 -4 5 -5 -7 10 -9 12 -3 15 -1 16 -15 -11 -13 -17
right_child=-2 2 3 4 -6 6 -8 8 -10 11 -12 13 -14 14 -16 17 -18 -19
leaf_value=-0.33420610089634739 2.8845596973984335 -0.083440004807142976 -0.23783152972968918 0.60139672294906943 0.65251726538613442 0.43912457474640443 0.064904099026551615 0.25917153246998786 -0.070722604994388191 -0.1642479833418673 -0.23561507287232775 -0.1624594730848358 -0.26769497574954632 -0.15785560887975572 -0.05518850278286707 -0.27744731012143586 -0.23183087596526517 -0.21354405453976463
leaf_weight=85 26 20 23 22 24 20 38 24 33 21 22 20 150 38 20 37 25 33
leaf_count=85 26 20 23 22 24 20 38 24 33 21 22 20 150 38 20 37 25 33
internal_value=0.00528039 -0.113227 0.145785 0.282812 0.399171 0.315988 0.199286 -0.0310167 0.0701676 -0.24971 -0.166893 -0.195905 -0.293088 -0.161246 -0.124073 -0.232902 -0.20531 -0.250824
internal_weight=681 655 226 127 104 80 58 99 57 429 42 194 235 103 58 91 45 70
internal_count=681 655 226 127 104 80 58 99 57 429 42 194 235 103 58 91 45 70
is_linear=0
shrinkage=0.05


Tree=18
num_leaves=19
num_cat=0
split_feature=13 3 1 16 3 13 4 2 4 9 14 9 12 4 4 3 9 0
split_gain=144133 10562.7 3094.17 4218.74 2131.75 1085.85 1032.34 817.119 294.942 247.017 152.161 192.549 100.351 95.3338 48.1018 44.3179 7.99616 5.11697
threshold=0.27810697277120561 391661.03077464103 9.2404761904761923 2006.5000000000002 187776.67435897439 0.10493602316241712 516.50000000000011 215.98333333333338 287.00000000000006 65.500000000000014 59547.775000000009 278.50000000000006 4.5000000000000009 444.00000000000006 500.00000000000006 139140.48083333336 425.50000000000006 52.994047619047628
decision_type=2 2 2 2 2 2 2 2 2 2 2 2 2 2 2 2 2 2
left_child=1 4 3 7 9 -5 8 -3 -6 -1 11 -10 -13 15 -15 16 -11 -17
right_child=-2 2 -4 5 6 -7 -8 -9 10 13 -12 12 -14 14 -16 17 -18 -19
leaf_value=-0.31556372759293538 4.0278464965386824 0.31283456575302854 0.79527566437063546 0.099551758351922037 -0.20983515708917572 -0.37786299121768585 0.30253726526385266 0.7867306933019842 -0.12025886683464052 -0.2526840403452113 -0.15396180605604537 0.12414456840604544 -0.0068436906447536076 -0.096754580442276264 -0.20104513299006685 -0.20273106601930435 -0.18593744698024933 -0.14151390588620591
leaf_weight=97 21 20 28 24 30 22 20 20 24 161 20 23 37 26 25 30 20 20
leaf_count=97 21 20 28 24 30 22 20 20 24 161 20 23 37 26 25 30 20 20
internal_value=0.0478353 -0.0873546 0.347494 0.194182 -0.180848 -0.131852 -0.0237217 0.563314 -0.0743344 -0.244449 -0.0335739 -0.0033772 0.0444985 -0.218942 -0.150857 -0.233237 -0.246398 -0.181597
internal_weight=668 647 114 86 533 46 154 40 134 379 104 84 60 282 51 231 181 50
internal_count=668 647 114 86 533 46 154 40 134 379 104 84 60 282 51 231 181 50
is_linear=0
shrinkage=0.05


Tree=19
num_leaves=20
num_cat=0
split_feature=19 19 19 9 10 19 5 0 7 9 8 6 0 8 8 1 7 0 7
split_gain=84886.1 4668.77 2187.23 1795.61 995.906 799.82 697.765 678.174 960.226 639.221 292.008 148.658 89.4674 83.4837 60.4158 56.6557 41.1636 29.7057 12.3045
threshold=28243.41373708937 14762.44039791525 16472.859685542793 362.50000000000006 46.500000000000007 10407.250216937513 12.500000000000002 66.645833333333357 3337.9745136780216 614.50000000000011 5.3680396422528416 1.2772073921971254 26.586795252225524 3.3996521523075969 2.2830723223420164 8.3720526113671294 5227.9702656773197 52.994047619047628 1884.074392279739
decision_type=10 10 10 2 2 8 2 2 2 2 10 2 2 8 10 2 2 2 2
left_child=1 3 -3 5 -5 7 -4 12 15 10 11 13 -1 14 -6 -9 17 -14 -19
right_child=-2 2 6 4 9 -7 -8 8 -10 -11 -12 -13 16 -15 -16 -17 -18 18 -20
leaf_value=-0.28014511899844463 2.7907391688456906 0.67399073627862061 -0.15033680953972398 0.27256499041681709 -0.19657407258395798 -0.52980868531124936 0.22343807724214371 -0.11871470893804843 0.20750096310268751 0.17062947051091629 0.039754564892500642 -0.064617846344198496 -0.23929144810140135 -0.26172781093915304 -0.076995155946774918 -0.23035416472342707 -0.13611081705916495 -0.21144039764290767 -0.13491714751178568
leaf_weight=114 25 21 20 22 26 20 30 25 21 21 23 34 139 29 21 30 20 20 21
leaf_count=114 25 21 20 22 26 20 30 25 21 21 23 34 139 29 21 30 20 20 21
internal_value=-0.0113897 -0.122102 0.258296 -0.168562 -0.0346774 -0.225797 0.0738139 -0.208879 -0.0735395 -0.0800767 -0.120677 -0.154323 -0.241283 -0.193029 -0.145967 -0.182724 -0.217824 -0.226073 -0.17651
internal_weight=682 657 71 586 176 410 50 390 76 154 133 110 314 76 47 55 200 180 41
internal_count=682 657 71 586 176 410 50 390 76 154 133 110 314 76 47 55 200 180 41
is_linear=0
shrinkage=0.05


end of trees

feature_importances:
cost_per_member=90
policy_avg_days=35
claims_per_member=32
policy_active_days=26
policy_avg_claim=22
policy_median_claim=19
policy_claim_count=18
policy_std_claim=14
policy_member_count=13
policy_active_years=11
policy_max_claim=9
policy_p95_claim=9
policy_disease_diversity=7
policy_max_days=7
policy_large_claim_ratio=6
claims_per_member_per_month=4
claims_per_month=4
policy_active_months=3
policy_fee_diversity=2
policy_hosp_diversity=2

parameters:
[boosting: gbdt]
[objective: regression]
[metric: l1,rmse]
[tree_learner: serial]
[device_type: cpu]
[data_sample_strategy: bagging]
[data: ]
[valid: ]
[num_iterations: 200]
[learning_rate: 0.05]
[num_leaves: 31]
[num_threads: -1]
[seed: 42]
[deterministic: 0]
[force_col_wise: 0]
[force_row_wise: 0]
[histogram_pool_size: -1]
[max_depth: -1]
[min_data_in_leaf: 20]
[min_sum_hessian_in_leaf: 0.001]
[bagging_fraction: 0.8]
[pos_bagging_fraction: 1]
[neg_bagging_fraction: 1]
[bagging_freq: 1]
[bagging_seed: 400]
[bagging_by_query: 0]
[feature_fraction: 0.8]
[feature_fraction_bynode: 1]
[feature_fraction_seed: 30056]
[extra_trees: 0]
[extra_seed: 12879]
[early_stopping_round: 0]
[early_stopping_min_delta: 0]
[first_metric_only: 0]
[max_delta_step: 0]
[lambda_l1: 0.1]
[lambda_l2: 1]
[linear_lambda: 0]
[min_gain_to_split: 0]
[drop_rate: 0.1]
[max_drop: 50]
[skip_drop: 0.5]
[xgboost_dart_mode: 0]
[uniform_drop: 0]
[drop_seed: 17869]
[top_rate: 0.2]
[other_rate: 0.1]
[min_data_per_group: 100]
[max_cat_threshold: 32]
[cat_l2: 10]
[cat_smooth: 10]
[max_cat_to_onehot: 4]
[top_k: 20]
[monotone_constraints: ]
[monotone_constraints_method: basic]
[monotone_penalty: 0]
[feature_contri: ]
[forcedsplits_filename: ]
[refit_decay_rate: 0.9]
[cegb_tradeoff: 1]
[cegb_penalty_split: 0]
[cegb_penalty_feature_lazy: ]
[cegb_penalty_feature_coupled: ]
[path_smooth: 0]
[interaction_constraints: ]
[verbosity: -1]
[saved_feature_importance_type: 0]
[use_quantized_grad: 0]
[num_grad_quant_bins: 4]
[quant_train_renew_leaf: 0]
[stochastic_rounding: 1]
[linear_tree: 0]
[max_bin: 255]
[max_bin_by_feature: ]
[min_data_in_bin: 3]
[bin_construct_sample_cnt: 200000]
[data_random_seed: 175]
[is_enable_sparse: 1]
[enable_bundle: 1]
[use_missing: 1]
[zero_as_missing: 0]
[feature_pre_filter: 1]
[pre_partition: 0]
[two_round: 0]
[header: 0]
[label_column: ]
[weight_column: ]
[group_column: ]
[ignore_column: ]
[categorical_feature: ]
[forcedbins_filename: ]
[precise_float_parser: 0]
[parser_config_file: ]
[objective_seed: 16083]
[num_class: 1]
[is_unbalance: 0]
[scale_pos_weight: 1]
[sigmoid: 1]
[boost_from_average: 1]
[reg_sqrt: 0]
[alpha: 0.9]
[fair_c: 1]
[poisson_max_delta_step: 0.7]
[tweedie_variance_power: 1.5]
[lambdarank_truncation_level: 30]
[lambdarank_norm: 1]
[label_gain: ]
[lambdarank_position_bias_regularization: 0]
[eval_at: ]
[multi_error_top_k: 1]
[auc_mu_weights: ]
[num_machines: 1]
[local_listen_port: 12400]
[time_out: 120]
[machine_list_filename: ]
[machines: ]
[gpu_platform_id: -1]
[gpu_device_id: -1]
[gpu_use_dp: 0]
[num_gpu: 1]

end of parameters

pandas_categorical:[[1, 2, 3, 4, 5, 6, 7, 8, 9, 10, 11, 12, 13, 14, 15, 16, 17, 18, 19], [1, 3, 4, 7, 8, 10, 11, 12, 14, 15, 16, 19, 20, 21, 23, 24, 26, 28, 31, 32, 35, 37, 38, 40, 41, 42, 43, 45, 46, 48, 49, 51, 53, 54, 55, 56, 57, 58, 59, 62, 63, 64, 65, 66, 67, 68, 71, 72, 73, 74, 75, 76, 78, 81, 82, 83, 87, 88, 90, 91, 93, 94, 95, 99, 102, 104, 105, 106, 108, 109, 110, 112, 113, 114, 116, 119, 120, 123, 124, 125, 128, 130, 131, 132, 133, 134, 135, 136, 137, 138, 139, 140, 141, 144, 147, 149, 150, 151, 153, 154, 155, 157, 158, 159, 160, 163, 165, 166, 168, 170, 171, 173, 174, 178, 179, 181, 182, 183, 185, 186, 187, 188, 189, 190, 191, 192, 193, 194, 195, 197, 200, 201, 202, 204, 206, 208, 209, 211, 212, 213, 214, 216, 217, 219, 222, 223, 224, 225, 227, 229, 230, 231, 233, 236, 237, 238, 239, 240, 241, 243, 244, 245, 246, 247, 248, 251, 252, 253, 256, 257, 258, 259, 260, 263, 265, 267, 268, 269, 274, 276, 277, 278, 280, 281, 282, 285, 286, 287, 289, 290, 291, 293, 295, 301, 302, 305, 307, 313, 314, 315, 316, 322, 324, 325, 326, 328, 329, 330, 334, 335, 336, 337, 338, 340, 343, 344, 348, 349, 353, 359, 361, 363, 364, 369, 372, 373, 374, 375, 376, 379, 382, 384, 386, 389, 391, 392, 393, 394, 397, 400, 402, 403, 404, 405, 407, 408, 410, 411, 416, 417, 419, 420, 425, 426, 431, 432, 433, 434, 435, 440, 441, 442, 444, 445, 448, 450, 455, 468, 469, 472, 481, 485, 486, 487, 488, 489, 494, 497, 502, 504, 505, 506, 507, 509, 529, 533, 535, 539, 544, 549, 551, 556, 560, 561, 564, 569, 570, 571, 572, 574, 575, 581, 582, 586, 589, 592, 593, 595, 598, 599, 600, 603, 612, 613, 614, 618, 619, 620, 628, 629, 631, 632, 633, 634, 636, 638, 639, 644, 645, 648, 652, 654, 656, 661, 663, 664, 669, 671, 677, 680, 681, 683, 689, 690, 695, 700, 703, 705, 708, 717, 723, 728, 734, 740, 743, 744, 748, 752, 753, 755, 758, 761, 764, 770, 775, 779, 780, 789, 800, 804, 808, 811, 813, 814, 823, 826, 830, 837, 843, 852, 857, 864, 872, 874, 878, 879, 885, 888, 895, 898, 902, 906, 907, 916, 919, 921, 932, 934, 938, 952, 955, 959, 963, 975, 978, 984, 1001, 1003, 1015, 1020, 1026, 1029, 1032, 1040, 1051, 1062, 1066, 1069, 1086, 1123, 1131, 1135, 1142, 1147, 1160, 1162, 1169, 1171, 1185, 1198, 1201, 1203, 1208, 1212, 1224, 1225, 1227, 1228, 1241, 1245, 1258, 1261, 1266, 1292, 1296, 1302, 1310, 1326, 1338, 1356, 1365, 1366, 1379, 1381, 1383, 1387, 1401, 1412, 1414, 1416, 1419, 1423, 1429, 1438, 1487, 1496, 1500, 1501, 1535, 1536, 1540, 1550, 1574, 1593, 1606, 1619, 1628, 1635, 1639, 1640, 1648, 1663, 1664, 1684, 1688, 1693, 1747, 1748, 1755, 1786, 1792, 1814, 1817, 1826, 1857, 1868, 1900, 1929, 1934, 1942, 1949, 1966, 2009, 2019, 2021, 2028, 2044, 2067, 2080, 2081, 2108, 2110, 2115, 2144, 2165, 2176, 2221, 2231, 2245, 2297, 2298, 2299, 2343, 2366, 2414, 2430, 2551, 2610, 2622, 2643, 2703, 2719, 2806, 2871, 2878, 2885, 2913, 2923, 2926, 2937, 2948, 2986, 3050, 3061, 3106, 3130, 3215, 3217, 3305, 3323, 3416, 3442, 3485, 3490, 3605, 3658, 3703, 3766, 3791, 3799, 3803, 3820, 3826, 3860, 3889, 3960, 4050, 4247, 4257, 4267, 4363, 4420, 4451, 4526, 4565, 4591, 4593, 4596, 4839, 4914, 4932, 4979, 5031, 5151, 5239, 5317, 5326, 5455, 5644, 5698, 5786, 5921, 5924, 5926, 5939, 5946, 6020, 6047, 6179, 6181, 6573, 6892, 7232, 7240, 7282, 7421, 7469, 7480, 7634, 8026, 8443, 8583, 8695, 8754, 8884, 8889, 9019, 9721, 9813, 10291, 10437, 10589, 10878, 11191, 11513, 11564, 11609, 11671, 12094, 12737, 13270, 13392, 14072, 14160, 14484, 15070, 15180, 15454, 15598, 16240, 16394, 16574, 16773, 16982, 17225, 17978, 18403, 18511, 18775, 20930, 21545, 22328, 24052, 25356, 26119, 28375, 28379, 28556, 32160, 32445, 34254, 34359, 37969, 40062, 46671, 48097, 50151, 71558, 72882, 117142, 320787], [1, 2, 3, 4, 5, 6, 7, 8, 9, 10, 11, 12, 13, 14, 15, 16, 17, 18, 19, 20, 21, 22, 23, 24, 25, 26, 27, 28, 29, 30, 31, 32, 33, 34, 35, 36, 37, 38, 39, 40, 41, 42, 43, 44, 45, 46, 47, 48, 49, 50, 51, 52, 53, 54, 55, 56, 57, 58, 59, 60, 61, 62, 63, 64, 65, 66, 67, 68, 69, 70, 71, 72, 73, 74, 75, 76, 77, 78, 79, 80, 81, 82, 83, 84, 85, 86, 88, 90, 91, 92, 93, 94, 95, 97, 98, 100, 103, 104, 105, 106, 107, 108, 109, 110, 112, 114, 115, 120, 121, 124, 125, 126, 127, 128, 129, 132, 133, 134, 136, 138, 141, 144, 145, 146, 150, 153, 154, 157, 158, 160, 161, 162, 163, 164, 172, 173, 175, 176, 177, 178, 179, 180, 189, 191, 192, 195, 199, 200, 202, 203, 206, 207, 209, 210, 211, 215, 216, 217, 218, 219, 222, 224, 225, 227, 232, 235, 236, 243, 244, 246, 251, 252, 253, 254, 256, 258, 261, 263, 270, 276, 280, 285, 287, 288, 297, 300, 306, 310, 317, 318, 323, 334, 335, 336, 338, 341, 358, 385, 389, 391, 405, 413, 422, 423, 432, 438, 451, 496, 499, 538, 539, 547, 553, 597, 846], [1, 2, 3, 4, 5, 6, 7, 8, 9, 10, 11, 12, 13, 14, 15, 16, 17, 18, 19, 20, 21], [1, 2, 3, 4, 5, 6, 7, 8, 9, 10, 11, 12, 13], [1, 2, 3, 4, 5, 6, 7, 8, 9, 10, 11, 12, 13, 14, 15, 16, 17, 18, 19, 20, 21, 22, 23, 24, 25, 26, 27, 28, 31, 32, 33, 34, 35, 36, 37, 38, 40, 41, 42, 43, 44, 45, 46, 47, 48, 49, 50, 51, 52, 54, 56, 57, 58, 59, 60, 61, 62, 63, 64, 66, 67, 72, 76, 77, 78, 79, 81, 82, 83, 84, 86, 90, 91, 93, 97, 98, 99, 101, 102, 104, 107, 112, 120, 121, 124, 125, 126, 132, 133, 135, 136, 143, 144, 148, 151, 158, 164, 165, 169, 171, 173, 188, 189, 193, 196, 198, 204, 209, 223, 226, 230, 231, 252, 256, 265, 266, 279, 299, 314, 316, 331, 376, 379, 403, 430, 446, 478, 485, 528, 540, 541, 564, 609, 632, 674, 675, 685, 691, 833, 1069, 1309, 2451, 3558]]
