tree
version=v4
num_class=1
num_tree_per_iteration=1
label_index=0
max_feature_idx=70
objective=tweedie
feature_names=acci_city acci_region_type age age_bucket age_bucket_x_duty_code annual_prem_log claim_type day_count day_count_filled day_of_week duty_code est_loss_ratio fee_item_type group_code_te hosp_grade hosp_grade_x_fee_item_type insured_gender is_expensive is_public is_yearend is_yearend_x_hosp_grade large_case_amt large_case_filled main_insured_rela member_avg_claim_size member_avg_paid member_case_count member_claim_count member_claim_rate member_disease_count member_hosp_count member_std_paid member_total_paid month month_cos month_sin monthly_avg monthly_avg_lag1 monthly_avg_lag2 monthly_avg_lag3 monthly_avg_mom monthly_count monthly_count_lag1 monthly_count_lag2 monthly_count_lag3 monthly_duty_total monthly_duty_total_lag1 monthly_duty_total_lag2 monthly_duty_total_lag3 monthly_median monthly_median_lag1 monthly_median_lag2 monthly_median_lag3 monthly_prem monthly_total monthly_total_lag1 monthly_total_lag2 monthly_total_lag3 monthly_total_mom native_place_name_te pass_months pass_prem_log policy_age_days policy_grp_name quarter rgt_source rnew_flag rnew_flag_x_duty_code sale_chnl work_addr year_actual_claim_paid_log
feature_infos=[0:256] [0:2] [0:80.421629021218337] [0:4] -1:2:0:1:18:84:19:79:76:5:90:23:21:39:78:100:85:92:99:16:86:96:94:25:15:31:106:13:14:22:3:6:129:4:10:130:17:98:8:26:119:108:34:95:36:105:35:88:32:97:40:28:52:12:24:123:121:161:46:27:120:20:122:30:87:117:62:38:37:47:55:103:166:133:48:66:64:11:125:124:51:134:89:159:50:7:93:151:33:131:9:68:44:111:126:29:91:61:70:150:104:127:146:53:54:142:41:59:81:101:160:45:57:60:63:75:82:118:65 [0:19.527323814462907] -1:0:1 [1:730] [0:730] [1:7] -1:0:5:18:19:22:8:1:2:27:6:3:9:25:24:32:10:11:20:26:7:44:4:23:21:42:12:33:16:15:14:28:13:43:17:29 [0:8.0748999999999995] -1:0:1:2:4:3:5:9:12:10:8:6:11:7:15:16:13:23:14:18:17:25:24 [417.35306841041148:163319.24644421253] -1:2:1:0:3:4:7:5:8:6:9:10 -1:8:6:14:0:5:7:10:4:9:28:16:1:13:2:12:11:15:32:37:38:33:3:20:19:46:48:52:39:56:42:65:30:34:27:23:17:29:50:21:31:18:25:67:53:24:51:60:41:54:84:40:45:36:35:44:26:78:62:49:63:114:75:22:43:77:87:74:81:47:92:94:109:91:66:73:82:100:61:71:79:72:76:83:89:162:93:69:80:110:95:70:68:96:59:97:98:121:115:120:103:146:57:122:64:102:58:86:88:134:137:101:112:131:163:55:104:119:133:116:124:153:135:140:167:85:108:125:150:90:111:129:130:138:164 -1:1:0 -1:0:1 -1:0:1 [0:1] -1:4:1:7:2:0:3:5:13:6:10:8:14:16:12:17:9:11:15:18:21:19:20 [0:1200000] [0:1200000] -1:0:1:2 [0:229632.27275675672] [0:229632.27275675672] [0:118] [0:643] [0:4102] [0:44] [0:9] [0:498999.4448139242] [0:128864792.59] [1:12] [-1:1] [-1:1] [18:188968.4110041841] [3.7999999999999998:188968.4110041841] [3.7999999999999998:306189.86624434387] [3.7999999999999998:306189.86624434387] [-0.99333234014024763:80.092932575576569] [1:22851] [1:22851] [1:22851] [1:22851] [24.399999999999999:4512038.3700000001] [9.5999999999999996:4512038.3700000001] [15.199999999999999:4512038.3700000001] [15.199999999999999:4512038.3700000001] [18:207895.48000000001] [3.7999999999999998:207895.48000000001] [3.7999999999999998:319179.88] [3.7999999999999998:319179.88] [0:60483786.703999996] [73.199999999999989:189288866.92000002] [9.5999999999999996:189288866.92000002] [30.399999999999999:189288866.92000002] [30.399999999999999:189288866.92000002] [-0.99914769587629693:5106.2729166666668] [1207.0458650977148:44446.057004832954] [5:36] [0:18.826183797973908] [-691:442] -1:1:656:509:531:519:676:940:326:473:92:825:65:424:219:528:622:652:505:549:90:435:217:307:955:540:230:453:701:839:506:888:665:720:986:909:914:849:670:908:958:708:956:671:749:534:513:345:347:574:189:891:415:310:913:98:411:653:578:298:1026:73:137:819:672:231:827:373:226:360:743:153:735:527:485:216:953:646:780:808:546:590:1019:813:28:552:468:693:630:521:625:10:95:548:488:467:399:1011:694:61:512:896:346:489:1020:624:904:484:654:678:179:917:894:948:702:1023:67:100:659:635:547:532:805:611:511:469:8:573:750:493:890:291:150:579:699:159:673:777:576:402:555:629:188:156:455:177:178:504:964:598:836:138:718:815:120:502:483:400:522:601:745:454:643:752:48:11:30:60:282:636:436:680:822:470:9:46:712:942:472:837:480:703:734:431:1010:76:225:430:951:593:364:668:357:530:863:930:352:907:184:569:572:811:68:565:706:1009:997:856:869:327:595:692:802:967:64:820:834:851:443:761:571:700:85:677:810:912:4:290:570:645:660:32:681:3:152:247:284:335:862:933:920:0:211:328:202:603:404:626:7:201:208:407:754:911:181:288:271:324:832:916:274:1016:830:539:804:816:450:679:753:766:38:164:442:648:187:721:1017:403:689:351:526:556:617:865:89:166:283:312:814:1022:991:161:591:628:725:910:463:180:495:600:742:844:599:63:437:1035:56:294:390:434:503:998:487:490:638:566:705:1025:75:160:251:457:535:545:966:24:103:229:710:34:520:775:835:899:936:978:588:637:751:709:715:41:210:365:380:1003:428:893:931:954:158:194:259:325:397:634:661:666:807:860:905:993:17:499:542:605:609:663:669:895:51:190:456:821:236:244:767:941:118:213:432:594:684:728:779:29:109:285:362:744:826:898:192:277:301:514:741:2:338:596:923:945:175:238:302:866:871:950:359:615:667:786:151:445:613:723:727:989:155:517:538:614:145:183:903:928:960:1008:72:223:237:275:392:408:458:763:840:900:970:168:218:393:604:641:675:803:906:929:191:371:429:465:823:42:50:350:640:934:988:167:207:212:501:730:833:857:918:926:131:220:336:409:460:597:633:698:5:45:149:204:876:37:135:250:314:524:757:873:1014:254:358:412:438:471:846:1012:71:87:165:186:353:812:968:43:110:241:268:276:340:439:481:516:688:722:847:854:939:976:994:22:58:97:242:379:382:583:649:769:782:853:927:987:996:1027:1033:315:410:478:482:558:560:587:589:618:623:662:818:881:992:44:59:117:256:297:356:396:508:577:580:717:748:756:1015:54:96:303:332:361:561:568:607:674:758:776:845:944:47:176:270:339:372:525:770:828:872:915:925:938:86:114:206:239:486:537:554:228:261:287:316:341:475:541:592:682:697:764:1002:36:40:278:348:405:529:557:772:858:921:973:1013:193:363:446:461:492:523:533:690:829:980:23:49:77:146:272:309:337:355:375:447:704:714:736:737:806:947:957:1001:1028:1032:12:82:313:544:551:553:707:962:1024:27:83:169:240:334:479:606:765:874:922:1006:105:124:198:199:205:515:550:581:755:809:848:6:78:91:113:172:197:370:413:451:452:462:477:496:686:696:716:774:880:1007:1031:15:55:157:227:329:398:444:474:631:683:711:724:747:801:974:1029:18:26:57:107:136 [1:4] [0:10] -1:0:1 -1:0:5:37:34:36:15:50:40:8:1:2:45:6:3:16:9:42:49:35:57:43:11:10:44:17:7:38:58:20:51:78:47:18:60:21:24:23:27:4:39:76:12:29:22:41:53:30:68:19:25:14:28:59:13:54:77:56 -1:0:1:3:2 [0:111] [5.523658501405734:17.275027520051449]
tree_sizes=18095 18966 20240 18631 19531 19912 19615 19266 20121 20039 19770 20833 20681 20558 21544 21067 21304 21258 21235 21642 22007 21551 21006 22100 21202 20671 20883 21604 21072 21206 22129 21198 22516 21543 22065

Tree=0
num_leaves=127
num_cat=59
split_feature=4 24 24 21 31 4 24 7 24 6 24 7 31 24 15 31 21 36 63 21 4 63 6 24 24 24 63 63 63 24 24 63 63 15 21 6 24 13 26 31 63 24 4 65 6 63 36 63 15 18 63 27 63 63 62 15 63 36 31 21 63 24 63 7 32 36 31 65 31 31 63 31 63 24 15 63 55 12 26 63 63 6 67 63 6 63 28 61 63 24 63 15 63 31 65 63 63 63 27 31 15 12 4 45 27 63 21 65 4 31 63 31 13 63 24 26 63 24 24 63 63 39 13 31 13 63
split_gain=1.8123e+08 3.20018e+07 1.12554e+07 6.42096e+06 3.74259e+06 1.80384e+06 1.61485e+06 1.49463e+06 1.47316e+06 1.31757e+06 947000 883836 681981 636938 605983 498535 460385 383023 360320 299646 292293 283891 282550 279738 217465 183436 172406 158462 153137 153096 138716 134194 133540 123844 111968 109726 109601 105315 118363 98292.4 161484 124204 97980.8 92076.2 93994.4 90400.8 87728.7 87645.3 85860.4 85366.2 83432 80886.6 102334 79885.1 78509.8 76914.4 70203.8 67902 67653.3 64240.6 62223 61622 60721.9 60633.8 65198.2 121264 60202.9 58269.4 58254.2 56550.7 53425.8 51424.2 50907.8 50620.4 48909.3 47669.4 47505.5 46433.2 45331.4 43276.4 42312.5 40781.6 39457.9 39026.2 38917.3 41407.7 38449.5 39654.9 38215.9 37890.6 37598.5 37458.9 37427.5 37233.8 39764.8 36853 36423.8 36059.5 34628.6 33468.7 33005.2 31104.6 31097 36547.2 30953.7 30639.8 29567.3 29157.5 29037.7 38283.5 28833.6 28703.8 39703.6 28497.4 28431.6 28300.6 27818.4 27357.6 25944.8 25316.5 25305.3 25260.4 25192.9 37716.8 25175 24654.6
threshold=0 7379.6172645985407 1764.4503885185188 1.0000000180025095e-35 2590.1624820720781 1 8329.2653631317571 46.500000000000007 809.61272398735139 2 2885.9225117647061 1.0000000180025095e-35 9449.9863687772286 2173.7630484693882 3 5708.3827664931996 59905.805000000008 2777.3054322662788 4 86162.450000000012 5 6 7 3673.2207755813956 14240.462965686276 19158.058236379056 8 9 10 404.80217863475184 851.9532731729056 11 12 13 54406.620000000003 14 3052.3379075877988 1971.9946964623575 104.50000000000001 5004.8702034007501 15 4347.0476189178144 16 7.5000000000000009 17 18 3749.9157601849379 19 20 21 22 503.50000000000006 23 24 77.500000000000014 25 26 1881.3885423365491 4251.623838585122 144674.03500000003 27 4918.5644246031761 28 2.5000000000000004 5016126.5150000015 7483.167739939423 880.9814688905434 7.5000000000000009 6283.4759234063795 1353.2849832882223 29 4589.5795938236706 30 23432.048484691131 31 32 18443524.325000007 33 31.500000000000004 34 35 36 37 38 39 40 413.14915484652937 11.309596525456902 41 2379.8775196815573 42 43 44 5004.8702034007501 7.5000000000000009 45 46 47 129.50000000000003 16157.134456251786 48 49 50 3932458.0150000006 69.500000000000014 51 59761.205000000009 7.5000000000000009 52 3475.892851509619 53 14990.492689861649 6661.4229826129013 54 1322.2271139971142 15.500000000000002 55 1157.598225925926 4104.9459275362324 56 57 5239.7560717495517 3821.8998025162869 1064.1741303643864 2989.9252212611568 58
decision_type=9 2 2 2 2 9 2 8 2 1 2 10 2 2 9 2 2 8 9 2 9 9 1 2 2 2 9 9 9 2 2 9 9 9 2 1 2 2 2 2 9 2 9 2 1 9 10 9 9 1 9 2 9 9 2 9 9 10 2 2 9 2 9 10 2 10 2 2 2 2 9 2 9 2 9 9 8 9 2 9 9 1 9 9 1 9 2 10 9 2 9 9 9 2 2 9 9 9 2 2 9 9 9 8 2 9 2 2 9 2 9 2 2 9 2 2 9 2 2 9 9 10 2 2 2 9
left_child=1 4 8 7 13 6 23 12 29 16 33 35 24 30 18 47 20 27 46 106 53 43 42 122 50 -8 68 -14 61 -2 -1 -16 107 89 49 -6 88 90 51 41 67 80 117 44 -19 -23 -12 57 -34 84 -3 56 -53 -7 -45 66 -39 -13 95 -21 -52 -20 121 64 -47 -66 -24 115 -17 83 -42 118 -38 -26 96 -43 79 -57 -63 -65 -30 -31 -71 -32 85 -28 87 -55 -15 -11 -33 -44 -50 -62 98 -49 -9 -73 -95 -78 -94 -35 103 -97 -92 -102 -5 -22 109 -25 -48 -81 -113 -91 -79 -41 -29 -10 -58 -120 -56 -37 124 -124 -4 -109
right_child=2 3 5 19 11 9 25 74 22 10 14 15 17 36 31 26 -18 21 28 59 32 45 55 108 73 -27 34 116 39 81 69 37 48 101 -36 62 72 38 -40 40 70 75 91 54 -46 63 110 58 92 -51 60 52 -54 86 120 77 71 -59 -60 -61 93 78 -64 76 65 -67 -68 -69 -70 82 -72 97 -74 -75 -76 -77 99 114 -80 111 -82 -83 -84 -85 -86 -87 -88 -89 -90 113 104 -93 100 94 -96 102 -98 -99 -100 -101 105 -103 -104 -105 -106 -107 -108 125 -110 -111 -112 112 -114 -115 -116 -117 -118 -119 119 -121 -122 -123 123 -125 -126 -127
leaf_value=8.2799398078702673 8.2533553958482386 8.5970551505926931 8.3609706262238852 8.6868633572177725 8.3229703942315467 8.4650547629985233 8.5256628081028971 8.4677165269087844 8.2952897443717184 8.3524311997848972 8.4147351306443152 8.3713457274052665 8.6182501674127341 8.4189011145717192 8.4704039857553326 8.521859276078148 8.5846011617498448 8.3946772716214451 8.4195200485670281 8.7195839613783246 8.3404913471520015 8.6658417868096311 8.3191162516037256 8.4420117652782949 8.6036012687714827 8.6312482807059663 8.442565872604856 8.4684964706795007 8.3470606080700023 8.2691300662162899 8.2735332330929534 8.3898501069550573 8.2765002173885023 8.249971259260592 8.7017535314941092 8.4135866369938963 8.3871365874226331 8.4120412044972586 8.567720394826754 8.5410644225091428 8.3982790528327111 8.470566160120752 8.2915917573497744 8.5125811231015334 8.5748635032094143 8.6296282901328105 8.5933067982273279 8.5283831461802464 8.2647825400228676 8.6168880885086896 8.4582335208565702 8.5519230034593203 8.3735278896580123 8.4293544149689623 8.5719102076759803 8.2509816133573537 8.3659896346791971 8.4759456401452216 8.5381235584590591 8.7379467119478491 8.5385736048684571 8.4604698233441731 8.3450438079678868 8.6483789837409279 8.4574599119035252 8.6219371059792476 8.3483531572278675 8.4119984650847996 8.3606125325044172 8.3150076803672661 8.3564627634825879 8.3783550504395947 8.444470145276739 8.6444416883077384 8.3249766856000598 8.4256336839966082 8.6398805239579719 8.3019064229923245 8.5413977155192118 8.628135248018566 8.4030950087393279 8.2892259710120335 8.3969282992494794 8.3383341418848929 8.5750224783779618 8.5521267652130941 8.2953564315789983 8.3565917151486033 8.3726657539303648 8.4349512206698414 8.3653594849980202 8.2754117505169482 8.333488772071826 8.5722775993092721 8.5759955120808531 8.5105332489249221 8.3616047519981791 8.3349451595331043 8.4628312669469477 8.6656655931611279 8.3364022868007712 8.3366021051505914 8.4919507289769349 8.3813752238480692 8.3332372718549728 8.2997099338122808 8.7022479361837597 8.4752009783220501 8.4770290151450567 8.3431984124698868 8.5211870725402559 8.5331291888387479 8.6184508392480215 8.3690912460212807 8.3166217047996298 8.4511822070787126 8.3564446729961777 8.3218323873815621 8.4328950797908817 8.3787015450988491 8.6278426622574873 8.5002187725447644 8.3600903064866952 8.4049356428507185 8.295259056700532 8.3747006143978311
leaf_weight=618184.80924987793 13103842.170761108 909590.55871582031 331529.56387329102 2714736.5225982666 309267.64157104492 109986.82719421387 421908.85803222656 88352.486999511719 912634.68087768555 3666725.0325927734 88063.890518188477 104756.0354309082 70325.451171875 337182.72184753418 164137.53945922852 71563.934783935547 87179.69743347168 72177.584518432617 377120.65017700195 6309015.7766571045 271878.20533752441 2313936.1698303223 3604103.7433166504 733444.43788146973 1684624.6751403809 501362.72660827637 76243.762603759766 49555.651519775391 202621.02569580078 9979921.276550293 139790.80931091309 233740.73645019531 1903488.6154327393 58285.283203125 125242.40087890625 82881.877807617188 269878.10426330566 455209.57717895508 44156.210906982422 79719.197738647461 595002.90733337402 515828.68112182617 3792992.1068725586 134798.64428710938 91303.551574707031 1141293.3469085693 120419.57218933105 364812.73597717285 265521.80778503418 572380.95254516602 88774.004516601562 78081.667098999023 104930.77032470703 123440.94555664062 154793.07699584961 192937.71754455566 913378.27516174316 493528.17288208008 729035.11053466797 4577548.1490631104 823938.10191345215 339702.93206787109 90131.863037109375 1327702.3071594238 94679.089385986328 183152.56353759766 1347239.3561706543 528154.50325012207 55306.151062011719 104859.62811279297 1493048.5382537842 358082.4483795166 1072846.1614379883 564081.20190429688 166925.94511413574 906544.90077209473 1197060.6090545654 3480333.9769287109 134547.43859863281 1034802.3207244873 2536727.7833099365 1636698.1579589844 373348.26872253418 1747341.3094787598 389140.42863464355 129871.30319213867 116718.85646057129 672227.80606079102 951021.10673522949 95545.652969360352 535423.59585571289 4203291.7620849609 706394.60198974609 75821.730316162109 1397369.6960906982 49525.756698608398 91866.034301757812 1041994.9602203369 85806.818511962891 1691187.740020752 368000.27711486816 5940317.6359558105 1204353.3984069824 79429.9248046875 1899798.2386016846 2291555.0855712891 4841901.6612091064 47326.523635864258 314598.38864135742 58984.343353271484 215441.54679870605 117512.09870910645 214670.22392272949 2151060.4031066895 3851340.157989502 125666.22554016113 81698.925552368164 1326737.708770752 193091.37619018555 317175.80894470215 416570.75347900391 107844.02404785156 639622.91413879395 441301.75506591797 107504.44413757324 120526.2991027832
leaf_count=3683 82403 1831 1641 2432 1677 402 1224 320 5263 18539 377 505 123 1426 589 211 189 327 1592 3084 1415 2678 19716 2891 3254 796 300 179 1038 60800 844 1073 11422 369 89 356 1248 1964 105 216 2669 1850 22048 413 209 1835 248 1046 1632 1011 332 201 503 506 360 1219 4464 1737 2002 1192 2258 1261 464 1825 355 312 6880 2279 274 579 7474 1695 4196 803 901 3758 1772 19784 364 1683 11227 9562 1681 9141 890 334 673 3364 4569 385 2621 25279 3738 176 3179 153 454 5495 316 1961 1934 31204 3999 373 10059 13089 3411 167 1103 305 637 330 375 10430 21188 481 409 7213 783 1500 679 347 3173 1943 620 576
internal_value=8.42225 8.61227 8.32012 8.66703 8.43328 8.36877 8.44876 8.61323 8.28203 8.36032 8.3724 8.50714 8.61848 8.36703 8.39254 8.52516 8.31511 8.63641 8.41361 8.71477 8.31175 8.63959 8.30373 8.40158 8.58541 8.583 8.58284 8.47534 8.40787 8.2621 8.32971 8.3651 8.30177 8.34771 8.59572 8.37146 8.40936 8.3623 8.37575 8.40211 8.38511 8.41364 8.2892 8.57511 8.49531 8.64561 8.51956 8.49808 8.2968 8.58435 8.5665 8.3733 8.44964 8.37006 8.59359 8.31565 8.36904 8.45763 8.50806 8.72731 8.55525 8.45512 8.42485 8.63893 8.61715 8.56589 8.32707 8.43274 8.45157 8.34272 8.36838 8.3621 8.43295 8.61385 8.371 8.44193 8.64446 8.30813 8.48343 8.6332 8.39895 8.27196 8.37896 8.33353 8.55306 8.51161 8.3586 8.36788 8.38477 8.35982 8.34464 8.28309 8.30744 8.55886 8.56959 8.49515 8.41363 8.34605 8.51417 8.65498 8.31081 8.33576 8.48605 8.43098 8.3403 8.30479 8.69672 8.36437 8.4467 8.43466 8.54705 8.61845 8.58827 8.37189 8.30964 8.48607 8.39875 8.31102 8.3779 8.39921 8.6127 8.46257 8.36872 8.3784 8.34488 8.40304
internal_weight=1.30034e+08 4.54573e+07 8.45763e+07 3.48076e+07 1.06498e+07 3.71442e+07 3.55026e+06 1.63644e+07 4.74321e+07 3.3594e+07 2.65097e+07 5.03532e+06 1.60172e+07 5.61445e+06 1.45978e+07 4.44519e+06 7.08425e+06 1.03872e+07 8.25861e+06 1.84432e+07 6.99707e+06 1.01856e+07 2.27116e+07 2.62699e+06 5.63001e+06 923272 1.41975e+06 201580 7.83468e+06 2.47205e+07 2.98352e+06 6.3392e+06 5.97469e+06 1.19119e+07 1.29288e+06 590125 2.63093e+06 6.17506e+06 3.5061e+06 6.98331e+06 2.82159e+06 4.16172e+06 1.02357e+07 869644 163481 9.316e+06 423925 3.02544e+06 5.53496e+06 1.16764e+06 3.3813e+06 3.46194e+06 183012 1.02237e+06 706162 1.2476e+07 3.27893e+06 598284 2.42716e+06 1.08866e+07 2.47171e+06 851371 280858 7.00206e+06 1.41912e+06 277832 4.95134e+06 733540 126870 2.36534e+06 2.08805e+06 2.82372e+06 1.34272e+06 2.24871e+06 347144 1.42237e+06 5.58294e+06 7.52461e+06 474250 2.69469e+06 2.73935e+06 1.16166e+07 478208 1.88713e+06 595255 206115 912388 795669 1.2882e+06 5.91333e+06 2.66896e+06 7.99628e+06 3.63147e+06 2.38294e+06 1.559e+06 1.69812e+06 180219 1.40008e+06 161629 2.88825e+06 3.36595e+06 5.9986e+06 1.33331e+06 128956 2.43522e+06 2.65956e+06 7.55664e+06 439731 1.10703e+06 792429 335861 1.36698e+06 332182 2.24661e+06 7.33167e+06 205385 131255 2.23937e+06 1.42365e+06 510267 571364 190726 1.51996e+06 1.08092e+06 439034 167853
internal_count=544511 82903 461608 39768 43135 180253 13696 29649 281355 166557 127450 15768 27974 27367 66523 12924 39107 15825 35471 10119 38918 15114 128590 11676 12149 2020 3109 711 34209 152765 15928 31052 33973 60927 2624 2844 11439 30463 16710 30992 13119 17873 59803 1988 536 13126 1262 9815 31815 2535 8092 16605 704 4945 1452 68787 15901 2242 7573 4276 6261 3217 1167 10448 2502 667 26596 2976 485 12245 10143 13937 5444 4057 1675 5608 7946 42191 1625 4213 12265 70362 2260 9985 1524 634 4543 3870 5995 29354 13753 47327 20393 5929 3671 5571 774 7190 492 3733 18761 31573 4525 526 12680 15023 5843 2158 4299 3196 885 2388 705 10815 40972 697 588 12476 6747 2283 1039 703 7377 5116 2261 743
cat_boundaries=0 6 12 13 17 49 54 84 85 114 136 169 200 232 236 237 270 275 276 309 341 344 345 378 401 434 437 470 496 513 545 577 578 610 611 644 676 677 678 709 710 740 770 803 807 834 865 894 927 932 933 937 970 976 1004 1036 1069 1101 1131 1153
cat_threshold=1378623488 1074823568 4 8 8388612 64 6160 541065216 67108864 243274263 32 2 1 1006641481 4492 12288 8196 512 0 1 0 0 67108865 2415920128 1048576 0 0 0 1048576 1638400 0 2147483648 2147549184 0 0 0 1073741824 8 0 2 8192 0 8388624 16785408 65538 0 1 536870912 1029 2219982856 9179212 1073741824 805307520 8 0 0 0 0 512 2097152 0 0 0 8 67108864 256 134217728 0 1048576 33562640 0 536870912 1 2 33562624 0 1082195968 65536 0 33619968 4 16777216 262144 134217728 1 0 0 512 0 0 0 33554432 64 0 0 0 0 0 256 4 536870912 0 0 0 0 0 0 0 8192 0 134217728 0 16777216 8192 0 0 0 0 0 0 0 0 0 0 0 0 0 0 32 536870912 0 1073741824 0 0 4096 536870912 262144 0 0 16 0 4096 128 1073741824 0 0 64 0 0 2147483648 32960 67108865 4128 268435456 16384 71335936 33554432 67108938 2147485696 2097152 0 0 33554568 0 16 0 0 0 2048 4608 260 0 128 0 0 268435456 1048576 0 0 0 1048576 33554432 2147483648 2147483776 2147483650 0 0 131072 1073741952 8 0 3 2097152 0 0 16777216 65538 16 8193 536870912 0 0 0 0 0 151519232 67121152 0 0 16777216 0 0 262144 135790592 4194304 16 1073774592 272 8192 134283904 64 536871440 0 262144 0 0 0 67108864 2097152 1056768 0 524288 1006674249 134243740 1061376 8192 1 268435456 260 2147483648 128 0 16777216 33554464 0 0 0 33554432 0 8388608 67633152 0 536870912 32768 32 0 2097152 1073741888 536870929 16777216 33570816 0 0 0 131072 2105856 34603008 268435456 0 512 2215645208 786538 3322019840 109057046 32 1 0 553648128 2147483656 0 4194304 0 0 4 0 4194304 192 0 1048576 524288 2097152 0 65536 1075838978 16384 262176 2147487744 536871424 132096 512 4096 134225920 0 0 0 33554432 16 0 4 0 0 0 4194304 0 134217728 512 0 0 8 0 524288 65536 0 0 33554432 272629760 0 0 0 1073741824 268435456 1 0 4608 134217984 0 0 8200 1052704 128 268435456 1137171462 3513794627 134218872 1 268435456 0 268435968 4 268435968 536870912 33587200 64 0 4194304 134217728 0 2149056512 524288 32 0 37748736 256 4096 1073872896 1073741824 16 0 8192 0 33554432 16908288 0 2359296 0 0 0 512 0 0 0 0 0 0 33554432 0 0 0 0 0 0 524288 33554432 0 0 0 0 0 0 0 2147483648 0 0 0 0 0 0 0 0 0 0 0 0 32768 0 1048576 0 0 2048 0 4194304 0 256 0 0 0 0 0 0 0 0 0 0 4 1006739777 134771084 1057282 268435456 0 2147483649 0 4194304 1 1024 0 0 0 402685952 0 1114112 32768 68 0 528384 134218240 671105024 0 1107296256 80 0 8192 0 0 8208 131072 0 0 0 4 512 128 0 0 0 0 0 0 0 0 0 0 0 32768 0 0 16777216 0 67108896 0 0 0 1 0 0 0 8388608 2 0 67108864 0 0 0 1024 0 0 0 64 0 0 0 33554432 0 65536 1025 0 6658 0 0 0 0 128 0 0 16 0 2147483648 134234112 34603040 18874368 1079837184 570425344 262144 65536 524288 0 0 0 0 8192 0 0 278528 0 0 524288 0 0 268435456 0 512 0 134217728 64 0 0 33554432 0 0 0 32 0 268435584 1073741824 0 0 64 2147614720 0 0 16 0 0 0 0 1073742080 0 2147483648 65 1073741824 0 2147483650 4 1536 524288 0 2 268435456 524288 134217728 0 2147516416 524544 0 50331648 557058 2080 0 136314880 1073745921 16 16 0 0 32768 0 0 256 0 0 2147483648 64 1073741824 0 4098 0 0 0 16777216 2 0 1024 134217728 0 32768 0 0 4194312 1048576 0 4194304 0 0 0 16 128 0 1073741824 16 0 256 1074790400 64 524288 2 268435456 512 4194304 16777216 0 671088640 134217728 0 0 0 68157440 256 0 0 1073741824 32 4194304 536875008 12615680 544 67108864 1024 0 64 0 0 268435456 0 6299648 1052672 1024 524288 1 256 0 0 0 1 268435456 131072 0 0 0 0 33554432 2097152 0 0 0 0 1081344 1073741824 0 131072 8192 0 256 0 0 167772160 16384 16781312 1 0 128 1 0 0 67108866 0 0 0 0 0 0 0 0 0 0 0 0 33554432 0 1073741824 0 0 0 16 0 0 0 0 0 0 0 33554432 2 0 0 4 0 0 50331648 128 0 0 0 128 0 1073742080 33554720 16 272629761 256 128 134217728 65536 536870912 16 262208 0 167772160 1 0 135168 1073750016 0 2048 4096 0 268435456 16777218 2147549184 0 0 0 2097152 0 262144 67108864 1048640 268435457 1048576 33554464 4097 0 8256 1 0 0 0 32768 4194304 131072 0 0 1048576 1073741825 2048 2887786993 135214980 1363974 8192 0 64 18 0 4194816 131072 0 4096 0 268435464 0 8192 1048576 262144 18874368 16777376 272893441 268435460 0 131072 65536 67108864 0 0 0 524288 131072 0 0 2147484160 0 2281701376 536870912 0 2 0 4 0 0 135266304 524288 32 67108864 524288 0 8654848 0 2181578752 1744830464 0 128 0 8388608 268435456 128 266240 1073741824 67108864 1026 0 0 0 0 0 0 0 0 0 0 0 134217728 16640 0 0 0 0 0 0 0 0 0 0 0 0 0 0 1 0 0 2 4 0 553648128 0 0 0 0 0 2097152 142606336 524288 16777216 638058752 1409024 16 0 2097160 0 536872963 2147483648 0 0 0 128 0 8192 33554432 0 0 4 538976448 632196 45570 17301504 262144 64 2097152 0 0 8 0 0 2147483648 0 0 0 33554432 0 0 4718592 134217728 0 8192 2147483904 33554432 256 536870912 606076928 138412032 1342439424 0 0 65536 16384 0 1048704 1073742088 4 0 268435456 67108864 134219776 4 16 0 67108864 533 0 2 0 0 0 0 0 0 0 1048576 0 0 0 0 1114112 0 0 2147483648 0 0 0 0 8 0 2 0 0 0 0 65538 0 0 0 16 131072 512 0 67108864 0 0 0 0 32768 0 2097152 256 0 17 32768 0 0 0 16 16384 0 0 0 0 0 0 0 33554432 0 0 2048 0 0 0 0 0 0 0 0 0 0 0 4 33554432 1048577 0 0 0 16384 0 0 128 0 0 0 67108864 0 4096 0 0 4 0 0 67108866 0 512 0 0 0 0 524288 33554496 0 134250496 524544 34603008 100663585 65538 2080 0 4194304 0 0 0 0 0 0 0 0 272385 0 67108864 524288 0 0 0 0 0 2097152 0 0 0 8 0 0 134217728 0 0 8192 0 536870912 0 0 0 0 8388608 0 0 0 4 0 0 134217728 0 0 0 0 0 0 0 0 0 0 0 0 262144 0 0 0 32768 0 0 0 64 16
is_linear=0
shrinkage=1


Tree=1
num_leaves=127
num_cat=58
split_feature=4 24 24 21 31 24 4 24 7 6 24 7 31 24 15 31 21 21 36 63 63 6 63 15 24 63 63 24 63 65 13 24 15 14 63 4 36 24 6 4 4 14 37 13 24 63 65 63 63 50 63 31 63 24 15 63 63 63 31 6 31 21 63 24 63 36 31 63 24 31 24 31 62 12 31 24 15 63 24 63 24 70 62 63 63 36 63 27 63 61 13 28 15 63 6 63 15 65 65 63 37 28 31 63 63 32 31 27 5 65 15 63 63 4 63 63 63 13 32 13 31 65 27 63 24 63
split_gain=1.45829e+08 2.68287e+07 1.06986e+07 6.7625e+06 2.93406e+06 1.62371e+06 1.53403e+06 1.35866e+06 1.14527e+06 992321 769304 672130 643190 544407 510707 425355 401848 398740 328894 296381 279399 267354 248234 204723 190255 154130 141999 139132 128638 126345 129688 126295 115247 111396 100818 100586 100570 99196 96354.3 96176.3 95994.1 89295.2 86102.4 85388.3 84930.5 79404.9 79062.4 78341.5 68876.6 68767.7 67346.7 66942.2 112706 81949.5 66829.5 64833.1 63657.6 63090.2 63114.1 61083.2 60354.7 58306.5 57889.3 55516.2 55083.2 54174.8 53800.6 52977 52420.3 50525.5 48136.1 46151.9 45844.9 45570.5 44520.8 44369.4 42311.3 39775.3 39150.9 38847.8 38704.5 36917.1 39454.8 36791.2 36352.3 36325.9 36184.1 36142.9 35995.2 35464.9 35372.3 35093.2 34400.4 34335.1 34062.1 34057.1 34003.2 33490.7 33313.3 33168.8 32812.1 50656.3 32098.4 31614.2 31168.7 31065.2 29585.4 29472 28396.3 27604.8 26725.5 30121.3 25671.7 25418.9 25296.3 24933.5 24897.6 24521.8 24467.8 24078.6 23423.7 25544.5 23141.6 22799.4 22692.4 22662.8
threshold=0 7379.6172645985407 1661.1632729468604 1.0000000180025095e-35 2590.1624820720781 3011.9422125435544 1 742.92818467200698 46.500000000000007 2 12797.224882675539 1.0000000180025095e-35 9449.9863687772286 2173.7630484693882 3 5708.3827664931996 59905.805000000008 96081.49000000002 2777.3054322662788 4 5 6 7 8 14240.462965686276 9 10 367.85102543290049 11 7.5000000000000009 10177.507164936151 851.9532731729056 12 13 14 15 1891.7201041828946 6128.1605375064191 16 17 18 19 3843.0876630098137 11899.467685309102 3673.2207755813956 20 7.5000000000000009 21 22 3110.9200000000005 23 5004.8702034007501 24 4347.0476189178144 25 26 27 28 2803.2207781793054 29 22478.056263983977 62728.670000000006 30 2319.7430875000005 31 1881.3885423365491 9945.3795378605337 32 15318.251602033133 3642.8499909240841 2379.8775196815573 880.9814688905434 77.500000000000014 33 1335.6092573295903 23432.048484691131 34 35 8329.2653631317571 36 3673.2207755813956 14.477789546592488 207.50000000000003 37 38 7544.0398358348984 39 559.50000000000011 40 13.455140223016906 3291.2542527353198 24.001071428571432 41 42 43 44 45 7.5000000000000009 7.5000000000000009 46 5158.6024691144657 418.48082120582126 6801.4499045396415 47 48 3558893.3700000006 1549.554332165811 229.50000000000003 16.976332041072048 6.5000000000000009 49 50 51 52 53 54 55 9862.2898258185523 1082949.03 4011.3398598868152 5004.8702034007501 7.5000000000000009 129.50000000000003 56 1157.598225925926 57
decision_type=9 2 2 2 2 2 9 2 8 1 2 10 2 2 9 2 2 2 8 9 9 1 9 9 2 9 9 2 9 2 2 2 9 9 9 9 8 2 1 9 9 9 10 2 2 9 2 9 9 10 9 2 9 2 9 9 9 9 2 1 2 2 9 2 9 10 2 9 2 2 2 2 2 9 2 2 9 9 2 9 2 2 2 9 9 10 9 2 9 10 2 2 9 9 1 9 9 2 2 9 8 2 2 9 9 2 2 2 2 2 9 9 9 9 9 9 9 2 2 2 2 2 2 9 2 9
left_child=1 4 7 8 13 23 10 27 12 16 37 41 24 31 19 55 20 61 26 42 49 35 46 38 50 -17 -14 -2 78 30 48 -1 70 66 68 124 93 80 40 118 -4 -6 -11 -32 103 117 59 -43 -16 92 -3 53 98 -38 71 65 -19 87 -59 -20 100 -5 108 -40 -41 -13 -27 -62 -24 123 -25 -23 83 -56 79 -26 -10 -42 -21 -33 -7 -80 -83 -48 107 105 -55 -47 -65 -12 -76 -66 97 -30 -29 -50 -37 125 119 -78 101 -36 -44 -15 -46 -35 -105 -52 -54 -34 111 -93 -90 -82 -74 -73 -60 -31 -22 -53 -86 122 -122 -57 -9 -8
right_child=2 3 5 17 11 6 9 21 76 14 89 15 18 44 29 25 -18 56 22 28 39 54 34 32 75 33 -28 94 36 45 43 74 109 85 60 96 51 -39 63 64 77 47 102 -45 104 57 72 -49 95 -51 84 52 62 86 73 69 -58 58 116 -61 67 -63 -64 88 91 -67 -68 -69 -70 -71 -72 115 114 -75 90 -77 99 -79 81 -81 113 82 -84 -85 120 -87 -88 -89 112 -91 -92 110 -94 -95 -96 -97 -98 -99 -100 -101 -102 -103 -104 106 -106 -107 -108 -109 -110 -111 -112 -113 -114 -115 -116 -117 -118 -119 -120 -121 121 -123 -124 -125 -126 -127
leaf_value=-0.13576990538667205 -0.16714990994160753 0.15361689036284493 -0.052952775296093046 0.24822311466291433 -0.11206909586186301 -0.02842615150375212 -0.10001241653545678 -0.1191972119463743 -0.11116165515619435 -0.0057232141892220156 0.1892509387947211 -0.044028953405165126 0.17303382433412939 -0.058844954819281793 0.034588976188866909 -0.0052032815853408484 0.15880065351922512 0.31051105777068011 -0.011904397071174392 0.015540290120857643 -0.034946053692598719 -0.09958988209610542 0.18734608682836315 -0.087960413199860865 0.16213398697412554 0.16612783598792982 -0.028351205674981759 -0.15033907538280733 -0.022174859923913579 -0.013621439737627973 0.15541840499798926 -0.14827432512047506 -0.13461461977212433 0.11724429496605557 0.18935634199649062 -0.12711988146487355 -0.015583833749527994 0.064074614970949309 -0.064581657755356389 -0.078356131357693176 -0.052957099341279214 0.033548579505852286 0.078275015452823143 -0.014942019300561271 -0.060543159882035499 -0.039334266067150507 0.16156971382552379 -0.076933725734712674 -0.092476784990541919 0.073610922493719672 0.098197635717218651 0.016577319556341206 -0.020454977714553284 0.055117720252983615 -0.16927383035263366 0.090051584165435308 0.28953506702479592 -0.045066415054677095 -0.051472877058552031 0.13312641618317261 0.18664104616275143 0.26891074805508292 -0.057393478378996297 0.0018627452348233746 -0.01107082456668807 0.047611304230783372 0.2394216507357512 0.092294325934827184 0.22556078581352679 0.090442064013368725 -0.068346406552670505 -0.037799494376930989 0.1204164368057459 -0.10988979308618027 -0.083992162692886993 0.20155470897785105 0.019654696005952724 -0.10995921052051902 -0.0048509034198515296 -0.077521877989570637 0.050739295342744878 0.04994591661863651 0.15658317417137013 0.058850706126059298 0.10415052177134325 0.17212129429543538 0.010605529909756432 0.072621515863004943 -0.089856104420819954 0.12148805515796457 -0.01847022230192677 -0.09650824505205878 -0.075375361530795132 -0.082838792264162131 -0.12911302659074911 -0.034800267307916473 -0.14263769732821044 0.085539731107904401 -0.0017720686686399571 -0.072769918750670348 0.20180617901168255 0.11553798139291424 0.14902043678706298 -0.034201649413602729 0.026437675399539794 0.035503958652151245 -0.00030791157547344566 0.0042508273830624216 0.0730730690821602 -0.10166927266351403 -0.14678604129191164 -0.13280635209110578 -0.043899144975738456 0.0052968170011567037 0.18168290157145639 -0.081632663212969331 -0.085051274978657374 0.079390722684330978 -0.11039569976060508 0.099833057883485329 0.13306026095940804 0.13542230635671643 0.04175131623298934 0.047618270578708662 -0.095083095633741163 0.011615518397964092
leaf_weight=564119.17437744141 10596967.015609741 937804.57405090332 901062.88084411621 2938411.3213500977 191720.02651977539 363893.45722961426 43235.735321044922 1031812.6401672363 100693.31387329102 107871.81672668457 487976.69842529297 108175.2745513916 78272.819549560547 326711.75671386719 179730.16835021973 90517.264221191406 84684.968811035156 3413333.5545654297 73356.924667358398 612815.66989135742 244105.51628112793 4308534.0874938965 598320.45111083984 5422074.0284881592 1652279.3087005615 462105.55656433105 129235.34390258789 9084831.6154937744 194205.40187072754 197721.43505859375 91190.613082885742 115594.25450134277 709907.92742919922 446206.38688659668 789975.83235168457 3806565.4698944092 2058892.3880004883 551231.10597229004 3939182.1687164307 354672.52522277832 197776.32037353516 213416.2746887207 174109.03756713867 74380.459411621094 61956.934524536133 720489.60687255859 91213.100555419922 153729.66189575195 172335.50578308105 101178.75726318359 164407.16209411621 102011.76124572754 601892.81239318848 340273.96734619141 186876.80252075195 219862.16117858887 4939942.1823272705 979095.48199462891 357969.11410522461 90101.058135986328 189089.2720489502 5352390.447845459 1161440.3810119629 227903.92073059082 34982.128295898438 529456.53421020508 199720.05169677734 147658.88970947266 3035754.3655853271 1275779.1100158691 2567072.4443359375 212157.48971557617 112317.53890991211 4887390.3280334473 179738.3931427002 523524.9641418457 129407.57498168945 1236608.3590545654 68511.215301513672 1661213.3072662354 233057.94856262207 112611.25086975098 84608.794097900391 103884.37640380859 749627.8318939209 145151.56973266602 1006262.6823730469 42520.152435302734 181297.61633300781 137943.73945617676 317163.71405029297 487998.05557250977 165157.30891418457 392537.99401855469 1190655.3785400391 825016.34269714355 4073259.3591156006 46745.800323486328 486891.10787963867 92849.466827392578 3842980.7718505859 154806.4578704834 183329.99272155762 758791.99069213867 772341.36553955078 75725.945007324219 679908.35676574707 64829.735733032227 48870.329147338867 706617.11659240723 843356.84986877441 917314.54846191406 2548584.9845275879 647744.33261108398 575926.14657592773 1220740.3222961426 2184904.5841827393 49309.829055786133 79285.914810180664 91982.620193481445 72979.039337158203 1272334.6017456055 82157.376647949219 890751.90156555176 1147895.0745544434 61108.421005249023
leaf_count=3639 74165 1917 4559 2732 1140 1704 247 6375 598 460 790 530 142 1657 680 388 169 921 324 2427 1174 25080 973 30470 3196 866 599 60918 882 876 198 768 4546 1119 1273 23987 9162 1802 20631 1957 1018 806 527 336 309 3489 179 833 968 331 454 393 2725 1158 1311 637 2407 4831 1802 207 310 3776 5942 964 163 1838 210 409 3612 3677 13684 1042 274 29278 985 764 513 7408 282 9051 801 390 181 339 2010 270 4059 137 998 337 1435 2846 890 2111 7537 3959 26739 146 2063 496 5601 387 395 3583 2946 273 2874 262 163 4110 5555 5816 12472 2648 978 6717 12042 158 472 262 168 2887 294 3080 6590 255
internal_value=-0.000896623 0.174511 -0.0950754 0.227375 0.00994327 -0.0499735 -0.0262523 -0.136374 0.172227 -0.0386547 0.0616639 0.0751639 0.1768 -0.0500571 -0.0243917 0.0905035 -0.0950828 0.279911 0.194628 -0.00465913 -0.101445 -0.115088 0.197739 -0.0749056 0.14446 0.143792 0.047619 -0.157663 -0.0104304 -0.0506891 -0.018896 -0.0857936 -0.0871583 0.15394 0.204231 -0.128935 -0.0161707 0.0224021 -0.0624227 -0.114183 -0.0831387 -0.0467995 0.0866734 0.0788864 -0.0110473 -0.0601082 0.143425 -0.0127129 -0.0326503 -0.0110634 0.126789 -0.0115362 -0.0262281 -0.000780429 -0.10221 0.0654908 0.298107 -0.0638584 -0.0705229 0.0680393 0.193566 0.261579 -0.0416067 -0.055408 -0.121629 0.0320639 0.188243 0.14528 0.219268 0.0744218 -0.0816579 -0.0934886 0.157376 -0.112077 -0.0733942 0.171619 -0.0477103 -0.1021 0.0319431 -0.0821261 0.00394687 0.0697715 0.0956941 0.106886 0.116333 0.119904 0.0218544 -0.0330949 -0.0431905 0.174317 -0.0421707 -0.128349 -0.038154 -0.0627615 -0.14788 -0.0447672 -0.135142 0.00253762 0.014703 -0.0189579 0.196963 0.177261 0.11456 -0.0257091 0.0199779 0.105385 -0.0181838 0.0716257 -0.0134311 -0.118179 -0.130174 -0.120203 -0.0469516 0.0173214 0.171689 -0.0751435 -0.0803249 0.00494451 -0.0534424 0.0560532 0.12104 0.12991 0.0847048 0.0560198 -0.106498 -0.0346468
internal_weight=1.22915e+08 4.29397e+07 7.99752e+07 3.24999e+07 1.04399e+07 3.82275e+07 1.95895e+07 4.17477e+07 1.58558e+07 1.71676e+07 2.42185e+06 5.00232e+06 1.55328e+07 5.43754e+06 1.37038e+07 4.44345e+06 3.46383e+06 1.66441e+07 1.00129e+07 7.82912e+06 3.37914e+06 2.08752e+07 9.80539e+06 1.86381e+07 5.51994e+06 1.41943e+06 207508 2.08725e+07 7.36381e+06 5.87466e+06 1.34265e+06 2.83783e+06 9.40567e+06 1.32891e+06 8.75859e+06 1.00595e+07 6.48526e+06 1.79593e+06 9.23242e+06 2.96172e+06 2.33545e+06 558866 465311 165571 2.59971e+06 4.53201e+06 1.0468e+06 367146 1.17708e+06 417426 3.34414e+06 5.89852e+06 2.49309e+06 3.40543e+06 1.08157e+07 3.02402e+06 8.35328e+06 4.28498e+06 3.52197e+06 163458 5.12451e+06 8.2908e+06 1.8122e+06 6.89697e+06 2.63832e+06 637632 661826 336748 3.63407e+06 2.38639e+06 7.98915e+06 5.74143e+06 883341 5.07427e+06 2.27371e+06 2.1758e+06 322950 1.43438e+06 878547 1.77681e+06 1.2447e+06 265731 197220 195097 2.40634e+06 667084 1.34654e+06 763010 2.95779e+06 625920 496902 2.28365e+06 316247 586743 1.02755e+07 997352 7.87982e+06 151090 680885 222257 4.78776e+06 944782 357439 1.76541e+06 834298 521932 1.4387e+06 229237 650763 1.41653e+06 2.24867e+06 1.40531e+06 2.72988e+06 880802 688244 1.4329e+06 2.54287e+06 247031 323391 193994 2.1771e+06 1.42747e+06 155136 1.11061e+06 2.17971e+06 104344
internal_count=543676 81916 461760 39002 42914 192021 91161 269739 29166 83079 8082 15667 27559 27247 63058 12888 20021 9836 15607 33582 19852 127119 14866 100860 11952 3126 741 142620 32200 29476 6141 15878 52810 2738 12565 63691 28920 6955 48050 17983 12985 2779 1382 534 11369 23335 2301 1639 5607 1869 7992 25927 11548 14379 63428 9762 3328 22301 18675 531 7980 6508 8830 35065 16337 2368 1076 719 4585 7394 44154 32839 1770 30589 12239 3960 1607 8426 3280 9819 5153 853 571 518 6075 1662 5217 3626 14434 1127 2420 14380 1538 2993 68455 4927 50726 648 2718 1009 7261 1660 922 8114 3255 1392 6457 716 2888 8656 14217 8662 13470 3449 1252 7759 13844 1034 1646 655 5359 3349 462 3717 12965 502
cat_boundaries=0 6 12 13 17 49 82 83 113 118 148 170 203 207 208 241 246 247 252 257 258 291 317 350 383 416 420 452 480 512 513 545 575 601 602 603 636 667 683 712 744 776 778 808 809 840 844 873 906 936 942 973 1005 1010 1040 1072 1104 1135 1167
cat_threshold=1378623488 1074823568 4 8 8388612 64 6160 536870912 67108864 243275287 32 2 1 939532617 4380 12288 4 262656 0 1 262144 0 1 2415919104 1048576 0 0 0 1048576 1638400 0 2147483776 2147549184 0 0 0 1073741824 8 2 2 8192 0 8388608 16785408 65538 2097168 1 536870912 5 0 0 2214592512 268435456 0 134742016 0 0 0 0 0 0 32768 135790592 132 16 1073774592 16 8192 128 524288 536872720 0 262144 0 0 0 67108864 2149842944 0 0 134742016 4 1 0 0 0 0 512 2097152 0 0 0 8 67108880 2097408 134217728 0 1048576 33595408 0 536870912 1 2 33562624 0 1082196224 65536 0 33619968 4 16777216 262144 134217728 1008738633 134495628 277934592 532484 262144 0 0 512 0 0 0 33554432 64 0 0 0 0 0 256 4 536870912 0 0 0 0 0 0 0 0 0 134217728 0 83886080 8192 33554432 0 0 0 0 0 0 0 0 0 0 0 0 0 0 32 536870912 1048576 1073741824 0 0 20480 536870912 0 0 2147483648 16 0 67112960 128 1073741824 0 0 64 0 0 2147483648 32832 335544321 34 268435456 0 4227072 33554432 67108936 2147485696 2097152 0 16 33554568 0 0 0 262144 1024 2048 3222358710 1819136 1074006018 16793602 34 2 553648128 2147483656 0 4194304 0 0 4 0 4194304 192 0 1048576 0 2097280 0 65536 1075838978 16384 16416 2147483648 536871424 131072 512 4096 134225920 0 0 0 1107296256 16 0 4 2215776280 786542 3288465408 109057046 32 1 2218852488 76 1077936128 0 8 2235667480 9179144 67108864 813699093 64 268 4608 4 1 0 4194304 16777216 1024 0 0 0 0 0 33554432 2147516416 2147483776 0 1056768 33554944 0 0 1107296264 64 2147483649 0 0 0 54534144 65536 16 1 0 1025 2048 2 0 67108864 0 0 0 1024 0 536870912 0 0 0 0 0 33554432 0 65536 0 4 0 0 0 0 0 0 33554432 268435456 256 0 4 0 1 268435584 1048576 268435456 524288 134217728 0 33554496 524288 64 2415919105 2 536870912 0 1073741824 33554432 1 2 8192 0 0 16777216 2 8192 0 536870912 0 516 268435456 0 268435968 4 268435968 536870912 33587200 192 0 4194304 0 0 2148532224 524288 32 0 37748736 256 20480 1073872896 1073741888 16 0 270336 0 33554432 16777216 0 262144 0 0 0 512 268436480 260 2560 0 0 0 32 0 0 0 33554448 0 8388608 67633152 32 536870912 33280 536870944 16384 2097152 1074266112 536870929 16777216 33554432 0 0 0 0 8192 34603008 268435456 0 512 1006739817 134772100 1083187712 128 0 0 8 4194304 0 134217728 0 0 0 8 0 524288 0 0 0 33554432 272695296 256 0 0 1073741824 268435456 1 0 4608 134217984 0 0 8200 269488160 128 268435456 0 0 268435458 0 0 536870913 0 0 0 0 0 0 0 524288 0 33554944 65536 0 0 0 34078720 536870912 0 0 0 256 16777216 2147483648 0 0 2147488258 0 0 536870912 33554432 0 0 0 0 2048 134283264 2097152 64 590848 67633152 32 16384 4194440 1 134217728 2052 0 128 0 16 131072 2048 0 1114112 2147483648 1 1 0 4098 0 512 16777216 33554432 130 0 64 0 256 2281701376 134217728 33554432 2097152 1075646464 33554432 0 65536 0 134217728 16 16384 0 73728 0 0 278528 0 0 524288 0 0 8 4 0 16777216 234885120 128 67633152 524288 134234112 1 8192 2147746048 1107296768 9 0 2336 0 1073741824 64 0 0 16384 0 0 0 0 0 268435456 0 0 268435456 0 0 0 0 0 0 0 0 0 0 0 576 520 0 4 0 0 0 0 0 0 0 268435488 64 268519172 0 0 0 0 0 524288 33554432 4 0 4194304 134217728 0 0 540672 4751360 0 2 0 138936320 402981376 41947136 536870976 0 0 0 1048576 0 0 0 1048576 67108864 2048 4 0 0 0 1 268435456 0 0 0 0 0 33554432 2097152 0 0 0 0 1081344 0 0 131072 8192 256 0 0 0 33554432 16384 16777216 1 0 128 0 0 0 0 0 0 0 0 0 8 0 2097152 0 0 0 32768 1073741952 0 0 0 0 262144 0 0 0 525312 0 0 32768 0 0 553648128 0 32 0 8 4096 0 0 0 0 8388608 0 0 33554432 1073741824 0 0 0 1536 524288 1024 0 268435456 524288 134217728 0 2147483648 524544 0 33554432 557056 0 4194304 136314880 1 16 16 0 0 0 0 16777216 8192 0 0 2147483648 67108864 65536 0 144 131072 544 0 67108864 0 12 32768 0 8486912 0 2097152 8448 0 67108865 32768 32768 8 0 16 16384 0 0 0 128 2147753984 536870912 0 33554432 268435776 655364 2048 0 4104 4 2147483648 0 0 128 0 0 33554432 4096 8388608 0 0 587202560 32769 1073742080 0 0 2147491840 4194304 4 0 4096 0 0 1073741824 4353 1073760256 1 2 0 67637248 0 0 134479872 167772160 0 0 0 0 0 2147483648 256 34078752 32 4194304 268435488 0 147456 548864 1073741824 2147483648 0 0 4194304 1 67108864 2101248 0 8192 3154125273 669572 269795334 34103296 1026 0 67108864 0 0 0 0 0 0 0 0 0 134217728 540928 0 0 0 0 0 2097152 0 536870912 0 0 0 33554432 0 0 1 1024 65536 67109376 0 1024 536870912 0 2 0 524288 134217792 0 0 0 16777344 0 128 12 2097152 8 1107296256 2147483648 0 1073750144 16 2048 32 134217728 327680 0 0 32 4 0 0 0 0 1024 0 0 0 0 524288 0 0 0 0 0 0 268435584 0 0 0 0 0 0 0 0 8192 0 0 0 256 472924667 763808 1048576 0 0 4 1026 33554432 0 0 0 0 0 134217732 0 4 0 2097152 134217728 0 1048576 570425600 0 538968064 33554432 0 24576 4194304 65556 0 0 33587200 8 2 4097 1207959552 67108864 0 0 0 0 272629760 0 0 0 0 0 67109024 257 2147483648 1048576 16777216 528 2129952 256 0 1077936130 0 2147483648 0 2147483712 0 134230272 4096 0 1024 4096 0 268435456 4096 536870912 0 67112962 32 0 0 0 0 0 0 0 0 0 8 0 0 134217728 0 0 8192 0 536870912 0 0 33554432 0 8388608 0 0 0 4 0 0 134217728 8 0 0 16 0 0 67108864 0 67108864 0 0 0 2147483648 0 0 536870912 268500994 0 0 64 1074798600 268435456 2148532240 33562784 0 33562640 0 67108864 73728 33570816 0 1073741824 268435472 2147483648 0 4 268435456 0 32 128 268435456 8 134217728 256 0 201850880 1048576 536870912 262658 1610612736 536870912 0 64 0 25165824 0 0 0 0 0 270848 0 335544320 268435456 0 0 512 0 134218760 0 16777216 1052672 0 1024 0 0 1048576 524288 0 256 0 0 12582916 131072 2147504128 1744831488 0 0 0 8388608 268435456 16777344 262144 33554432 67108864 0 0 0 0 0 0 0 0 0 0 0 0 0 524288 0 0 32768 0 0 0 0 272 0 0 0 0 0 0 262144 0 0 524288
is_linear=0
shrinkage=0.118


Tree=2
num_leaves=127
num_cat=70
split_feature=4 24 24 21 31 24 24 4 6 7 7 24 21 24 31 31 15 63 63 6 63 15 12 24 21 63 36 63 24 15 6 4 63 13 63 36 24 63 63 63 15 24 31 24 13 63 21 15 15 12 63 36 63 63 18 65 31 24 24 63 63 31 31 6 28 38 28 63 63 63 63 63 65 63 63 31 4 24 24 36 63 4 6 63 63 63 63 6 63 31 15 36 7 63 63 15 31 37 24 28 63 31 65 20 63 17 31 63 63 63 63 63 63 2 63 63 13 31 63 24 63 63 41 26 63 4
split_gain=1.20702e+08 2.24178e+07 9.71153e+06 6.40067e+06 2.93336e+06 1.44541e+06 1.29841e+06 1.16765e+06 889809 849975 634104 598454 530512 457027 440169 437403 428992 333995 264754 262683 229333 207291 195895 160056 149882 156722 142789 137867 119467 114130 106715 99913.8 97857.3 96503.6 93531 92659.5 86867.7 86149.1 84029.4 76812.1 75780.9 73768 73249.5 72233.1 69499.2 67697.1 66437.1 66230.5 65925.2 65477.7 62583.8 61956.3 58666 57546.3 57237.5 59162.8 56621.2 55832.8 55115 54595.3 52965.7 52651.2 48884.4 47607.2 47568.4 47082.8 63551.5 47031.5 46862.8 46297.5 46094.2 45803 45378.6 44803.4 43104 41584 41199.8 40127.7 39443.3 39401.3 38907.2 38542.3 58587 38213.5 37885.3 37672.9 37419.1 37226.8 35843.4 34642 34603.6 33876.6 33315 33297.4 33291.4 32775.9 32306.6 31766.9 30826.2 30306.1 30230.8 29816.2 29752.3 29163.6 28802.4 27903.9 27761.6 27675.5 27499 27284.8 26795 26771.7 26713.1 25605.9 25267.2 25217.1 24325.7 24098.5 23712.7 23462.6 22308.3 22273.9 21954.3 21614.3 21401 21212.9
threshold=0 8329.2653631317571 1661.1632729468604 1.0000000180025095e-35 2590.1624820720781 742.92818467200698 2923.3173326757792 1 2 46.500000000000007 31.500000000000004 12797.224882675539 96081.49000000002 2173.7630484693882 10325.483198125892 5228.1335480850767 3 4 5 6 7 8 9 350.32893340455843 54406.620000000003 10 2808.3803416666674 11 851.9532731729056 12 13 14 15 1971.9946964623575 16 1843.3145143285872 4347.0476189178144 17 18 19 20 2379.8775196815573 22478.056263983977 2961.6555166152798 1348.3863508354536 21 64453.860000000008 22 23 24 25 3843.0876630098137 26 27 28 7.5000000000000009 5004.8702034007501 4778.0519241573047 1199.2019880952382 29 30 2196.2916079659312 14386.644756085825 31 442.12432432432439 5058.6560715287278 407.83901515151518 32 33 34 35 36 7.5000000000000009 37 38 901.68852713861259 39 8329.2653631317571 19158.058236379056 1881.3885423365491 40 41 42 43 44 45 46 47 48 8267.558026183895 49 3035.4190339918064 1.0000000180025095e-35 50 51 52 9027.202663097527 3696.2659181506006 4347.0476189178144 434.02233009708749 53 3170.0622227225972 6.5000000000000009 54 55 56 662.50303483455616 57 58 59 60 61 62 42.616016427104732 63 64 7349.4611385411054 485.62061456814251 65 204.40889610389613 66 67 964.50000000000011 31.500000000000004 68 69
decision_type=9 2 2 2 2 2 2 9 1 8 8 2 2 2 2 2 9 9 9 1 9 9 9 2 2 9 8 9 2 9 1 9 9 2 9 8 2 9 9 9 9 2 2 2 2 9 2 9 9 9 9 10 9 9 1 2 2 2 2 9 9 2 2 1 2 8 2 9 9 9 9 9 2 9 9 2 9 2 2 8 9 9 1 9 9 9 9 1 9 2 9 8 10 9 9 9 2 8 2 2 9 2 2 9 9 1 2 9 9 9 9 9 9 2 9 9 2 2 9 2 9 9 8 2 9 9
left_child=1 4 5 9 13 23 21 11 17 14 15 36 46 28 27 69 20 72 30 31 51 41 -19 119 25 -17 50 -3 -1 39 38 117 -14 85 62 83 -8 97 -16 -24 67 63 65 110 94 98 -5 59 81 -21 -20 -10 105 -44 55 -27 57 93 106 64 -29 -41 116 76 -39 66 -36 -12 -58 -6 -45 -57 -9 -55 -43 111 -4 -38 -13 113 99 -23 120 -22 -32 -18 -63 -25 -70 -62 124 -73 -77 -54 -37 -60 -56 -35 -46 -11 -53 -81 -50 -104 -78 -47 -51 -49 -59 -87 -15 -30 -31 -71 -72 -76 -28 -7 -94 -2 -83 -65 -91 -100 -33 -117
right_child=2 3 6 12 10 19 7 8 16 80 40 78 32 43 18 24 33 22 26 49 35 48 29 87 -26 54 34 60 75 112 84 90 -34 37 42 44 77 47 -40 61 -42 74 53 70 45 52 -48 107 102 58 -52 100 56 73 96 71 68 108 95 -61 89 86 -64 121 -66 -67 -68 -69 88 79 114 91 -74 -75 115 92 104 -79 -80 101 -82 82 -84 -85 -86 109 -88 -89 -90 122 -92 -93 118 -95 -96 -97 -98 -99 123 -101 -102 -103 103 -105 -106 -107 -108 -109 -110 -111 -112 -113 -114 -115 -116 125 -118 -119 -120 -121 -122 -123 -124 -125 -126 -127
leaf_value=-0.12943591074565799 -0.17197270462011457 0.1661442801263241 -0.056257102006911072 0.2302735181649686 0.10403618168215582 -0.11249429275514566 -0.02006840603958715 0.0098432198699396622 -0.0078738281607208787 -0.039504874149178061 0.026536817638498428 0.093353551351139166 0.30213337735205115 -0.0024719174821584609 0.082237912909246993 -0.039225178815691444 -0.020937887746073466 0.15685472709468393 0.15646488575792497 -0.16722758183200148 -0.0090715634143691774 -0.051922708594436651 -0.040829896482718064 -0.14617939709787828 0.24403583969949474 0.021326165564436582 0.13350318204844355 0.097136659731604277 -0.1580611798025458 -0.09057192651611233 0.072687152445254435 -0.082852224124191312 0.27539565485095135 -0.017151652505948772 0.1650128207632775 -0.0061898520800454451 0.023197386440431733 -0.0028476712245815191 -0.083715403980022626 -0.051645572929935546 -0.092157191089966159 -0.098052770199745315 0.16563920206896424 -0.09752363005216895 -0.0057048679178143399 0.0075601560126160464 0.2521168986188061 -0.022347470178861968 -0.1319416413644314 -0.11161461208672352 0.0047503131589336544 0.14245583620255267 -0.060829804330587559 0.13071897994048137 0.13393758294228642 0.14634476092846899 0.0043319259598913673 0.060777859141820677 -0.07725468205131035 -0.03741335270176753 0.12047682741382357 -0.081132342972628502 0.20889520692324726 -0.017079719346294337 0.097237676253630834 0.1832059921120158 0.066480800861946271 -0.066725825712691575 -0.016980174022181712 0.030580057764595308 0.032768294824254897 0.033035147541241996 0.12273321045038756 0.0066545021933017709 -0.0033808655612113073 -0.090218769964795345 -0.055443198058449598 0.072551195841513511 0.16838584427912759 0.03561587676506775 -0.092922715789852187 -0.076114625052547902 -0.077739081581372466 -0.078073357496348084 0.15658302593967241 -0.046167021747266904 -0.12362830598974517 -0.12361198729575734 -0.05600585796354686 0.12576608211883844 -0.13676092189015546 0.10741874897376422 -0.016449336685659344 -0.0081892415765822506 -0.062851668306822331 -0.094556949313398933 0.18889742872010465 0.078473990613435421 0.032683707226787234 0.060348694623861117 0.071848137286415509 0.063415925752811797 -0.16491601484573348 -0.083560187989231316 -0.10653278347753795 0.053849504199740814 -0.090096014464812441 -0.058913115387191843 0.010690903775303625 -0.077171240330291116 -0.043419624242021115 -0.078698502653383295 -0.13801569418749737 -0.071210621475459535 -0.00017669357815467703 -0.12762878115693521 0.18524106993165199 -0.086895657184889938 -0.056342396879821684 -0.15984630189000745 -0.11917087849104843 -0.063278631930269058 0.15923408963857372 0.088475699282630757 -0.12276406494569668 -0.044881390004699324
leaf_weight=529522.00360107422 4024985.5139389038 1373663.796875 475212.35876464844 3256662.4095611572 261059.15844726562 1005312.416305542 587736.26750183105 121495.1784362793 99864.979629516602 125573.38154602051 216307.90751647949 122675.43881225586 3228446.9412841797 305596.7601776123 131929.72776794434 87122.079879760742 241536.26585388184 41032.680160522461 66199.724761962891 172671.98720550537 158602.85954284668 549930.13192749023 431112.04530334473 8877213.3632049561 134747.09829711914 101901.48393249512 155245.30877685547 874869.80688476562 62850.550811767578 196383.19400024414 100265.20623779297 198403.93769836426 4666428.477935791 80525.45637512207 620777.7350769043 217784.00010681152 982734.47863769531 383259.25733947754 62651.093734741211 286110.98197174072 247930.8307800293 213826.06671142578 197790.43884277344 55975.696258544922 202985.48248291016 910901.51516723633 4791259.8562927246 350049.63887023926 569559.31638336182 2688801.7766113281 88429.141174316406 130874.20877075195 183336.63395690918 83946.477722167969 640918.91310119629 432383.22961425781 431502.18157958984 210141.24885559082 2698778.073928833 727200.39179992676 1962673.7280426025 459611.46801757812 2324024.8667602539 149179.42633056641 79907.120468139648 3957168.3604431152 106831.11468505859 115474.73458862305 548660.23501586914 92325.639465332031 505747.93731689453 94650.730575561523 83760.796295166016 78372.212249755859 205580.2601776123 232866.3692779541 185054.05014038086 299231.75759887695 476371.91923522949 755220.48677062988 114739.96200561523 212550.0576171875 3457392.3423919678 378420.16934204102 297530.69180297852 514115.38784790039 775895.54496002197 1149595.2684402466 813782.64036560059 445505.55601501465 3794196.7466812134 858659.46994018555 353261.73486328125 1913568.9308624268 428443.95364379883 3506066.6672515869 194003.96026611328 121140.21926879883 320355.59880065918 63837.063888549805 238190.24360656738 1860695.2684936523 70096.210021972656 493012.72271728516 907673.80654907227 226396.37847900391 1210684.0414428711 1632625.0973968506 557640.85830688477 1710841.3444976807 818548.26338195801 1018535.9382476807 1048002.1566925049 54854.727127075195 902714.45066833496 43714.498428344727 684267.93646240234 1043654.4596252441 502784.75071716309 4958809.7143249512 794303.18371582031 5643180.7410125732 704477.41064453125 138479.64817810059 3327781.3499145508 3247632.8707733154
leaf_count=3681 31703 2291 2528 3091 668 6529 2703 504 430 625 822 317 936 1317 377 413 1137 100 117 1347 703 2948 2193 65152 112 368 309 2219 469 1204 281 1228 2443 359 1041 943 3708 1707 338 1537 1493 1292 327 320 864 3720 3536 1637 3964 17327 372 265 947 183 1318 836 1817 681 15701 3656 4374 2734 2749 723 218 5746 318 637 2527 347 1862 325 214 277 907 1386 1007 883 777 2636 687 1245 19936 2107 540 2655 5189 7829 4302 942 26977 2070 1659 8379 2201 21643 276 386 1171 216 702 5719 515 2926 5764 767 7381 8687 2237 9700 4081 5863 7366 289 3787 290 975 6325 2694 38128 5161 30942 1246 392 22572 16668
internal_value=-0.000290033 0.16015 -0.0892611 0.212885 0.0192192 -0.130645 -0.0461186 -0.0255608 -0.036339 0.156496 0.0746437 0.0503808 0.264597 -0.0452169 0.160643 0.0868707 -0.0230799 -0.0900589 0.176652 -0.1082 -0.0055191 -0.0698349 -0.0993112 -0.153841 0.122925 0.116153 0.182052 0.133902 -0.0791837 -0.102599 0.100413 -0.12249 0.28633 -0.0474614 0.184169 -0.0104348 0.0174956 -0.0344949 0.0288042 -0.0848004 -0.0428056 -0.0601872 0.174191 -0.00979051 -0.00686214 -0.00317004 0.243278 -0.0392478 -0.0872111 -0.095172 0.0697129 0.0745793 -0.00725264 0.122907 0.121981 0.108104 -0.0131184 -0.00282382 -0.0939404 -0.0172456 0.122794 -0.097258 0.200079 -0.0670264 0.0144191 0.178133 0.150546 -0.00592366 -0.0295574 0.0565359 0.00747958 0.114485 0.0559087 0.0708212 -0.0466217 -0.0669228 -0.0852668 0.0347174 0.15302 0.0520475 -0.0387018 -0.0814024 -0.0850338 -0.0576962 0.135443 -0.0652026 -0.107821 -0.143592 -0.0402903 0.130005 -0.128937 0.100032 -0.0506456 -0.012792 -0.0437573 -0.0870317 0.146708 0.0402885 0.0325831 -0.00585086 0.0968922 0.05539 -0.112925 -0.0936919 -0.0978813 0.0167746 -0.104934 -0.0524574 0.0244006 -0.0700074 -0.0322885 -0.0833133 -0.130529 -0.00735776 0.0116533 -0.0434764 0.175674 -0.099455 -0.0398807 -0.165279 -0.110084 -0.0620889 0.146269 0.0495221 -0.120519 -0.0459808
internal_weight=1.17738e+08 4.20002e+07 7.57381e+07 3.05636e+07 1.14367e+07 3.8657e+07 3.70812e+07 1.98633e+07 1.73945e+07 1.46208e+07 6.14826e+06 2.46875e+06 1.59428e+07 5.2884e+06 1.43166e+07 5.56854e+06 1.39511e+07 3.4434e+06 8.95543e+06 1.96464e+07 8.10993e+06 1.72179e+07 3.23815e+06 1.90106e+07 2.54439e+06 2.40964e+06 8.36305e+06 5.36119e+06 2.69982e+06 3.19712e+06 592377 9.36935e+06 7.89488e+06 5.8412e+06 8.20842e+06 7.641e+06 1.8697e+06 3.37471e+06 194581 1.95273e+06 579713 1.10711e+07 5.04489e+06 2.58858e+06 7.10398e+06 6.45775e+06 8.04792e+06 3.17304e+06 6.14684e+06 1.0277e+07 154629 468929 5.79593e+06 360109 2.32252e+06 1.48759e+06 4.65863e+06 2.86469e+06 1.01043e+07 1.19037e+06 3.98753e+06 1.52162e+06 3.16354e+06 7.3603e+06 463166 4.68478e+06 727609 331783 1.79395e+06 3.02416e+06 1.46444e+06 1.38569e+06 205256 162319 3.71075e+06 2.1703e+06 1.56794e+06 1.28197e+06 599047 2.7631e+06 304150 5.01418e+06 4.46425e+06 537023 397796 2.46649e+06 1.23551e+06 1.00268e+07 1.36244e+06 3.11266e+06 7.32038e+06 953310 1.08891e+06 2.09691e+06 646228 6.20484e+06 834923 201666 661821 189410 369064 2.61592e+06 1.13267e+06 563109 1.09273e+06 1.1373e+06 3.89949e+06 1.98267e+06 767782 2.22496e+06 1.12415e+06 1.08139e+06 1.24439e+06 147180 1.40846e+06 3.49693e+06 839513 2.04897e+06 856046 8.9838e+06 1.00685e+06 5.79236e+06 1.14998e+06 458835 3.52619e+06 3.29135e+06
internal_count=543388 82004 461384 36556 45448 269842 191542 94726 86338 26550 18329 8388 10006 27119 25022 15377 65297 21041 13950 127030 35155 96816 20323 142812 5718 5606 12414 11072 15752 20223 1536 63631 3379 30142 11925 33758 7294 16650 715 11653 2952 60121 7892 11367 30948 27804 6627 15905 36695 63399 489 1397 25377 787 5193 3599 20890 12244 62052 5581 8781 9460 4033 40964 1925 7105 1359 1459 8646 9659 5969 3231 718 460 19157 12071 9299 4591 1094 8991 1528 29290 26342 2810 821 13492 7923 72981 6829 6562 50777 2395 5739 9326 3144 37344 1594 745 2427 841 967 8355 7405 3441 6771 4487 24708 10324 2918 12355 5398 6332 8570 636 5649 17865 1284 12854 4353 69831 6406 31665 2188 1563 23800 16958
cat_boundaries=0 6 12 13 17 49 78 79 111 116 117 146 179 185 186 191 219 252 284 310 343 347 374 376 380 381 403 436 462 463 495 527 528 554 585 617 647 675 704 736 741 770 774 775 805 832 865 895 896 928 932 964 997 1000 1028 1029 1062 1063 1096 1122 1154 1185 1216 1249 1280 1312 1342 1374 1406 1438 1443
cat_threshold=1378623488 1074823568 4 8 8388612 64 6160 541065216 67108864 243275287 32 2 1 1006641481 536972 1060864 8196 0 0 0 0 0 150994944 0 0 0 0 0 0 294912 1048576 0 16 1073774592 16 8192 0 524288 768 0 262144 0 0 0 67108864 2147483648 8192 0 134217728 0 0 0 0 512 2097152 0 0 0 0 67108864 256 0 0 0 100671504 3 536870912 1 134217730 33562624 0 1082130432 0 0 65536 4 0 262144 1 512 0 1 262144 0 67108865 2147484672 1048576 0 0 0 1048576 1638400 2147483648 2147483648 2147483648 4096 0 0 1073741824 8 2 2 2105344 0 8388624 16785408 65538 0 1 536870912 1025 1009789289 800140 9466496 524292 262144 50332672 1 0 512 0 0 0 0 0 0 0 0 0 0 256 4 0 0 0 0 0 0 0 0 0 0 134217728 0 16777216 8192 0 0 0 0 0 0 168067072 128 2097152 524288 0 2097152 2148532224 524288 0 33554944 17408 536870912 0 1073741824 0 144 1073758228 2 0 4096 0 16777216 294912 134217728 0 0 512 1006642160 755456 1060870 2 0 4 1 2215645208 786542 3296854016 109057046 32 0 0 268435458 0 0 536870913 0 0 0 0 0 0 0 524288 4 33554944 65536 0 0 0 34078720 536870912 0 0 0 256 16777216 2147483648 2 553648128 2147483656 0 4194304 0 0 4 0 4194304 192 0 1048576 134742016 2097152 0 536936448 1075838978 16384 32 0 536870912 132096 512 4096 134225920 0 0 0 1073745920 16 0 4 4608 0 2147483649 128 0 1 268435456 0 0 0 134217728 0 34668544 2147483648 2147483776 2147483648 4096 0 278528 1073741824 8 0 2147483651 8192 0 0 8192 196608 16 8193 0 1024 0 0 0 0 0 0 0 0 0 0 67108864 256 0 0 0 33554432 0 0 0 0 0 0 1073741824 0 0 65536 0 0 2214592520 268435460 0 524288 16777216 0 0 524288 0 0 134217728 134742272 128 67109120 65536 1610612768 0 0 8256 536870928 0 16384 0 32768 0 0 2359296 142606336 0 524288 4 8417 0 0 8192 262144 0 2147485696 2097296 0 131072 268435616 1073741826 268435456 0 32832 0 0 0 192 67174401 32 0 4210688 6291456 0 67108872 2147485712 0 0 0 8 2592 17408 3221308054 135514656 2416214018 8210 64 0 0 0 0 0 0 0 0 0 0 0 0 0 0 32 536870912 0 1073741824 0 0 4096 536870912 1024 256 512 0 0 528384 0 0 0 0 33554432 0 8388608 524288 32768 805306368 34306 536870944 0 268435456 302006273 16 0 33554432 0 0 37748864 0 8192 0 262144 0 2560 0 0 268435456 0 0 0 0 0 0 0 0 0 0 0 576 520 0 4 0 0 0 0 0 0 0 268435488 1 268435456 0 0 0 0 16777216 33554432 0 0 524288 64 0 134217728 524288 50331648 620757248 68747264 32 131072 4194304 1107296256 18 0 0 0 0 16777216 0 2105344 268435456 65536 4 0 2147483648 2048 0 0 0 0 16384 0 0 0 0 402653184 256 34078752 620756992 128 0 0 16392 67108866 0 0 536870912 0 8388608 4096 0 33554432 1048576 67108864 2415919104 1 2 0 67108866 0 0 0 1024 0 536870912 0 0 0 0 524288 33554432 0 65536 0 4 16384 0 0 0 0 0 33554432 268437505 4 2 0 512 553648128 33554432 0 0 0 16 256 0 67125248 32 0 1074790400 4 0 65536 1074266112 536870913 16777216 16384 0 65536 0 0 262144 34603008 268435456 0 0 2147483648 16 0 0 50331648 0 0 1028 32 2097152 402685952 0 0 67108864 0 33554432 33570816 512 2147483712 1744831488 128 16384 0 8388640 268435456 0 4 0 0 2621440 1024 0 262144 16 1024 0 0 0 0 0 0 0 0 0 0 0 128 0 0 0 0 0 0 0 16 0 0 128 0 256 0 4 0 4 33554944 0 0 192 0 0 0 2097152 64 524288 33554464 0 128 0 1048576 134217728 0 16 16 0 0 33587200 0 134217728 0 0 0 0 0 0 167772160 0 0 0 0 0 0 0 33554432 0 0 0 0 0 0 0 0 0 0 0 0 0 2097152 0 0 0 0 268435456 0 33554432 128 0 268436480 67108864 0 2147483648 1048576 16777216 512 272630272 256 2147483648 2 268435456 33554432 2 2147483648 0 134226176 135168 0 0 1073745920 0 2415919104 2164461584 4104 1140850688 545259537 64 1026 0 67108866 0 0 0 0 0 0 0 0 0 134217728 16640 33554432 0 0 0 0 2097152 0 536870928 0 0 0 33554432 0 0 1 2231369752 5 3288334336 648024725 1 1073742080 0 4104 0 2147483648 0 0 0 0 0 33554432 1024 8650752 0 0 570425344 32769 268435456 0 16392 8256 4194368 4 0 4096 0 8 1073741824 16781313 1073760256 0 0 0 0 512 0 0 0 0 0 0 0 0 0 0 8192 0 0 0 0 8192 0 8388608 0 0 0 4 528 2304 2 128 268435456 16777218 65536 0 0 0 0 0 0 67125248 0 1 1056768 33554432 4097 128 64 1 4 0 0 32768 4194304 131074 0 33554436 16 1073741824 2048 2 0 0 0 0 0 167772160 134217728 67633152 16388 134217792 2097152 8192 0 1074790944 33554432 16384 2097152 0 128 16384 0 65556 0 0 33562624 8 2 4097 1073741824 1 16777216 536870912 268435456 0 0 0 0 64 0 64 0 1 2281734144 134217728 34603008 2105376 5046272 33554448 537133056 0 64 134217728 131072 0 0 1107337216 0 0 16384 0 0 524288 3156222433 767876 268492806 34086912 268435456 1536 16 0 8388608 671088640 134217728 134217728 262144 0 134217728 0 294912 1048576 0 32 268435456 1207959552 8912896 544 0 128 0 0 0 4194560 268435456 0 6293504 4096 0 524288 0 0 2 0 0 0 134217728 0 0 524288 0 2097152 2147516416 524288 64 1 1581312 0 16384 16384 1 134217729 65536 0 0 34119680 128 0 2367488 33554432 2147483648 0 2048 1006707017 134770948 1057280 0 0 0 0 0 0 0 1048576 0 0 0 0 65536 0 2147483648 2147483648 0 0 0 0 8 2 2 0 0 0 0 65538 524358 0 0 8 0 0 0 33554432 4 0 20971524 0 0 0 524288 35160064 256 536870912 0 134742020 407175680 8404992 0 0 0 0 1048576 1073741832 0 262144 1048576 0 2048 4 1 268435456 0 0 0 2147484160 0 33554432 0 0 8 0 256 143130624 49152 96 33555456 1081344 1073742336 536870912 4194304 1107296256 134217744 0 0 0 0 16777232 0 10240 33554432 0 2147483648 4 0 0 0 0 1536 0 134217728 0 0 524288 134217728 0 2147483648 256 0 33554432 524288 0 524288 134217728 1073741824 0 0 0 0 256 0 4 4096 0 0 134348800 16777216 128 268435456 524288 134217792 0 8650752 134217728 1048640 536870912 67108866 2084 0 268435464 0 16 0 33554432 0 167772160 0 0 8193 268435456 67108864 2147483648 0 536870912 0 4 0 0 50331648 128 0 0 0 128 0 1073742080 1048864 4194320 272629763 256 128 0 73728 536870912 16 64 0 33554432 128 0 135168 1073750016 17 0 0 0 1 0 0 0 0 0 0 0 2097152 0 0 0 0 1081344 0 0 0 0 256 0 0 0 33554432 0 16777216 0 0 128 1024 33554432 0 0 0 0 33559040 0 0 524288 134217792 0 134217728 262144 34603040 0 0 0 33554432 0 2147500032 541065232 2147483664 0 4096 33562624 8 0 0 0 67108864 524288 4 0 0 67108864 0 8388608 0 0 128 0 1024 0 0 2147483648 524288 0 570425344 4259840 67108864 0 4210688 0 2097184 524288 8192 6144 524544 0 134217732 4198400 268435456 128 67108864 0 0 16 131072 512 0 67108864 32768 0 0 0 8486912 0 6422528 8448 0 134217733 32768 2097152 0 0 16 16512 0 0 16 2 67117056 805306368 0 33554432 2 0 276824064 0 33554432 0 0 64 134217728 4194312 33554432 4096 512 0 10485888 8192 272629888 16 0 4194304 2181038080 16 0 0 0 2048 0 16777216 172032 1073741856 2048 0 0 0 0 0 167772160 4 0 4 134217792 0 2147483648 524288 33554432 256 128 256 33570816 272695296 0 536870976 0 139264 0 33554560 0 1073741824 2359296 33554432 67108864 33554432 128 5184 16 0 1077936128 1048592 262144 0 0 0 0 8388608 294912 2097152 0 33554432 0 1073741824 65536 8 0 0 0 131072 0 64 2151677984 4 0 0 262208 268435456 0 32768 0 0 0 134217728 525312 8388608 67108864 4194304 0 256 0 1074003968 64 4194561 32768 0 0 268435456 264 543162368 0 2147484160 4096 0 16 0 17072128 8388608 0 131072 0 4 271585280 2097154 2
is_linear=0
shrinkage=0.118


Tree=3
num_leaves=127
num_cat=61
split_feature=4 31 24 21 24 24 24 4 7 15 21 24 24 63 63 31 6 6 10 15 31 31 7 24 21 36 24 65 37 7 36 63 6 63 4 63 13 63 24 31 21 24 69 4 13 15 36 24 31 63 31 7 28 37 12 63 10 14 24 31 63 5 18 7 63 31 24 63 63 63 63 31 63 4 63 6 63 63 15 15 4 63 15 34 63 63 63 63 24 26 28 63 15 63 65 15 65 65 24 63 65 63 29 24 50 63 2 31 63 31 6 48 15 4 6 63 32 54 63 31 31 20 13 63 63 27
split_gain=9.82224e+07 1.80608e+07 9.35711e+06 5.7058e+06 2.59558e+06 1.44256e+06 1.29949e+06 1.181e+06 1.08043e+06 676800 653917 543846 514067 314223 302902 298867 248600 247342 238146 223325 173448 138224 132649 129248 128901 127162 124214 119744 117747 115676 112908 111732 106474 105589 102654 100566 97221.3 162794 95200.3 94062.6 92529 91809.2 90808.4 89959.8 89389.8 87633.2 82810.4 76959.8 74785.9 70756 68311.7 66145.6 71617.2 74706.1 63946.7 63017 59674.6 58349.5 56008 52615.7 51159.8 50231.5 49766.1 63254.2 55900.6 47759 54572.2 46770.5 45230.4 44628.2 43819 43792.6 43627 42065.9 52511.1 41866.2 41568.1 41523.6 41300.7 40757.6 40359.4 40064.1 39238.8 38382.8 38276.6 37828.9 37103.6 36902.7 35486 34786.9 34628.3 33173.9 31672 30799.6 30552.8 30506.2 30452.6 68077 29984.9 29505.2 29227 28520.2 28088.5 27689.3 27592.5 27233.7 26857.3 25829.8 25823.7 25816.2 25765.3 25242.5 25187.1 24477.4 37230.9 26746 24369.1 39631.4 23920.1 23303.4 23297.3 23177.7 23034.2 22957.5 22756.3 24752
threshold=0 7280.0186481291539 1561.149101871503 1.0000000180025095e-35 3259.9992599219263 3011.9422125435544 650.51578144078155 1 46.500000000000007 2 98287.540000000023 12797.224882675539 7694.6000165016512 3 4 1335.6092573295903 5 6 7 8 10325.483198125892 2803.2207781793054 14.500000000000002 311.24408295575057 191240.07000000004 3506.0385998831157 23432.048484691131 6.5000000000000009 2382.6885773187259 1.0000000180025095e-35 3749.9157601849379 9 10 11 12 13 10377.716512650853 14 1075.350318003914 3275.2658971111227 69902.200000000026 2294.8738311688317 11.500000000000002 15 11899.467685309102 16 3989.8696152672815 4778.0519241573047 3941.3465216862978 17 4397.7856232605836 3.5000000000000004 292.10000000000008 4952.5890622530342 18 19 20 21 13447.933905210646 603.92986317758516 22 16.976332041072048 23 8.5000000000000018 24 4397.7856232605836 5979.8353817114103 25 26 27 28 14386.644756085825 29 30 31 32 33 34 35 36 37 38 39 0.24999999999999972 40 41 42 43 1986.1831790730339 9.5000000000000018 418.48082120582126 44 45 46 6.5000000000000009 47 7.5000000000000009 5.5000000000000009 976.70502150537652 48 7.5000000000000009 49 12.500000000000002 1138.742401402279 3110.9200000000005 50 43.700205338809042 338.96520795747631 51 2145.0447617582072 52 999244.54000000015 53 54 55 56 635822.66000000003 169690477.76500005 57 960.29526466458321 5004.8702034007501 58 3815.3274595783496 59 60 58.500000000000007
decision_type=9 2 2 2 2 2 2 9 8 9 2 2 2 9 9 2 1 1 9 9 2 2 8 2 2 8 2 2 8 10 10 9 1 9 9 9 2 9 2 2 2 2 8 9 2 9 10 2 2 9 2 10 2 8 9 9 9 9 2 2 9 2 1 10 9 2 2 9 9 9 9 2 9 9 9 1 9 9 9 9 9 9 9 2 9 9 9 9 2 2 2 9 9 9 2 9 2 2 2 9 2 9 2 2 10 9 2 2 9 2 1 10 9 9 1 9 2 8 9 2 2 9 2 9 9 2
left_child=1 4 6 8 15 19 23 11 13 14 40 47 21 31 30 38 43 18 33 41 60 81 39 -2 101 62 84 32 49 57 -9 -3 34 -16 -11 71 42 44 107 77 -5 75 48 98 61 88 83 89 105 -19 85 52 -37 -54 -18 102 -29 -23 99 103 -15 -38 63 64 -22 66 -20 -50 -46 100 -40 -27 -43 74 92 80 -24 -17 -58 -61 -4 -6 -10 -33 -14 -31 -35 -75 -21 -7 -59 -80 -57 -51 -47 -45 97 -62 -8 -32 -52 -12 -44 -56 111 -30 -70 -1 -82 -79 -25 -94 -96 -74 -115 -116 117 -93 -83 -77 -89 -41 -48 -36 125 -122
right_child=2 3 5 10 12 7 16 9 82 27 24 -13 26 20 17 22 54 28 65 45 25 29 76 110 -26 35 -28 56 36 50 58 46 -34 86 123 51 37 -39 70 121 -42 72 55 95 68 94 122 -49 67 93 69 -53 53 -55 59 73 78 90 -60 79 96 -63 -64 -65 -66 -67 -68 -69 106 -71 -72 -73 113 87 -76 119 -78 109 91 -81 108 118 -84 -85 -86 -87 -88 120 -90 -91 -92 116 104 -95 112 -97 -98 -99 -100 -101 -102 -103 -104 -105 -106 -107 -108 -109 -110 -111 -112 -113 -114 114 115 -117 -118 -119 -120 -121 124 -123 -124 -125 -126 -127
leaf_value=-0.14497113583649246 -0.16445984896367585 -0.020120765684848586 -0.051404482072855875 0.21311390422975532 0.038783093176775509 -0.022764061662016485 -0.11418627786713249 -0.028355042169244629 -0.011750291274373643 -0.00057515548508267958 0.25087298054565954 0.14122576616738253 0.12604143136289897 0.16037737593807216 -0.014777170740002154 -0.039089294444650237 -0.1652940791280352 0.0083914019201434941 -0.0026272832790362457 -0.084946311292292312 0.080726659776866938 -0.096795752840297761 -0.037886146129988828 -0.14472137493220388 0.29925498775347537 0.15806527957030236 0.16631591418414793 0.015459164363012808 0.024127347564734062 -0.021042868709811893 0.0064573724148423717 -0.011197801499226466 -0.038844525130964522 -0.070962375763284097 -0.082427003429828727 0.15207786230964229 0.081334682988669429 -0.030359469885015429 -0.10737855160696747 0.10726866667841835 0.23808114037893005 -0.092192621477871189 0.027532655785446232 -0.11679968402815578 -0.042009845359267078 -0.1239448186079256 0.067100186478572493 0.045181227540144746 -0.0081146448734613439 -0.021506136356308037 -0.023316404799546265 0.16303631438675614 0.0041551210196478583 0.11934470428864366 -0.10866762381398995 0.00016380047168305034 -0.15611222810526121 0.048201117274300584 0.16189282353482801 -0.066926801503707195 0.13415801542109068 0.19310943682499546 0.14189610017797405 0.13220606364123527 -0.072269078239385096 -0.074663041824892681 0.089296600280460589 -0.063277959932415626 0.011448302684947911 0.090056426347515303 -0.050008519832286491 0.18880256821580521 -0.017093096465153834 0.010772450851804878 -0.014828061795711936 -0.065328042740684183 -0.11502072848627277 -0.005604796210331173 -0.010335395039408005 -0.09043305110223325 -0.049109744595323211 -0.083419383945142311 -0.083581290278873802 0.099307939693827008 0.089878387159319187 0.051108779328591918 -0.11570069249423269 -0.012551269674330907 -0.066621860594651486 0.032059642679908698 -0.06105481489337241 -0.052305146234102706 0.0029662330081336253 -0.062041848066160941 -0.15444068167992941 -0.13199699830734868 0.12336035904390474 -0.011969746504194773 -0.086108512395083756 0.093783076761750211 0.062507679993016096 0.26959487209395999 0.11255824553047908 -0.089747732395327143 0.11777057931965522 -0.019426247321787059 0.09301966442180519 -0.093477829080701957 -0.097633090728785968 0.036564067276817915 -0.12140616870579074 0.054560200354092675 -0.082268219027281514 -0.072144279916478773 0.0050792752434311974 -0.040782973906904676 -0.071907841444744117 0.06764034953918574 0.0012033054384700263 -0.050317451436151323 0.058430172351773259 0.029240723420814661 0.12564078243759327 -0.13261774956314223 -0.06093128800239983 -0.029892840930401864
leaf_weight=186520.41507720947 6895618.8335037231 122418.96519470215 518588.50994110107 4513753.7276763916 485775.88040161133 550817.18034362793 916083.62393951416 122842.74807739258 249593.01527404785 99813.153625488281 1677680.6583251953 758083.5188293457 496087.08590698242 519228.69020080566 244320.90576171875 336148.02490234375 160957.31962585449 327233.05554199219 309078.52335357666 2630736.2563400269 70642.765167236328 85183.256851196289 265161.44164276123 7860009.7452545166 1931581.5373535156 885889.77557373047 404341.06857299805 150734.99787139893 264074.57084655762 108182.12812805176 74936.957221984863 118511.24633789062 326825.81242370605 394461.1999130249 147296.16551971436 1043760.9453735352 147584.60447692871 391143.25717163086 207959.82856750488 144824.17710876465 3812579.9249725342 228574.82247924805 349394.7264251709 3310333.9924316406 91335.641159057617 733602.30421447754 109458.18278503418 813103.99028015137 274202.83769226074 342529.18699645996 79176.436782836914 3456338.5999145508 94858.082183837891 451733.55764770508 2201798.3575210571 445569.78289794922 61978.390075683594 152231.16963195801 137817.59747314453 1725015.1940994263 106135.53706359863 90196.548248291016 203125.80763244629 101837.65684509277 62806.654769897461 80781.579498291016 126822.87664794922 975133.92469787598 102171.08207702637 1272090.0380859375 1708054.7300415039 2377620.1492156982 596410.09292602539 565068.98864746094 898139.87342834473 3045346.0329666138 153674.55961608887 556577.74395751953 183604.57189941406 2539975.6540374756 178561.21043395996 49388.150695800781 183922.80492401123 69390.873443603516 2287451.2920074463 1563140.0046386719 747585.80300140381 1328322.5803527832 3339362.0716400146 227803.96032714844 54981.615249633789 798249.61897277832 224714.96992492676 1096952.9778747559 75160.033782958984 4145237.5386428833 2038484.4661254883 76306.920776367188 1255281.4911193848 191753.03315734863 182827.6322479248 3527545.7343444824 64010.636322021484 2108469.3599777222 59720.647735595703 822563.95446777344 124914.14836120605 497223.86179351807 1058046.6058273315 317444.94982910156 720463.85353851318 320152.71893310547 648289.95192718506 519838.29781341553 187874.08209228516 3076535.22706604 1420979.4384536743 40292.116027832031 795656.92071533203 2731988.128112793 47573.224182128906 83646.306091308594 645538.46012878418 922346.6231842041 344778.28578186035 619395.70379638672
leaf_count=1445 59615 504 2887 4246 1709 2520 6620 577 1147 423 1026 1325 961 809 1175 1679 1381 1413 1354 16618 179 559 1350 63539 498 1342 584 617 1038 444 279 476 1673 2390 933 1668 442 1888 1399 352 2772 1439 1320 24150 449 5446 300 2671 1249 1615 337 5086 341 893 15232 1960 453 541 245 10308 196 137 371 187 300 461 354 5337 418 3143 9334 2847 2876 2336 4105 17667 996 2480 850 16576 1004 281 1141 165 5523 4880 5265 5978 19676 830 295 4345 929 6014 603 31931 3990 302 8098 493 538 1670 160 13644 144 3833 374 3319 7059 1149 5322 1080 4066 3095 824 16015 8312 156 3256 15097 175 291 1284 6942 1901 2990
internal_value=0.000466084 0.146677 -0.0818879 0.198583 0.0282895 -0.0423507 -0.127242 -0.0194152 0.140922 -0.030314 0.247012 0.0589673 0.0684261 0.147247 -0.0168367 -0.0438977 -0.106014 -0.0206154 -0.0597037 -0.0649115 0.152931 0.0441467 -0.00774895 -0.152431 0.273222 0.161046 0.105202 -0.0716902 -0.0134052 0.0564614 0.0707231 0.0859372 -0.0983877 -0.0851864 -0.115028 0.164313 -0.0076749 0.0279709 -0.0697252 0.00926551 0.224546 -0.0550521 -0.0121165 -0.119093 0.0689905 -0.0810291 0.099707 0.0197908 -0.0314807 -0.0411375 0.0629425 0.153872 0.133957 0.0993542 -0.0916015 -0.00352804 -0.0566492 -0.0145882 0.100813 -0.090218 0.127025 0.123734 0.0991079 0.0621684 0.00872134 0.00867326 0.0241174 -0.0511714 0.0281129 0.0809226 -0.0562362 0.180458 -0.041935 -0.00729509 0.0061195 -0.0630787 -0.0661912 -0.00384459 -0.0609879 -0.0809261 -0.0790392 0.0117799 -0.0422274 0.0296112 0.0963242 0.0464387 -0.100249 -0.0162914 -0.0746964 -0.00672409 0.0192103 -0.0585741 0.0240347 -0.0523965 -0.106976 -0.125249 0.119226 0.0730398 -0.0979539 0.0692493 0.0365706 0.263562 0.0406969 -0.0994125 0.0416268 -0.00884182 0.0563163 -0.107525 -0.090627 0.00971082 -0.142764 0.0332818 -0.0897696 -0.0393124 -0.0428141 -0.0381436 -0.0624938 -0.0465417 -0.00374335 -0.0582298 -0.0228267 0.0787075 0.117154 -0.125707 -0.0363175 -0.0235926
internal_weight=1.13582e+08 4.09245e+07 7.26574e+07 2.84507e+07 1.24737e+07 3.88181e+07 3.38392e+07 1.92492e+07 1.29876e+07 1.68994e+07 1.54631e+07 2.34981e+06 8.01651e+06 1.25541e+07 1.27473e+07 4.45724e+06 1.83632e+07 1.22199e+07 1.90305e+06 1.95689e+07 1.14888e+07 4.82863e+06 1.85748e+06 1.54761e+07 7.13681e+06 8.74861e+06 3.18788e+06 4.15212e+06 1.03169e+07 3.49781e+06 527350 1.06532e+06 1.49628e+06 1.38637e+06 1.16946e+06 8.3102e+06 8.55016e+06 947345 2.59976e+06 1.43864e+06 8.32633e+06 1.21418e+07 7.60282e+06 9.62694e+06 556202 7.42715e+06 942899 1.59173e+06 2.33598e+06 1.76672e+06 3.20542e+06 5.04669e+06 1.59035e+06 546592 8.73622e+06 5.26684e+06 2.65584e+06 292396 404508 8.57526e+06 2.74016e+06 237781 438413 235287 133449 516683 435901 1.24934e+06 318421 1.53409e+06 1.91601e+06 3.26351e+06 4.60923e+06 4.85344e+06 1.9483e+06 7.53253e+06 418836 1.21017e+06 2.5051e+06 4.26499e+06 1.7552e+06 1.33082e+06 433516 187902 2.78354e+06 1.67132e+06 1.14205e+06 2.90514e+06 5.9701e+06 778621 207213 2.44313e+06 1.05016e+06 1.43948e+06 1.45705e+06 7.45557e+06 2.22093e+06 182442 2.17137e+06 266690 262004 5.20523e+06 413405 4.31027e+06 604588 1.08664e+06 227085 683744 1.23661e+06 874023 8.58047e+06 544868 723450 4.38066e+06 3.78425e+06 3.26441e+06 2.25952e+06 838542 845045 5.77733e+06 2.34007e+06 228470 754997 1.06964e+06 1.01175e+06 666969
internal_count=543301 80585 462716 33740 46845 206300 256416 91928 23528 84582 10212 7346 23051 21240 59878 23794 127940 58284 10999 114372 18511 15983 8297 128476 3194 13214 7068 24704 47285 10737 1594 2729 9971 8830 8298 12177 38243 3708 15497 5951 7018 67963 34535 70799 1820 46409 2225 6021 11457 9042 9342 7988 2902 1234 57141 23078 14733 1395 1017 55760 5297 579 1037 666 479 2169 1708 6586 1241 4018 10733 4189 24249 21598 8218 43714 2346 5308 14116 26884 10950 5246 2288 641 6484 5324 7655 13380 36294 3350 836 13663 4113 7629 10115 56081 4488 498 14718 772 875 2696 1480 28876 2153 4871 792 4764 8063 3629 68861 2009 4669 22810 19934 16839 12813 4501 3537 32764 11044 643 1584 7875 5066 3165
cat_boundaries=0 6 11 17 47 79 80 81 83 88 115 116 148 152 185 218 223 227 257 258 290 292 293 322 323 347 377 394 425 456 488 491 520 521 551 584 590 594 598 629 633 666 695 728 761 790 791 821 825 852 881 913 946 947 953 957 958 989 1019 1020 1053 1085
cat_threshold=1378623488 1074823568 4 8 8388608 64 6160 0 67108864 243275267 36 1008740841 136065948 1077248 8196 0 128 0 0 67109376 0 512 0 0 0 0 8 67108864 0 0 0 1048580 117448720 3 0 4096 2 1107304448 268435456 8388608 537206784 0 98304 4101 0 0 134217728 512 4 0 262144 0 16777217 268435456 1048576 0 0 0 1048576 1114112 0 2147483648 2147483650 4096 0 0 1073774592 8 256 2051 0 0 8388608 16785408 65538 2147483664 1 537919488 1 1 1 17563849 1024 941629801 134493596 269546112 524292 262144 0 0 512 0 0 0 0 0 0 0 0 0 0 0 4 16777216 1 0 0 2 0 0 8388608 536870912 0 0 5 1 0 0 2214592512 0 0 134742016 0 0 0 524292 0 0 32768 1573120 0 16 1073774592 2352 8192 0 64 536871440 0 278528 0 0 0 67108864 2097152 1073741824 0 524288 2148532224 0 0 20 2 553648128 2147483656 0 4194304 0 0 4 0 4718592 192 0 1048576 0 2097184 0 65536 1075838978 16384 16384 2147483648 536870912 132096 512 4096 134225920 0 0 0 1073745920 16 0 4 268435456 0 2048 0 0 0 33554432 0 0 524288 64 256 8388608 524288 33554432 536871168 1114112 536872992 0 4194304 2717908992 536870912 16 33562624 0 33554432 136 0 256 0 0 2147484672 4 2232586264 524398 3330408448 645927958 36 3289467542 1821184 2156134402 24594 144 134217728 520 132 0 131072 2097152 2 0 67108864 167772160 0 0 2097152 4194464 16777216 128 268435456 0 67108864 0 576 4 0 0 0 8 131072 12288 2052 64 268698624 0 2147483648 16 0 131074 2147483648 1073741824 0 0 134217728 0 524288 2214592512 32896 67108864 1081378 0 4980736 0 0 8 0 8192 0 16 0 131072 536871424 33554432 262144 4194304 557842560 4096 12 0 268435456 268435456 0 0 0 0 0 538968064 524288 64 0 2148564992 524288 0 0 16384 536870944 1048576 1073741824 0 536871040 16 0 0 0 0 134217728 256 1 2 0 0 0 0 0 0 0 0 0 0 0 0 0 0 0 524288 0 0 0 0 0 256 128 268435456 0 268959744 0 0 67108864 1152 0 268435456 0 16 0 0 0 16777312 16777216 271232 16 262144 81920 20480 71303168 68 0 0 4194816 1 0 8192 1048576 0 0 0 0 0 0 33554432 0 0 524288 64 0 0 524288 33554432 0 65536 256 0 0 0 0 0 0 0 0 0 0 0 512 256 0 33554432 0 0 0 2097152 0 1 0 0 0 134217984 0 83886080 8192 1209008128 67108864 0 0 2 1 268435456 0 0 0 0 0 64 256 262144 32768 5242880 0 32768 0 8 131072 8192 2147483648 131088 8192 0 0 2097152 16777248 4097 0 128 0 268435456 0 0 0 0 0 0 0 268436480 67108864 256 2214592512 1048576 16777216 512 272630272 0 128 2 268435456 3254779904 2 64 0 134226176 135296 1073741824 0 1073745920 0 2147745792 16973897 524288 49152 0 0 4098 0 512 134217728 0 2 0 0 64 0 32832 0 1048576 33554433 4784128 33554432 16384 37748736 64 18 2147483648 0 0 33562624 0 150994944 2097153 1 2 0 67108864 0 0 131072 0 192 0 0 0 0 0 0 35651584 0 512 8 0 0 8256 2147483648 16 0 0 33554432 0 0 196608 8388608 0 1024 335544320 0 33554432 131072 1 68 134217728 525312 134217728 0 0 0 16777248 33554432 589824 32 0 1077936128 2147483648 256 16 0 0 526336 655616 0 8192 0 0 134217728 4 9076736 3 0 0 0 4 939598153 134766980 8704 8192 2240942096 4096 3288334336 545259536 0 0 67108864 0 0 0 0 128 32768 0 0 256 2281701376 0 0 570425600 65536 32 4 4210688 2147487744 33 524288 512 4096 524288 33554560 134217732 12288 0 128 10433 0 0 8192 0 0 512 0 268435456 2 0 0 0 4194304 0 0 0 524288 0 0 66560 256 0 65536 1073745920 16 1073741824 0 0 33554688 16777216 0 0 0 0 2 512 0 0 0 0 0 0 134217728 0 0 0 0 0 0 0 0 0 0 0 0 0 1073741824 268435456 1 0 4096 134217728 0 0 8 2 33554432 0 4 0 0 234881024 0 67633152 0 134217792 2097152 8192 134217728 512 67108864 0 538968064 0 0 16384 4194304 20 33554432 0 33587200 8 0 4096 402653184 67108864 0 4 128 2304 0 0 0 262144 0 64 16384 8 0 0 2290089984 0 0 805371904 0 2048 131104 136314880 1879572481 0 0 0 0 0 4194320 0 0 0 2214592512 524288 2560 0 268435456 0 16 0 524288 2098176 0 0 0 134217728 2048 262144 2147516416 2147483780 1 0 1107296256 671105024 4194304 1107296320 134217792 3221225472 0 0 0 37748752 0 2048 268435872 1 0 268435456 0 2147483648 536870912 33554432 0 0 0 2097152 4096 262144 32768 0 32 1081346 0 0 65544 12288 134217745 16 33693696 0 524288 16 1073741824 1050624 268582912 2887778777 440228 269537286 548864 512 0 0 0 0 16777216 0 0 0 0 0 1048576 1048576 0 0 0 0 0 0 1073741824 0 0 0 0 0 8388608 16777216 0 0 67108864 0 0 0 134217728 0 0 0 0 0 2281701376 0 1048576 8 1310720 536870912 0 0 0 536870912 0 0 0 1048576 0 0 262144 131072 67108864 2147483649 2097152 2147483648 4096 66560 0 67108864 33554432 33554432 4096 167772160 0 16777216 1024 536880384 536872960 0 147456 16384 0 0 2097152 262144 0 33554432 0 256 0 67108864 4 0 0 0 0 0 0 0 4 0 20971520 0 0 0 540672 35160128 0 0 67108896 134742016 407175680 41959424 536870928 65536 0 0 1048576 0 0 0 64 0 2048 4 1 8912896 1 131072 0 0 4 2214662440 8405024 67108864 4112 1 67108864 65536 0 144 0 524832 0 67108864 0 4 32768 0 8388608 32768 0 288 0 1 32768 0 0 0 16 147457 0 1073741952 16 128 67108864 805306368 16 0 0 0 0 1024 0 0 0 0 0 0 0 0 0 32 0 128 2 0 0 0 2147483648 0 0 16 0 0 0 0 256 19 268437504 0 2147483648 268435460 0 0 33554432 0 0 524288 64 0 0 2148008192 33554432 272 0 134217762 0 0 16392 536870928 2147483648 33816576 4096 32768 8 0 0 268435456 0 0 4 0 536870912 2 0 0 536870912 0 2 0 0 64 32 32768 134758656 0 33554432 1074003968 36 16384 0 33558528 17 131072 0 0 100696064 128 0 2367488 0 0 2147483648
is_linear=0
shrinkage=0.118


Tree=4
num_leaves=127
num_cat=66
split_feature=4 21 24 24 24 24 24 31 21 4 6 24 21 7 7 31 15 7 6 63 6 24 31 63 63 4 21 63 63 21 63 15 24 10 24 31 36 13 24 32 24 15 26 24 63 37 15 36 63 4 63 13 63 31 12 12 65 63 27 63 31 17 63 31 63 63 63 31 63 31 4 63 63 65 20 38 39 38 63 24 31 21 63 12 63 63 31 32 63 63 15 63 63 32 63 13 31 63 63 63 4 63 63 24 63 63 7 20 63 63 63 38 7 63 13 59 63 15 63 24 28 15 15 13 20 62
split_gain=7.82018e+07 1.58346e+07 8.13061e+06 5.95813e+06 1.40222e+06 946162 883452 788804 735840 583046 731385 386499 316921 309433 302086 321123 295805 210419 203058 202491 188671 169217 150041 147044 145735 144034 141026 138344 128019 126721 115706 108506 99572.3 96087.3 86589.5 84652.3 81460.6 80852.5 73446.9 68200.2 65498.1 63870.6 63104.7 61887.7 59936.7 60646.9 58232 57974.3 57833.3 57688.3 56562.7 56509.5 56595.1 53859.3 50829.7 50097.5 47110.7 44444.8 44095.1 50267.1 43931.5 43847.5 56650 43772.9 44713.7 43448.7 42744.3 42563.4 40319.9 38779.9 60462.5 37983.8 35490.4 35444.3 55082.9 34511.2 34367.2 34365.6 33991.3 33681.6 33615.4 32956 32055.2 31646.8 30677 30208.7 29541.7 29524.2 29339.8 28551.6 28527.1 28242 28116.1 27676.6 27660.1 26927 26485.6 25919.2 25899.1 25764.1 25495.9 25263.8 24308 24249.4 24024.4 23931.3 23831.3 28915 41647.1 26309.2 23698.3 23273.4 33650.2 22474.4 22179.1 22395.2 22124.5 21981.4 21950.2 21542.2 21417.9 21091.8 20998.3 20563.1 31806.6 20306.3
threshold=0 1.0000000180025095e-35 1322.2271139971142 5290.4171045332414 2524.2084121621624 13447.933905210646 549.84379216514196 1580.5983076329665 104992.34500000002 1 2 19158.058236379056 98287.540000000023 46.500000000000007 28.500000000000004 7526.6747968657301 3 1.0000000180025095e-35 4 5 6 851.9532731729056 3802.6255483480122 7 8 9 72952.430000000008 10 11 191240.07000000004 12 13 253.69922988505752 14 4347.0476189178144 4397.7856232605836 1978.0675555555556 1909.7365793508245 20702.70348856732 1929663.6300000001 3259.9992599219263 15 104.50000000000001 2151.3370726495727 16 3224.9421802115025 17 3843.0876630098137 18 19 20 1348.3863508354536 21 913.6229505858978 22 23 7.5000000000000009 24 503.50000000000006 25 13708.523881403036 26 27 6283.4759234063795 28 29 30 580.56992020759208 31 4832.0453381321977 32 33 34 7.5000000000000009 35 1983.9848319570685 3563.9443718883999 3843.0876630098137 36 2007.1607500000002 31536.221171877431 59761.205000000009 37 38 39 40 1450.4799670657167 30947.690000000002 41 42 43 44 45 5703450.9650000008 46 1177.7155129716123 1371.9414101115258 47 48 49 50 51 52 5761.201723443648 53 54 11.500000000000002 55 56 57 58 7033.175589510075 3.5000000000000004 59 14623.301909703083 5602.3339092012766 60 61 62 906.07712887989226 307.64161610448383 63 64 3266.8513675818103 65 82.500000000000014
decision_type=9 2 2 2 2 2 2 2 2 9 1 2 2 8 8 2 9 10 1 9 1 2 2 9 9 9 2 9 9 2 9 9 2 9 2 2 8 2 2 2 2 9 2 2 9 8 9 8 9 9 9 2 9 2 9 9 2 9 2 9 2 1 9 2 9 9 9 2 9 2 9 9 9 2 9 10 8 10 9 2 2 2 9 9 9 9 2 2 9 9 9 9 9 2 9 2 2 9 9 9 9 9 9 2 9 9 10 9 9 9 9 10 10 9 2 2 9 9 9 2 2 9 9 2 9 2
left_child=1 3 6 7 18 14 32 21 26 11 12 34 23 19 15 35 24 66 25 76 49 87 57 56 77 86 81 -17 38 113 -24 53 -2 121 123 88 101 83 125 116 -38 71 50 65 -29 48 78 114 -46 119 -39 94 -53 -20 -22 -33 -11 -19 75 -60 -15 62 80 89 -65 -23 -9 -56 -49 103 -71 -35 -55 74 -47 -52 -7 -12 -27 -57 -54 91 -77 -18 -85 -63 96 -1 111 -64 -51 -3 -48 -75 -42 -86 -4 -32 -59 -69 -88 -26 -80 -36 -37 -58 107 108 -70 -109 -73 -5 -113 -10 115 -30 -16 -84 -97 -8 -104 -25 -112 124 -6 -21
right_child=2 8 4 5 9 13 20 17 29 10 16 -13 -14 60 39 27 37 22 31 28 54 43 30 33 36 46 -28 44 47 -31 97 55 -34 41 69 104 40 42 -40 -41 51 -43 -44 -45 45 73 92 68 -50 90 58 52 61 72 67 79 105 98 59 -61 -62 85 63 64 -66 -67 -68 99 106 70 -72 110 -74 93 -76 82 -78 -79 102 -81 -82 -83 117 84 95 -87 100 -89 -90 -91 -92 -93 -94 -95 -96 118 -98 -99 -100 -101 -102 -103 120 -105 -106 -107 -108 109 -110 -111 122 112 -114 -115 -116 -117 -118 -119 -120 -121 -122 -123 -124 -125 -126 -127
leaf_value=-0.1677306070161938 -0.16495006067807763 0.14584363281477605 -0.061090790085105123 0.034268006252248816 -0.027657959865461344 0.11936424700838462 -0.1134301378347056 -0.02028118087156746 0.23464873777771847 -0.048414118297759767 0.0036770051694357485 0.12822410442490853 0.21925100675964465 0.080179419536972399 0.054391379728061531 -0.01997040296279259 -0.1646211865092046 -0.024635760837078288 -0.060112511577613929 0.052664317328482167 -0.1621404146322003 -0.13507772139973487 -0.073471541299325427 -0.080094833132552876 -0.0096242397954131188 -0.036537026150482071 0.2226181764553897 0.14227740059308705 0.020792462942569857 0.28717507857283286 0.14329432504222314 -0.1631100687735679 -0.14295801893437338 -0.045831985080109432 0.017198523115543971 0.098868110866687758 -0.02548514187711156 0.043659628710481395 -0.024610247142968108 -0.074866657956379229 -0.0048596227616536699 -0.12151263405749986 0.094841859231241166 -0.025958029155917103 0.11597734920530145 0.11725833692653451 -0.067919821470517033 0.1435761141933434 -0.020582790523060362 -0.11548702698818132 -0.064711661052266681 -0.061781467811456062 0.023511250515128142 0.0044560891875115183 -0.09844321617529446 -0.07496891132803539 -0.014823413885643196 0.062873966910483747 0.11646711920149121 -0.017415754606324295 -0.057943114565948146 0.060746705947166378 -0.032060438392936326 0.0062213549274904795 -0.036404302474937193 -0.055998867726649089 -0.08793999875489196 -0.037804497172041047 0.049334401489206953 0.056077833718532637 -0.12900253550757079 -0.14089107498504336 -0.042204000034355246 0.11979926419450115 0.0098410166497306384 -0.066080778967421816 0.16458726906369534 0.077650426325008418 -0.13857254266690985 -0.058064826717020832 0.11279060145310404 0.20225943835932333 -0.01639282462503425 -0.0028522690137329685 -0.080469717391206438 0.010878052082162496 0.016802633220945915 -0.10323341595512919 0.053259431507161892 0.0091060222674474427 -0.13059747342853542 0.18759752303116067 -0.1207979488143191 0.062071273461828218 -0.059500038126189633 -0.027833074376577852 -0.15059289133974005 0.073353858029895899 0.01668663785927842 -0.081253410906734019 -0.07123900637456386 -0.057689145569105954 -0.081464952116914055 0.049968018905971717 0.072079156336883179 0.081425590051117061 0.15551286095076639 0.15965546683426671 0.11733573196623526 0.12092980044339967 -0.092614300502533331 0.036224016620820296 -0.10022036461370172 0.25453057791112477 0.11543128894356211 0.094081602861869437 -0.02987213769644315 -0.037784770528969079 -0.057038538055465188 -0.08865106373583348 -0.11737839757326077 -0.019755099446007705 -0.028128931740192632 -0.0085816807463988155 -0.13965393095195583 0.10309358848984281
leaf_weight=134523.57733917236 4632378.1538467407 252018.58911132812 1376039.3378143311 297107.63026428223 209557.42189788818 255457.28643798828 965905.53631591797 325933.80241394043 1125233.7454223633 224073.5191192627 119331.96624755859 424278.94967651367 48365.729202270508 42526.146453857422 126605.73728179932 108401.11614990234 36346.145965576172 345628.08644104004 3273962.3681488037 146704.53764343262 137272.82308959961 102598.6400604248 74483.006805419922 115404.90991210938 200037.9825592041 172909.79873657227 4086319.1242980957 865392.76872253418 95384.380020141602 1729277.3720703125 80302.126617431641 80045.649063110352 7520549.2966842651 280271.86589050293 672743.07745361328 611608.86456298828 2104367.0760879517 136342.82090759277 87778.547836303711 184507.21082305908 214206.4419708252 1192234.2677536011 56303.731567382812 1205572.3156890869 76958.034729003906 154773.75230407715 153737.000831604 2678041.4551696777 98366.731369018555 3158229.0148391724 521381.47871398926 185428.56478881836 598143.59297180176 245395.50898742676 3118524.1077957153 4850940.424331665 65697.829956054688 189272.16395568848 55302.951675415039 132786.50926208496 130322.57678985596 296137.25523376465 262781.92356872559 536714.0570526123 947720.2138671875 1695936.3726882935 216308.12745666504 208822.45677947998 134390.29125976562 45364.072525024414 53616.275146484375 133485.34161376953 3025128.3100280762 1986746.7189331055 116519.12405395508 337953.96775817871 2784053.9249267578 327253.10946655273 139823.58008575439 2480485.0902328491 65114.418746948242 2669967.9779968262 1286435.853553772 155459.69849395752 534647.25862121582 394413.35121154785 125284.8448638916 372387.92500305176 1697018.9141387939 2185855.3527832031 3879816.9833679199 2183562.7471466064 1579588.8647232056 122786.15634155273 324328.8298034668 454055.25881195068 47630.638008117676 910754.86123657227 1581507.2049102783 2118440.4732971191 72176.678131103516 637829.5859375 1408341.9497299194 590357.60188293457 1962558.6109313965 79482.059677124023 305750.5315246582 424385.9853515625 1886095.4310913086 576933.52224731445 1049295.0891876221 50796.243316650391 49881.882843017578 2706589.0733032227 249834.7995300293 148342.60739135742 65998.320808410645 1393282.3974380493 1700730.1779632568 988448.55783843994 276639.6946105957 267961.09107971191 75394.536766052246 941346.15425109863 42457.357833862305 459156.02334594727
leaf_count=1223 44677 322 8428 991 1071 463 7681 1557 692 1262 498 718 57 128 440 450 297 1608 19654 406 1278 816 382 732 928 1001 2910 1324 312 484 135 750 67011 1629 2544 1292 10389 504 385 1115 938 9459 148 5922 145 280 1056 3990 377 25129 3039 1028 2250 1165 22493 31449 303 568 119 624 744 917 1261 2247 4877 9993 1403 1246 320 142 295 1089 16729 3555 382 1995 3476 844 1117 14850 158 2324 6337 733 3292 1597 594 2855 4971 9018 32612 2197 12428 311 1766 2364 388 2372 6001 14250 451 3605 9684 1829 4913 258 423 582 3366 1038 7341 155 252 1312 467 323 342 7510 9900 6965 2079 1391 426 4377 280 931
internal_value=-6.18562e-05 0.128987 -0.0769659 0.0739557 -0.0446014 0.108686 -0.127847 -0.0171586 0.226779 -0.0247266 -0.0320735 0.0239261 -0.0807302 0.132604 0.0796673 0.084417 -0.0214666 0.0206718 -0.06798 0.135249 -0.108258 -0.057286 0.0322505 -0.0848954 -0.00790374 -0.0875206 0.206281 0.111274 0.124457 0.26066 0.0683628 -0.0604861 -0.151341 -0.0932438 0.0066096 0.0641115 -0.0111853 -0.0402116 0.0762661 -0.0235963 -0.00756863 -0.101011 -0.0291811 -0.0466446 0.115432 0.106343 -0.100281 0.129601 0.0393652 -0.118836 -0.0309885 -0.00129614 0.00229305 -0.0494134 -0.0912193 -0.0702635 -0.0144873 0.0140692 -0.0337192 0.0219544 -0.0239606 0.00454047 0.000375173 -0.00500447 -0.0209927 -0.060511 -0.0472733 -0.0894311 0.132796 0.0269409 -0.044185 -0.0851216 -0.0387031 0.111276 0.0711278 -0.0366782 0.160786 0.0578827 -0.086547 -0.0692496 0.0322757 0.193205 -0.0318347 -0.0552183 -0.0538198 0.0322649 -0.0581525 -0.12035 0.0464983 0.00468804 -0.123817 0.183278 -0.116108 0.116439 -0.0377676 -0.0567659 -0.0640852 0.0790223 0.0216238 -0.0773553 -0.0153814 -0.0462146 -0.0912855 0.0325146 0.0784447 0.0378749 0.124119 0.120943 0.112813 0.137344 -0.0938733 0.0176526 -0.0313786 0.248693 0.0907249 0.0653994 0.0255186 -0.0275154 -0.0508848 -0.100897 -0.0873607 -0.0379208 -0.0882918 -0.0165962 -0.0465328 0.0908825
internal_weight=1.09718e+08 4.09694e+07 6.87486e+07 2.62164e+07 4.20202e+07 1.89812e+07 2.67284e+07 7.23521e+06 1.4753e+07 2.27121e+07 1.97324e+07 2.97972e+06 3.53167e+06 1.04052e+07 8.57603e+06 8.19892e+06 1.62007e+07 3.72419e+06 1.93081e+07 1.02323e+07 1.45755e+07 3.51102e+06 3.18195e+06 3.4833e+06 9.39966e+06 5.35217e+06 9.19187e+06 3.52994e+06 7.1928e+06 5.5611e+06 1.06554e+06 1.3956e+07 1.21529e+07 3.11405e+06 2.55544e+06 4.66897e+06 8.95308e+06 6.80103e+06 693639 377111 8.11521e+06 2.73068e+06 3.91979e+06 3.00411e+06 3.42154e+06 2.55615e+06 3.73104e+06 6.49916e+06 175325 8.9924e+06 3.86349e+06 6.01084e+06 5.47231e+06 6.54449e+06 5.58306e+06 7.41147e+06 369253 2.11641e+06 3.72714e+06 188089 172849 5.28688e+06 4.59633e+06 3.93307e+06 1.48443e+06 1.79854e+06 542242 5.44579e+06 6.0056e+06 1.36208e+06 98980.3 1.53845e+06 3.27052e+06 2.38083e+06 271293 3.53905e+06 3.03951e+06 446585 1.99772e+06 7.33143e+06 663258 5.10555e+06 3.01767e+06 2.88124e+06 2.84489e+06 690551 1.62113e+06 506912 2.0948e+06 2.44864e+06 7.03805e+06 2.43558e+06 1.73333e+06 2.10953e+06 538535 2.68943e+06 1.42367e+06 991057 1.77078e+06 2.32726e+06 197462 837868 1.82481e+06 1.2631e+06 2.57417e+06 145180 3.32756e+06 3.02181e+06 2.02049e+06 1.00132e+06 1.25817e+06 397786 100678 3.83182e+06 493562 243727 192604 2.67972e+06 2.15479e+06 1.95435e+06 1.68498e+06 383366 1.12469e+06 1.19336e+06 252015 605861
internal_count=543276 83725 459551 73484 236209 38649 223342 34835 10241 114386 103130 11256 23947 17354 21295 19398 79183 14026 121823 16482 111654 20809 11066 23890 42321 37226 7753 6824 12543 2488 2889 84597 111688 22067 10538 12574 40979 36862 1722 1897 36446 19944 20276 16731 6374 5050 27365 10821 522 72387 20128 26057 23353 37548 39267 47049 1823 8177 19624 743 872 22325 19811 17403 7124 10809 2960 37989 9719 4810 437 10485 17894 4528 662 18881 3939 1342 13881 46299 2408 4843 15842 16586 16289 2514 9861 4078 6369 10279 57741 2519 13484 3866 2704 15556 8816 2507 6569 15496 1045 4533 12880 4373 6205 561 5729 5306 3686 1620 8856 1398 407 2004 1102 635 782 13847 12264 14646 11763 2123 7767 5728 1351 1337
cat_boundaries=0 6 12 13 17 18 51 52 82 114 119 146 173 203 207 208 214 245 249 271 276 307 339 340 341 373 396 397 426 458 491 520 553 557 589 617 618 650 680 681 714 744 774 804 810 836 868 901 931 962 994 998 1028 1057 1090 1119 1120 1142 1164 1192 1221 1250 1252 1283 1287 1289 1290
